{"learner":{"attributes":{"best_iteration":"21","best_score":"0.6528850151452159","scikit_learn":"{\"_estimator_type\": \"classifier\"}"},"feature_names":["wallet_age_days","wallet_age_months","tx_count","active_months_12","aave_borrows","compound_borrows","total_borrows","protocols_used_count","has_uniswap_lp","has_staked_eth","has_eth","has_ens","is_gnosis_safe","total_portfolio_usd","stablecoin_pct"],"feature_types":["float","float","float","float","float","float","float","float","float","float","float","float","float","float","float"],"gradient_booster":{"model":{"cats":{"enc":[],"feature_segments":[],"sorted_idx":[]},"gbtree_model_param":{"num_parallel_tree":"1","num_trees":"42"},"iteration_indptr":[0,1,2,3,4,5,6,7,8,9,10,11,12,13,14,15,16,17,18,19,20,21,22,23,24,25,26,27,28,29,30,31,32,33,34,35,36,37,38,39,40,41,42],"tree_info":[0,0,0,0,0,0,0,0,0,0,0,0,0,0,0,0,0,0,0,0,0,0,0,0,0,0,0,0,0,0,0,0,0,0,0,0,0,0,0,0,0,0],"trees":[{"base_weights":[-9.217024E-3,1.4106922E-1,-1.1669763E0,1.8110093E-1,-8.0851066E-1,-1.246857E0,2.4282983E-2,3.7510818E-1,4.474646E-2,-1.0067492E0,3.1854685E-2,-7.5958186E-1,-1.4659733E0,4.3601447E-1,-3.266745E-1,-1.6702613E-3,7.5322336E-1,-1.1542361E0,4.358027E-4,-1.3224131E0,-2.8901735E-1,-1.4971566E0,-2.602546E-2,2.7199107E-1,7.8546923E-1,-1.0924078E0,9.268971E-2,2.6538956E-1,-1.3471654E-1,3.214868E-1,6.6547774E-2,3.414634E-3,-6.5044366E-2,-2.4082365E-2,-7.777778E-2,1.2428294E-2,-4.374832E-2,-1.5509222E0,-6.052632E-1,1.6758295E-2,-4.409405E-2,5.2805282E-2,5.6085028E-5,-1.7344924E-2,-6.363636E-2,4.9360614E-2,-1.8596692E-2,-1.94027E-2,1.8766146E-2,-4.90337E-2,-1.6368041E-3,4.9360614E-2,-3.7554589E-3,-3.3056002E-2,1.6871406E-2,-7.962317E-2,-2.602546E-2,3.414634E-3,-5E-2],"categories":[],"categories_nodes":[],"categories_segments":[],"categories_sizes":[],"default_left":[0,0,0,0,0,0,0,0,0,0,0,0,0,0,0,0,0,0,0,0,0,0,0,0,0,0,0,0,0,0,0,0,0,0,0,0,0,0,0,0,0,0,0,0,0,0,0,0,0,0,0,0,0,0,0,0,0,0,0],"id":0,"left_children":[1,3,5,7,9,11,-1,13,15,17,-1,19,21,23,25,27,29,31,-1,33,35,37,-1,39,41,43,45,47,49,51,-1,-1,-1,-1,-1,53,-1,55,57,-1,-1,-1,-1,-1,-1,-1,-1,-1,-1,-1,-1,-1,-1,-1,-1,-1,-1,-1,-1],"loss_changes":[6.312178E1,1.2354488E1,6.107895E0,8.156848E0,4.416795E0,3.1614037E0,0E0,5.587595E0,6.005598E0,1.8032417E0,0E0,3.4567642E0,3.2997131E-3,6.529804E0,3.5516856E0,6.15979E0,2.372932E0,1.9645472E0,0E0,4.897442E-1,1.631337E0,2.6794052E-1,0E0,6.2436285E0,7.863817E0,8.014393E-2,3.6357822E0,4.2869344E0,9.950005E0,2.1190014E0,0E0,0E0,0E0,0E0,0E0,1.7649835E0,0E0,1.5957642E-1,8.84724E-1,0E0,0E0,0E0,0E0,0E0,0E0,0E0,0E0,0E0,0E0,0E0,0E0,0E0,0E0,0E0,0E0,0E0,0E0,0E0,0E0],"parents":[2147483647,0,0,1,1,2,2,3,3,4,4,5,5,7,7,8,8,9,9,11,11,12,12,13,13,14,14,15,15,16,16,17,17,19,19,20,20,21,21,23,23,24,24,25,25,26,26,27,27,28,28,29,29,35,35,37,37,38,38],"right_children":[2,4,6,8,10,12,-1,14,16,18,-1,20,22,24,26,28,30,32,-1,34,36,38,-1,40,42,44,46,48,50,52,-1,-1,-1,-1,-1,54,-1,56,58,-1,-1,-1,-1,-1,-1,-1,-1,-1,-1,-1,-1,-1,-1,-1,-1,-1,-1,-1,-1],"split_conditions":[6E0,3E0,3.161E3,1E0,2.393E3,1E0,2.4282983E-2,3E0,1.415E3,9.78E2,3.1854685E-2,9.8E1,3E0,1.594E3,2.1E1,9.39E2,2.636E3,1.4E2,4.358027E-4,1.1E1,3.7E1,2.442E3,-2.602546E-2,4E0,2.304E3,1.979E3,4.8E1,5E0,9E0,2.125E3,6.6547774E-2,3.414634E-3,-6.5044366E-2,-2.4082365E-2,-7.777778E-2,8E0,-4.374832E-2,2.979E3,3E1,1.6758295E-2,-4.409405E-2,5.2805282E-2,5.6085028E-5,-1.7344924E-2,-6.363636E-2,4.9360614E-2,-1.8596692E-2,-1.94027E-2,1.8766146E-2,-4.90337E-2,-1.6368041E-3,4.9360614E-2,-3.7554589E-3,-3.3056002E-2,1.6871406E-2,-7.962317E-2,-2.602546E-2,3.414634E-3,-5E-2],"split_indices":[5,7,0,10,0,10,0,5,2,2,0,2,7,0,2,0,0,2,0,5,5,2,0,3,0,0,2,1,2,2,0,0,0,0,0,5,0,0,5,0,0,0,0,0,0,0,0,0,0,0,0,0,0,0,0,0,0,0,0],"split_type":[0,0,0,0,0,0,0,0,0,0,0,0,0,0,0,0,0,0,0,0,0,0,0,0,0,0,0,0,0,0,0,0,0,0,0,0,0,0,0,0,0,0,0,0,0,0,0,0,0,0,0,0,0,0,0,0,0,0,0],"sum_hessian":[3.608325E2,3.2015234E2,4.0680134E1,3.0797812E2,1.2174242E1,3.903872E1,1.6414142E0,1.263931E2,1.8158502E2,1.0973064E1,1.2011784E0,1.3494949E1,2.5543772E1,1.1664815E2,9.744949E0,1.7135606E2,1.0228956E1,9.462121E0,1.5109427E0,5.320707E0,8.174242E0,2.41633E1,1.3804713E0,8.05968E1,3.6051346E1,2.8804715E0,6.864478E0,5.664983E1,1.1470623E2,6.7449493E0,3.4840066E0,1.0707071E0,8.391414E0,1.8207071E0,3.5E0,6.043771E0,2.1304715E0,2.2092592E1,2.070707E0,7.708586E1,3.5109427E0,2.6545454E1,9.505892E0,1.1304713E0,1.75E0,1.9621212E0,4.902357E0,7.793771E0,4.885606E1,1.14133E1,1.0329293E2,1.9621212E0,4.7828283E0,1.6304713E0,4.4132996E0,2.0712122E1,1.3804713E0,1.0707071E0,1E0],"tree_param":{"num_deleted":"0","num_feature":"15","num_nodes":"59","size_leaf_vector":"1"}},{"base_weights":[2.9012015E-2,1.7667995E-1,-1.0900776E0,4.1042665E-1,2.1963604E-2,-1.1651657E0,2.3530688E-2,4.8845726E-1,-3.129704E-1,4.138369E-1,-9.070238E-2,-6.5520275E-1,-1.3881677E0,4.0739697E-1,1.1409316E0,3.221843E-2,-4.6573174E-1,6.7518157E-1,-1.4810258E-1,-7.762892E-1,1.4416672E-2,-8.2533574E-1,3.2284968E-2,-1.421908E0,-1.616402E-2,4.488322E-1,-5.7325304E-1,7.290399E-2,4.3059078E-1,-3.90508E-2,-1.7125806E-1,-1.04133315E-1,9.00352E-1,-5.4493064E-1,7.551273E-1,-1.0050818E0,6.0453262E-2,-5.6548066E-2,8.3380854E-1,-4.2668426E-1,-6.5477185E-2,-1.0618517E0,-8.040128E-2,2.4378944E-2,-1.9068427E-2,-4.288381E-2,4.8058806E-4,-7.974847E-4,3.098066E-2,9.336769E-3,-2.6339306E-2,-1.3984292E-2,2.5897045E-2,1.3147922E-2,5.6841213E-2,-5.031125E-2,3.0871635E-2,5.9280504E-2,-1.7578995E-2,-6.1520595E-2,-1.3771056E-2,1.9927336E-2,-7.420577E-3,1.6713886E-2,5.6966748E-2,-3.0794606E-2,2.4984945E-2,-6.1268583E-3,-6.0684144E-2],"categories":[],"categories_nodes":[],"categories_segments":[],"categories_sizes":[],"default_left":[0,0,0,0,0,0,0,0,0,0,0,0,0,0,0,0,0,0,0,0,0,0,0,0,0,0,0,0,0,0,0,0,0,0,0,0,0,0,0,0,0,0,0,0,0,0,0,0,0,0,0,0,0,0,0,0,0,0,0,0,0,0,0,0,0,0,0,0,0],"id":1,"left_children":[1,3,5,7,9,11,-1,13,15,17,19,21,23,25,27,-1,29,31,33,35,37,39,-1,41,-1,43,45,-1,47,-1,49,51,53,55,57,59,-1,61,63,65,-1,67,-1,-1,-1,-1,-1,-1,-1,-1,-1,-1,-1,-1,-1,-1,-1,-1,-1,-1,-1,-1,-1,-1,-1,-1,-1,-1,-1],"loss_changes":[5.9563343E1,1.1500323E1,5.4726524E0,7.30447E0,8.538974E0,3.6824799E0,0E0,5.604315E0,2.1932564E0,6.441129E0,1.084856E1,3.671124E0,5.1760864E-1,4.467945E0,2.1037865E0,0E0,9.566114E-1,5.29696E0,5.6182313E0,1.03043375E1,7.685853E0,1.9464121E0,0E0,3.955841E-2,0E0,3.4022179E0,7.774786E-1,0E0,4.4556165E-1,0E0,1.0342832E0,9.6862376E-1,3.184084E0,6.344257E0,2.7290146E0,2.7008457E0,0E0,5.152562E0,1.2268319E0,1.8153727E0,0E0,1.5381613E0,0E0,0E0,0E0,0E0,0E0,0E0,0E0,0E0,0E0,0E0,0E0,0E0,0E0,0E0,0E0,0E0,0E0,0E0,0E0,0E0,0E0,0E0,0E0,0E0,0E0,0E0,0E0],"parents":[2147483647,0,0,1,1,2,2,3,3,4,4,5,5,7,7,8,8,9,9,10,10,11,11,12,12,13,13,14,14,16,16,17,17,18,18,19,19,20,20,21,21,23,23,25,25,26,26,28,28,30,30,31,31,32,32,33,33,34,34,35,35,37,37,38,38,39,39,41,41],"right_children":[2,4,6,8,10,12,-1,14,16,18,20,22,24,26,28,-1,30,32,34,36,38,40,-1,42,-1,44,46,-1,48,-1,50,52,54,56,58,60,-1,62,64,66,-1,68,-1,-1,-1,-1,-1,-1,-1,-1,-1,-1,-1,-1,-1,-1,-1,-1,-1,-1,-1,-1,-1,-1,-1,-1,-1,-1,-1],"split_conditions":[6E0,1E0,3.161E3,2.332E3,6.93E2,1E0,2.3530688E-2,2.069E3,1E1,2.4E1,1.2E1,1E-2,1E1,3E0,7.3E1,3.221843E-2,7.8E1,5E0,9.8E1,9E0,1.415E3,1.8E1,3.2284968E-2,1E0,-1.616402E-2,5E0,2.9E1,7.290399E-2,2.237E3,-3.90508E-2,1E0,1E1,5E0,1.8E1,4.82E2,1.015E3,6.0453262E-2,1.021E3,2.254E3,2.419E3,-6.5477185E-2,1.793E3,-8.040128E-2,2.4378944E-2,-1.9068427E-2,-4.288381E-2,4.8058806E-4,-7.974847E-4,3.098066E-2,9.336769E-3,-2.6339306E-2,-1.3984292E-2,2.5897045E-2,1.3147922E-2,5.6841213E-2,-5.031125E-2,3.0871635E-2,5.9280504E-2,-1.7578995E-2,-6.1520595E-2,-1.3771056E-2,1.9927336E-2,-7.420577E-3,1.6713886E-2,5.6966748E-2,-3.0794606E-2,2.4984945E-2,-6.1268583E-3,-6.0684144E-2],"split_indices":[5,10,0,0,0,10,0,0,2,2,2,13,3,5,1,0,2,1,2,4,2,5,0,3,0,3,2,0,0,0,3,2,2,1,0,0,0,0,0,0,0,0,0,0,0,0,0,0,0,0,0,0,0,0,0,0,0,0,0,0,0,0,0,0,0,0,0,0,0],"split_type":[0,0,0,0,0,0,0,0,0,0,0,0,0,0,0,0,0,0,0,0,0,0,0,0,0,0,0,0,0,0,0,0,0,0,0,0,0,0,0,0,0,0,0,0,0,0,0,0,0,0,0,0,0,0,0,0,0,0,0,0,0,0,0,0,0,0,0,0,0],"sum_hessian":[3.5827036E2,3.1725018E2,4.1020187E1,1.25695564E2,1.9155461E2,3.9379017E1,1.6411722E0,1.1375043E2,1.1945137E1,4.217812E1,1.493765E2,1.3179088E1,2.619993E1,1.0262515E2,1.1125273E1,1.2009255E0,1.0744211E1,2.8651478E1,1.352664E1,1.9009779E1,1.3036671E2,1.1978143E1,1.2009445E0,2.5070324E1,1.1296046E0,9.898506E1,3.6400888E0,6.9635735E0,4.161699E0,4.3908334E0,6.353378E0,6.543155E0,2.2108322E1,9.6733885E0,3.8532522E0,1.748819E1,1.5215898E0,1.2083278E2,9.533928E0,7.601215E0,4.376928E0,1.0828044E1,1.4242281E1,9.496558E1,4.0194826E0,2.1294754E0,1.5106134E0,1.5100425E0,2.6516562E0,3.4022756E0,2.9511023E0,5.5323076E0,1.0108476E0,6.5541368E0,1.5554186E1,7.0212646E0,2.6521235E0,2.722838E0,1.1304141E0,1.2837499E1,4.6506906E0,1.9733566E1,1.0109921E2,4.4129415E0,5.1209865E0,6.590344E0,1.0108708E0,1.7581546E0,9.069889E0],"tree_param":{"num_deleted":"0","num_feature":"15","num_nodes":"69","size_leaf_vector":"1"}},{"base_weights":[-5.8807754E-3,1.442918E-1,-1.1018746E0,3.3480987E-1,1.759639E-2,-1.1603366E0,1.6997246E-2,4.0254796E-1,-5.492087E-1,-3.76292E-2,9.320167E-1,-1.2889708E0,-7.858501E-1,4.5392868E-1,-2.3752546E-1,-5.5499125E-2,-8.871455E-2,-1.16278E-1,4.2531922E-1,1.0220722E0,2.839869E-3,-2.0912142E-2,-1.3311362E0,-9.489165E-1,-2.311871E-1,2.6432803E-1,8.508793E-1,-5.3844344E-2,1.6863687E-1,7.534168E-1,-7.409896E-1,-6.193268E-1,-3.139249E-2,8.530157E-1,3.339579E-2,5.515365E-2,1.6464246E-2,-1.4562666E-2,-6.8220556E-2,-4.4938824E-1,-1.095882E0,1.5849833E-1,-3.419166E-2,-1.8216271E-3,2.2802683E-2,4.926483E-2,9.895822E-3,4.7184255E-2,-1.5190679E-2,5.2913457E-2,3.6978244E-3,-5.9732366E-2,2.9990257E-4,-1.085999E-3,-6.011367E-2,1.7075077E-2,-7.6766186E-3,2.1668812E-3,5.900426E-2,-1.0815555E-2,3.76515E-2,-4.0917654E-2,4.4572987E-3,-2.1058414E-2,-6.6573456E-2,-1.3622235E-2,2.6771871E-2],"categories":[],"categories_nodes":[],"categories_segments":[],"categories_sizes":[],"default_left":[0,0,0,0,0,0,0,0,0,0,0,0,0,0,0,0,0,0,0,0,0,0,0,0,0,0,0,0,0,0,0,0,0,0,0,0,0,0,0,0,0,0,0,0,0,0,0,0,0,0,0,0,0,0,0,0,0,0,0,0,0,0,0,0,0,0,0],"id":2,"left_children":[1,3,5,7,9,11,-1,13,15,17,19,21,23,25,27,-1,29,31,33,35,-1,-1,37,39,41,43,45,-1,47,49,51,53,55,57,59,-1,-1,-1,-1,61,63,65,-1,-1,-1,-1,-1,-1,-1,-1,-1,-1,-1,-1,-1,-1,-1,-1,-1,-1,-1,-1,-1,-1,-1,-1,-1],"loss_changes":[5.8776836E1,7.576121E0,4.0218925E0,7.7303743E0,9.615415E0,9.902382E-1,0E0,3.957426E0,2.315497E0,6.59852E0,7.966337E-1,5.2231216E-1,9.739666E-1,7.9560356E0,3.370731E0,0E0,3.974832E0,6.5793896E0,4.3858185E0,1.8521309E-1,0E0,0E0,5.5674744E-1,2.324171E-1,8.7034035E-1,4.3421507E0,2.8493729E0,0E0,2.9116683E0,5.867739E-1,1.3657792E0,7.727996E0,6.122504E0,3.2728424E0,2.819305E0,0E0,0E0,0E0,0E0,8.557868E-1,5.414705E-1,6.548212E-1,0E0,0E0,0E0,0E0,0E0,0E0,0E0,0E0,0E0,0E0,0E0,0E0,0E0,0E0,0E0,0E0,0E0,0E0,0E0,0E0,0E0,0E0,0E0,0E0,0E0],"parents":[2147483647,0,0,1,1,2,2,3,3,4,4,5,5,7,7,8,8,9,9,10,10,11,11,12,12,13,13,14,14,16,16,17,17,18,18,19,19,22,22,23,23,24,24,25,25,26,26,28,28,29,29,30,30,31,31,32,32,33,33,34,34,39,39,40,40,41,41],"right_children":[2,4,6,8,10,12,-1,14,16,18,20,22,24,26,28,-1,30,32,34,36,-1,-1,38,40,42,44,46,-1,48,50,52,54,56,58,60,-1,-1,-1,-1,62,64,66,-1,-1,-1,-1,-1,-1,-1,-1,-1,-1,-1,-1,-1,-1,-1,-1,-1,-1,-1,-1,-1,-1,-1,-1,-1],"split_conditions":[6E0,1E0,1.05E2,4E0,1.551E3,7.56E2,1.6997246E-2,3E0,3.6E1,5E0,2E0,3.9E1,1E0,7E0,2.1E1,-5.5499125E-2,4.14E2,8E0,1.8E1,5.437E3,2.839869E-3,-2.0912142E-2,4E1,1.214E3,9.3E1,2E0,7.7E1,-5.3844344E-2,4.1E1,2E0,1.351E3,2.4E1,3.3E1,9E0,2.66E2,5.515365E-2,1.6464246E-2,-1.4562666E-2,-6.8220556E-2,7.9E1,1.7E1,9E0,-3.419166E-2,-1.8216271E-3,2.2802683E-2,4.926483E-2,9.895822E-3,4.7184255E-2,-1.5190679E-2,5.2913457E-2,3.6978244E-3,-5.9732366E-2,2.9990257E-4,-1.085999E-3,-6.011367E-2,1.7075077E-2,-7.6766186E-3,2.1668812E-3,5.900426E-2,-1.0815555E-2,3.76515E-2,-4.0917654E-2,4.4572987E-3,-2.1058414E-2,-6.6573456E-2,-1.3622235E-2,2.6771871E-2],"split_indices":[5,10,1,3,2,2,0,5,1,4,4,2,8,2,2,0,2,2,2,2,0,0,1,2,1,6,1,0,2,6,2,1,1,1,2,0,0,0,0,1,5,5,0,0,0,0,0,0,0,0,0,0,0,0,0,0,0,0,0,0,0,0,0,0,0,0,0],"split_type":[0,0,0,0,0,0,0,0,0,0,0,0,0,0,0,0,0,0,0,0,0,0,0,0,0,0,0,0,0,0,0,0,0,0,0,0,0,0,0,0,0,0,0,0,0,0,0,0,0,0,0,0,0,0,0,0,0,0,0,0,0,0,0,0,0,0,0],"sum_hessian":[3.5514847E2,3.1311407E2,4.20344E1,1.2440204E2,1.8871202E2,4.0584053E1,1.4503493E0,1.16054016E2,8.348022E0,1.7886829E2,9.8437395E0,2.8390198E1,1.2193855E1,1.07699455E2,8.35456E0,3.128197E0,5.2198253E0,1.5353377E2,2.5334518E1,8.773231E0,1.0705097E0,1.815646E0,2.657455E1,8.874133E0,3.319722E0,7.401339E1,3.368607E1,2.1858943E0,6.168666E0,2.2106571E0,3.0091681E0,2.1258074E1,1.322757E2,1.1551817E1,1.37827015E1,7.324611E0,1.4486189E0,1.1263905E0,2.544816E1,2.9397738E0,5.9343596E0,2.133135E0,1.186587E0,2.9128849E1,4.488454E1,2.751329E1,6.1727796E0,1.9584424E0,4.2102237E0,1.1411463E0,1.0695108E0,1.4993201E0,1.5098479E0,1.1009234E1,1.0248839E1,3.21933E1,1.000824E2,3.6495817E0,7.902235E0,1.0751454E1,3.031247E0,1.4361998E0,1.503574E0,2.2572901E0,3.6770692E0,1.124615E0,1.00852E0],"tree_param":{"num_deleted":"0","num_feature":"15","num_nodes":"67","size_leaf_vector":"1"}},{"base_weights":[-3.211494E-2,1.2072135E-1,-1.0010433E0,1.5833183E-1,-7.901346E-1,-1.0712715E0,2.7292911E-2,1.9218208E-1,-2.4835292E-1,-9.8990786E-1,3.0749826E-2,-3.483731E-1,-1.179657E0,2.0350403E-1,-4.413794E-2,-5.196485E-1,6.61746E-2,-1.1831987E0,2.5655886E-2,-8.713589E-1,3.759406E-2,-1.261237E0,-5.4092896E-1,1.7402813E-1,8.2758385E-1,-2.6169685E-1,-5.7800043E-2,6.740974E-2,-3.7534934E-1,-9.260252E-4,-1.4463862E0,-5.6248046E-2,5.7585626E-3,-1.3171542E0,-5.4624076E-3,3.812329E-2,-1.0508896E0,3.8130488E-3,1.6348138E-2,5.085346E-2,-1.0002274E-2,-2.2186043E-2,5.752669E-3,-2.637819E-2,2.3423364E-2,-7.823268E-2,-1.7736666E-2,-6.965192E-2,-2.8735472E-2,-1.3474456E-2,-6.029212E-2],"categories":[],"categories_nodes":[],"categories_segments":[],"categories_sizes":[],"default_left":[0,0,0,0,0,0,0,0,0,0,0,0,0,0,0,0,0,0,0,0,0,0,0,0,0,0,0,0,0,0,0,0,0,0,0,0,0,0,0,0,0,0,0,0,0,0,0,0,0,0,0],"id":3,"left_children":[1,3,5,7,9,11,-1,13,15,17,-1,19,21,23,-1,25,27,29,-1,31,-1,33,35,37,39,41,-1,-1,43,-1,45,-1,-1,47,-1,-1,49,-1,-1,-1,-1,-1,-1,-1,-1,-1,-1,-1,-1,-1,-1],"loss_changes":[5.424649E1,1.0970844E1,6.0062904E0,4.244708E0,4.1796985E0,3.3558464E0,0E0,3.6118174E0,2.0705519E0,3.9541578E0,0E0,5.0785823E0,1.4743996E0,5.004505E0,0E0,1.8190224E0,7.2632833E0,3.194994E0,0E0,1.5490623E0,0E0,2.1718445E0,5.080802E0,3.9900599E0,2.6095562E0,7.703794E-1,0E0,0E0,1.4881196E0,0E0,5.501518E-1,0E0,0E0,1.1259537E0,0E0,0E0,2.8628778E-1,0E0,0E0,0E0,0E0,0E0,0E0,0E0,0E0,0E0,0E0,0E0,0E0,0E0,0E0],"parents":[2147483647,0,0,1,1,2,2,3,3,4,4,5,5,7,7,8,8,9,9,11,11,12,12,13,13,15,15,16,16,17,17,19,19,21,21,22,22,23,23,24,24,25,25,28,28,30,30,33,33,36,36],"right_children":[2,4,6,8,10,12,-1,14,16,18,-1,20,22,24,-1,26,28,30,-1,32,-1,34,36,38,40,42,-1,-1,44,-1,46,-1,-1,48,-1,-1,50,-1,-1,-1,-1,-1,-1,-1,-1,-1,-1,-1,-1,-1,-1],"split_conditions":[5E0,3E0,3.161E3,3E0,2.393E3,1.793E3,2.7292911E-2,7E1,2.071E3,4E0,3.0749826E-2,1.724E3,2.125E3,1.6E1,-4.413794E-2,2.043E3,2.091E3,2.34E2,2.5655886E-2,2.55E2,3.759406E-2,2.996E3,1.7E1,1.37E3,2.42E2,1E0,-5.7800043E-2,6.740974E-2,2.043E3,-9.260252E-4,9.78E2,-5.6248046E-2,5.7585626E-3,1E0,-5.4624076E-3,3.812329E-2,2.22E3,3.8130488E-3,1.6348138E-2,5.085346E-2,-1.0002274E-2,-2.2186043E-2,5.752669E-3,-2.637819E-2,2.3423364E-2,-7.823268E-2,-1.7736666E-2,-6.965192E-2,-2.8735472E-2,-1.3474456E-2,-6.029212E-2],"split_indices":[5,7,0,5,0,0,0,6,0,6,0,0,2,6,0,0,0,2,0,2,0,0,5,0,2,3,0,0,2,0,2,0,0,12,0,0,0,0,0,0,0,0,0,0,0,0,0,0,0,0,0],"split_type":[0,0,0,0,0,0,0,0,0,0,0,0,0,0,0,0,0,0,0,0,0,0,0,0,0,0,0,0,0,0,0,0,0,0,0,0,0,0,0,0,0,0,0,0,0,0,0,0,0,0,0],"sum_hessian":[3.6449792E2,3.1559256E2,4.8905357E1,3.038715E2,1.1721091E1,4.707563E1,1.8297276E0,2.8100922E2,2.2862259E1,1.0520809E1,1.2002819E0,6.6873307E0,4.0388298E1,2.7888254E2,2.1266818E0,1.1924571E1,1.0937688E1,9.510532E0,1.0102767E0,4.6737757E0,2.0135553E0,3.494981E1,5.4384885E0,2.6752588E2,1.1356652E1,9.489254E0,2.435316E0,2.2758803E0,8.661808E0,1.9502964E0,7.5602365E0,3.606382E0,1.0673939E0,3.3195156E1,1.7546562E0,1.3901906E0,4.048298E0,1.64112E2,1.03413895E2,9.597279E0,1.7593734E0,6.278221E0,3.2110333E0,7.6556144E0,1.006193E0,6.430302E0,1.1299342E0,2.9321922E1,3.873233E0,1.123227E0,2.9250708E0],"tree_param":{"num_deleted":"0","num_feature":"15","num_nodes":"51","size_leaf_vector":"1"}},{"base_weights":[-2.0054199E-2,1.5539852E-1,-7.550716E-1,1.9364028E-1,-8.4477484E-1,-8.2097584E-1,7.722112E-1,1.5260676E-1,7.0764273E-1,-1.0258251E0,2.3513729E-2,-4.3631294E-1,-1.1248043E0,9.2773745E-3,5.1511347E-2,1.6977996E-1,-7.4097496E-1,1.0235384E0,-5.9831053E-1,-3.7351307E-1,-6.085061E-2,-5.171928E-1,3.800116E-2,-7.3227173E-1,-1.3199648E0,1.0875902E-1,3.5763645E-1,-4.8423123E-2,3.2317599E-3,1.3142939E-2,5.6915727E-2,-3.8939208E-2,-9.645251E-3,-3.444098E-2,2.5127316E-3,-5.687429E-1,2.4124335E-2,-8.786753E-1,1.1890947E-2,-6.7910574E-2,-2.0263968E-2,2.4926395E-4,1.2322002E-2,2.0331657E-2,-1.6242946E-2,-1.7092383E-2,-4.8594356E-2,-5.2617367E-2,-1.02817295E-2],"categories":[],"categories_nodes":[],"categories_segments":[],"categories_sizes":[],"default_left":[0,0,0,0,0,0,0,0,0,0,0,0,0,0,0,0,0,0,0,0,0,0,0,0,0,0,0,0,0,0,0,0,0,0,0,0,0,0,0,0,0,0,0,0,0,0,0,0,0],"id":4,"left_children":[1,3,5,7,9,11,13,15,17,19,-1,21,23,-1,-1,25,27,29,31,33,-1,35,-1,37,39,41,43,-1,-1,-1,-1,-1,-1,-1,-1,45,-1,47,-1,-1,-1,-1,-1,-1,-1,-1,-1,-1,-1],"loss_changes":[4.6614117E1,1.1328252E1,7.644615E0,5.838979E0,3.0862336E0,7.3693275E0,3.2296634E-1,4.1523867E0,9.098612E0,7.834797E-1,0E0,3.4228811E0,1.8633957E0,0E0,0E0,2.921565E0,1.0035017E0,1.1791439E0,1.8908596E-1,5.2804875E-1,0E0,1.8165445E0,0E0,2.2702389E0,2.6914215E-1,2.804504E0,2.2349396E0,0E0,0E0,0E0,0E0,0E0,0E0,0E0,0E0,2.31279E0,0E0,1.2825041E0,0E0,0E0,0E0,0E0,0E0,0E0,0E0,0E0,0E0,0E0,0E0],"parents":[2147483647,0,0,1,1,2,2,3,3,4,4,5,5,6,6,7,7,8,8,9,9,11,11,12,12,15,15,16,16,17,17,18,18,19,19,21,21,23,23,24,24,25,25,26,26,35,35,37,37],"right_children":[2,4,6,8,10,12,14,16,18,20,-1,22,24,-1,-1,26,28,30,32,34,-1,36,-1,38,40,42,44,-1,-1,-1,-1,-1,-1,-1,-1,46,-1,48,-1,-1,-1,-1,-1,-1,-1,-1,-1,-1,-1],"split_conditions":[3E0,3E0,3.161E3,1E0,2.393E3,7E0,1E0,1.3E1,8E0,1.438E3,2.3513729E-2,2.888E3,1E0,9.2773745E-3,5.1511347E-2,4E0,2.6E1,2.86E2,1.222E3,1.222E3,-6.085061E-2,1.1E1,3.800116E-2,1E0,3E0,1.476E3,1E2,-4.8423123E-2,3.2317599E-3,1.3142939E-2,5.6915727E-2,-3.8939208E-2,-9.645251E-3,-3.444098E-2,2.5127316E-3,2.091E3,2.4124335E-2,1E0,1.1890947E-2,-6.7910574E-2,-2.0263968E-2,2.4926395E-4,1.2322002E-2,2.0331657E-2,-1.6242946E-2,-1.7092383E-2,-4.8594356E-2,-5.2617367E-2,-1.02817295E-2],"split_indices":[5,7,0,12,0,5,3,3,3,0,0,0,10,0,0,6,4,0,0,0,0,3,0,3,7,0,14,0,0,0,0,0,0,0,0,0,0,12,0,0,0,0,0,0,0,0,0,0,0],"split_type":[0,0,0,0,0,0,0,0,0,0,0,0,0,0,0,0,0,0,0,0,0,0,0,0,0,0,0,0,0,0,0,0,0,0,0,0,0,0,0,0,0,0,0,0,0,0,0,0,0],"sum_hessian":[3.5954974E2,2.9089908E2,6.865064E1,2.8096283E2,9.936257E0,6.625415E1,2.3964942E0,2.6139243E2,1.9570414E1,8.927141E0,1.0091155E0,3.03127E1,3.5941444E1,1.2571594E0,1.1393348E0,2.5725833E2,4.1340895E0,1.5932717E1,3.637696E0,2.6928942E0,6.234247E0,2.8924883E1,1.3878185E0,1.3513487E1,2.242796E1,1.9537434E2,6.1883987E1,3.0661304E0,1.0679592E0,2.520207E0,1.3412511E1,1.8798472E0,1.757849E0,1.1854149E0,1.5074793E0,2.7916405E1,1.0084786E0,1.1823369E1,1.6901181E0,2.1062363E1,1.3655968E0,1.11996155E2,8.337819E1,5.811601E1,3.7679794E0,1.9045362E1,8.871042E0,8.950263E0,2.8731062E0],"tree_param":{"num_deleted":"0","num_feature":"15","num_nodes":"49","size_leaf_vector":"1"}},{"base_weights":[7.320469E-3,1.7381328E-1,-6.9760823E-1,2.195592E-1,-3.509073E-1,-3.4194648E-1,-9.428125E-1,1.1453686E-1,3.7560928E-1,-5.459809E-1,7.536895E-1,3.812518E-1,-4.8123038E-1,-1.0239893E0,2.5408128E-2,2.3260674E-1,-3.6715037E-1,4.8409218E-1,-1.4116527E-2,1.9742197E-1,-1.0056924E0,-1.742378E-2,6.5137275E-2,-2.5624877E-1,6.061404E-2,-7.4925415E-2,-2.5282472E-1,-1.0819604E0,-4.1960543E-1,2.550507E-1,-4.7312863E-2,-1.2422756E0,6.1005626E-2,3.2257453E-1,9.8274237E-1,-3.111504E-1,8.028536E-1,-3.3569437E-2,4.858028E-1,-1.1080266E0,3.914156E-3,1.40035665E-2,-3.0967398E-2,-3.7895802E-1,4.3505865E-1,-1.1279132E0,-2.8050822E-1,3.2396343E-2,-9.2254436E-1,1.5044333E-2,-1.0384052E-2,-7.421896E-2,-3.6109567E-2,-6.730206E-3,4.878391E-2,4.6370686E-3,2.7665192E-2,-2.0999825E-2,5.432265E-2,-2.2695221E-2,2.290794E-2,9.537092E-3,5.377369E-2,-1.5701761E-2,4.7985088E-2,-6.0908016E-2,-5.84235E-3,-2.3796668E-2,2.944856E-2,-9.3195215E-3,5.168363E-2,-5.7879932E-2,-2.2894995E-2,-3.021647E-2,9.8824045E-3,-1.2468049E-2,-5.5424638E-2],"categories":[],"categories_nodes":[],"categories_segments":[],"categories_sizes":[],"default_left":[0,0,0,0,0,0,0,0,0,0,0,0,0,0,0,0,0,0,0,0,0,0,0,0,0,0,0,0,0,0,0,0,0,0,0,0,0,0,0,0,0,0,0,0,0,0,0,0,0,0,0,0,0,0,0,0,0,0,0,0,0,0,0,0,0,0,0,0,0,0,0,0,0,0,0,0,0],"id":5,"left_children":[1,3,5,7,9,11,13,15,17,19,21,23,25,27,-1,29,31,33,35,37,39,-1,-1,41,-1,-1,43,45,47,49,-1,51,53,55,57,59,61,-1,63,65,-1,-1,-1,67,69,71,73,-1,75,-1,-1,-1,-1,-1,-1,-1,-1,-1,-1,-1,-1,-1,-1,-1,-1,-1,-1,-1,-1,-1,-1,-1,-1,-1,-1,-1,-1],"loss_changes":[4.2820744E1,7.1607256E0,5.7569885E0,4.4156494E0,5.5936437E0,3.2070372E0,5.3134193E0,9.415632E0,4.6152983E0,7.382068E0,2.8926117E0,3.1743236E0,5.571952E0,9.078407E-1,0E0,3.7436476E0,1.2322182E1,6.5527916E0,6.2452755E0,2.547921E0,1.545681E0,0E0,0E0,9.2989475E-1,0E0,0E0,2.0839496E0,9.664879E-1,3.3012714E0,2.8342886E0,0E0,2.8588295E-1,4.2285433E0,3.4441547E0,3.4211655E0,2.2769547E0,9.4077826E-1,0E0,3.0448523E0,1.1767368E0,0E0,0E0,0E0,2.0849037E0,1.6408145E0,1.1860275E-1,6.1801356E-1,0E0,2.03691E-1,0E0,0E0,0E0,0E0,0E0,0E0,0E0,0E0,0E0,0E0,0E0,0E0,0E0,0E0,0E0,0E0,0E0,0E0,0E0,0E0,0E0,0E0,0E0,0E0,0E0,0E0,0E0,0E0],"parents":[2147483647,0,0,1,1,2,2,3,3,4,4,5,5,6,6,7,7,8,8,9,9,10,10,11,11,12,12,13,13,15,15,16,16,17,17,18,18,19,19,20,20,23,23,26,26,27,27,28,28,29,29,31,31,32,32,33,33,34,34,35,35,36,36,38,38,39,39,43,43,44,44,45,45,46,46,48,48],"right_children":[2,4,6,8,10,12,14,16,18,20,22,24,26,28,-1,30,32,34,36,38,40,-1,-1,42,-1,-1,44,46,48,50,-1,52,54,56,58,60,62,-1,64,66,-1,-1,-1,68,70,72,74,-1,76,-1,-1,-1,-1,-1,-1,-1,-1,-1,-1,-1,-1,-1,-1,-1,-1,-1,-1,-1,-1,-1,-1,-1,-1,-1,-1,-1,-1],"split_conditions":[3E0,1E0,6E0,4.1E1,5E0,6E1,1.03E2,3.2E1,7.8E1,2.34E2,6E0,4E0,6.3E1,2.125E3,2.5408128E-2,7.2E1,1.5E1,6.9E1,1E2,4.2E1,1.043E3,-1.742378E-2,6.5137275E-2,7.5E1,6.061404E-2,-7.4925415E-2,9.2E1,4E1,1.7E1,6E0,-4.7312863E-2,7E0,1.5E1,6.3E1,6E0,1.415E3,3.62E2,-3.3569437E-2,1E0,7.4E1,3.914156E-3,1.40035665E-2,-3.0967398E-2,1.551E3,1E-2,8E0,2.66E2,3.2396343E-2,4.1E1,1.5044333E-2,-1.0384052E-2,-7.421896E-2,-3.6109567E-2,-6.730206E-3,4.878391E-2,4.6370686E-3,2.7665192E-2,-2.0999825E-2,5.432265E-2,-2.2695221E-2,2.290794E-2,9.537092E-3,5.377369E-2,-1.5701761E-2,4.7985088E-2,-6.0908016E-2,-5.84235E-3,-2.3796668E-2,2.944856E-2,-9.3195215E-3,5.168363E-2,-5.7879932E-2,-2.2894995E-2,-3.021647E-2,9.8824045E-3,-1.2468049E-2,-5.5424638E-2],"split_indices":[5,9,5,1,4,1,1,1,1,2,3,6,1,2,0,4,2,1,1,2,2,0,0,2,0,0,1,5,5,3,0,2,4,2,2,2,2,0,3,1,0,0,0,2,13,3,2,0,5,0,0,0,0,0,0,0,0,0,0,0,0,0,0,0,0,0,0,0,0,0,0,0,0,0,0,0,0],"split_type":[0,0,0,0,0,0,0,0,0,0,0,0,0,0,0,0,0,0,0,0,0,0,0,0,0,0,0,0,0,0,0,0,0,0,0,0,0,0,0,0,0,0,0,0,0,0,0,0,0,0,0,0,0,0,0,0,0,0,0,0,0,0,0,0,0,0,0,0,0,0,0,0,0,0,0,0,0],"sum_hessian":[3.628162E2,2.941064E2,6.870977E1,2.7105685E2,2.3049564E1,2.9016584E1,3.9693184E1,1.630545E2,1.0800235E2,2.0019762E1,3.029803E0,4.405396E0,2.4611189E1,3.7868835E1,1.8243498E0,1.3137044E2,3.1684067E1,8.429587E1,2.370648E1,7.8675847E0,1.2152177E1,1.1289293E0,1.9008739E0,2.8843763E0,1.5210196E0,3.4930477E0,2.1118141E1,3.3833424E1,4.0354114E0,1.2968506E2,1.6853776E0,9.78423E0,2.1899837E1,6.491588E1,1.9379992E1,1.7839529E1,5.866952E0,1.6296809E0,6.2379036E0,1.1083624E1,1.0685533E0,1.256747E0,1.6276293E0,1.8225355E1,2.8927855E0,3.1613466E1,2.2199576E0,1.2000078E0,2.8354037E0,1.1831509E2,1.1369967E1,5.411172E0,4.3730583E0,1.8744106E1,3.1557317E0,3.3223434E1,3.1692446E1,1.1242487E0,1.8255741E1,1.5393142E1,2.4463868E0,2.3315668E0,3.5353854E0,2.4463446E0,3.7915592E0,9.769138E0,1.3144853E0,1.7027676E1,1.1976792E0,1.7571923E0,1.1355932E0,2.9575388E1,2.0380797E0,1.1662592E0,1.0536983E0,1.120373E0,1.7150308E0],"tree_param":{"num_deleted":"0","num_feature":"15","num_nodes":"77","size_leaf_vector":"1"}},{"base_weights":[2.507532E-2,2.9439375E-1,-1.7373674E-1,3.2252532E-1,-8.892891E-1,-2.163721E-1,4.059667E-1,2.7916414E-1,9.127515E-1,-6.191224E-2,2.669296E-4,-1.4581451E-1,-5.7787937E-1,7.689238E-1,1.16666704E-1,3.950506E-1,5.8978412E-2,1.2348028E0,-3.8740646E-2,-1.6777796E-1,6.1038256E-2,-7.7294713E-1,2.645316E-1,1.1251693E0,-4.887889E-3,-6.033494E-1,5.918715E-1,4.4061065E-1,-4.4265574E-1,-2.2195911E-1,3.4898517E-1,6.8353E-2,1.714501E-2,-9.5834E-2,-4.892301E-1,-1.9340849E-1,-5.2590962E-2,-3.373745E-1,8.153453E-1,7.0232116E-2,5.296797E-3,-7.3592365E-3,-3.8107574E-2,-3.853038E-2,5.396675E-2,1.7421132E-2,3.911068E-2,1.2817703E-2,-4.549923E-2,1.1688402E-2,-2.7527554E-2,3.395595E-2,-2.3641863E-3,4.4224452E-2,-5.7873754E-3,-3.136628E-2,1.0176088E-2,-2.701105E-2,9.661233E-3,8.557967E-3,-3.233696E-2,5.2459057E-2,1.2921363E-2],"categories":[],"categories_nodes":[],"categories_segments":[],"categories_sizes":[],"default_left":[0,0,0,0,0,0,0,0,0,0,0,0,0,0,0,0,0,0,0,0,0,0,0,0,0,0,0,0,0,0,0,0,0,0,0,0,0,0,0,0,0,0,0,0,0,0,0,0,0,0,0,0,0,0,0,0,0,0,0,0,0,0,0],"id":6,"left_children":[1,3,5,7,9,11,13,15,17,-1,-1,19,21,23,25,27,29,31,-1,33,-1,35,37,39,-1,41,43,45,47,49,51,-1,-1,53,55,57,-1,59,61,-1,-1,-1,-1,-1,-1,-1,-1,-1,-1,-1,-1,-1,-1,-1,-1,-1,-1,-1,-1,-1,-1,-1,-1],"loss_changes":[1.926701E1,5.3744144E0,5.206389E0,3.583436E0,1.1969695E0,4.852895E0,1.4365649E0,3.578351E0,6.2954617E0,0E0,0E0,5.105897E0,5.343231E0,2.0452905E0,3.5279624E0,3.7178354E0,4.1387324E0,5.497656E-1,0E0,3.6900172E0,0E0,3.9415312E0,2.4714262E0,1.1393185E0,0E0,1.9060469E-1,4.8748393E0,2.5000572E0,1.9515187E0,4.011815E0,3.291752E0,0E0,0E0,2.7041879E0,2.9313498E0,1.3859004E0,0E0,7.199849E-1,2.174573E-1,0E0,0E0,0E0,0E0,0E0,0E0,0E0,0E0,0E0,0E0,0E0,0E0,0E0,0E0,0E0,0E0,0E0,0E0,0E0,0E0,0E0,0E0,0E0,0E0],"parents":[2147483647,0,0,1,1,2,2,3,3,4,4,5,5,6,6,7,7,8,8,11,11,12,12,13,13,14,14,15,15,16,16,17,17,19,19,21,21,22,22,23,23,25,25,26,26,27,27,28,28,29,29,30,30,33,33,34,34,35,35,37,37,38,38],"right_children":[2,4,6,8,10,12,14,16,18,-1,-1,20,22,24,26,28,30,32,-1,34,-1,36,38,40,-1,42,44,46,48,50,52,-1,-1,54,56,58,-1,60,62,-1,-1,-1,-1,-1,-1,-1,-1,-1,-1,-1,-1,-1,-1,-1,-1,-1,-1,-1,-1,-1,-1,-1,-1],"split_conditions":[2.3E1,5E0,2.979E3,3E0,1.49E2,2.353E3,3.061E3,1E0,3E-2,-6.191224E-2,2.669296E-4,7.6E1,1.415E3,2E0,1.05E2,2.304E3,8E0,8.57E2,-3.8740646E-2,9.3E-1,6.1038256E-2,1E0,2.648E3,1.712E3,-4.887889E-3,1.073E3,3.75E2,7E0,1E1,4E0,9.87E2,6.8353E-2,1.714501E-2,7E0,2.07E3,1.76E2,-5.2590962E-2,2.211E3,2.983E3,7.0232116E-2,5.296797E-3,-7.3592365E-3,-3.8107574E-2,-3.853038E-2,5.396675E-2,1.7421132E-2,3.911068E-2,1.2817703E-2,-4.549923E-2,1.1688402E-2,-2.7527554E-2,3.395595E-2,-2.3641863E-3,4.4224452E-2,-5.7873754E-3,-3.136628E-2,1.0176088E-2,-2.701105E-2,9.661233E-3,8.557967E-3,-3.233696E-2,5.2459057E-2,1.2921363E-2],"split_indices":[2,3,0,3,0,0,0,10,13,0,0,1,2,7,1,0,2,0,0,13,0,10,0,2,0,2,2,2,2,2,0,0,0,1,0,2,0,2,2,0,0,0,0,0,0,0,0,0,0,0,0,0,0,0,0,0,0,0,0,0,0,0,0],"split_type":[0,0,0,0,0,0,0,0,0,0,0,0,0,0,0,0,0,0,0,0,0,0,0,0,0,0,0,0,0,0,0,0,0,0,0,0,0,0,0,0,0,0,0,0,0,0,0,0,0,0,0,0,0,0,0,0,0,0,0,0,0,0,0],"sum_hessian":[3.5788153E2,1.5178586E2,2.0609569E2,1.4897287E2,2.8129869E0,1.9256024E2,1.3535447E1,1.4014969E2,8.823173E0,1.7473366E0,1.0656502E0,1.6228871E2,3.027153E1,5.268139E0,8.267308E0,9.13021E1,4.884759E1,7.6345105E0,1.1886616E0,1.6058505E2,1.7036698E0,2.4646803E1,5.6247272E0,3.5221326E0,1.7460063E0,3.1797638E0,5.087545E0,8.704219E1,4.2599072E0,2.4930944E1,2.3916649E1,6.1846633E0,1.4498473E0,1.322781E2,2.8306934E1,8.557194E0,1.6089611E1,2.8728714E0,2.7518559E0,2.4674296E0,1.054703E0,1.3186727E0,1.8610911E0,1.1875222E0,3.9000225E0,7.013492E1,1.6907272E1,1.8877469E0,2.3721602E0,1.0565764E1,1.4365179E1,1.26576805E1,1.1258968E1,1.7691263E0,1.3050899E2,2.368077E1,4.626162E0,4.301487E0,4.255707E0,1.2556206E0,1.6172507E0,1.3155737E0,1.4362822E0],"tree_param":{"num_deleted":"0","num_feature":"15","num_nodes":"63","size_leaf_vector":"1"}},{"base_weights":[5.103527E-2,2.8187388E-1,-1.2504129E-1,4.3342355E-1,5.318666E-2,8.077719E-2,-6.589834E-1,4.618212E-1,-2.629769E-1,3.5425493E-1,-2.9771507E-1,1.4466645E-1,-6.9766855E-1,-8.2290195E-2,-8.159838E-1,3.7183297E-1,8.2019746E-1,2.3537619E-2,-3.1460326E-2,1.3615304E-1,8.4722644E-1,-5.1412886E-1,1.0262909E0,6.727475E-3,3.453884E-1,-8.8662624E-1,1.8103076E-2,-4.3755237E-2,1.4592323E-1,-8.764177E-1,3.165079E-2,4.0825656E-1,-4.364645E-2,1.0926864E0,-3.8762704E-2,-1.11630194E-1,7.900514E-1,6.829617E-2,-4.6854436E-1,-8.706907E-1,1.6119748E-1,6.338083E-2,1.5125017E-2,1.05264045E-1,-6.7926896E-1,4.5918444E-1,-2.4374457E-1,-2.7991796E-1,-1.1747608E0,4.390523E-1,-3.4360074E-2,-4.9419114E-1,-1.0388778E0,1.6817568E-2,4.2305868E-2,-4.0433407E-3,6.1347794E-2,6.0965084E-3,-3.3780977E-2,1.991005E-2,6.077944E-2,-5.9628673E-2,2.8429598E-2,-5.500582E-2,-5.5725724E-3,4.6203595E-2,-7.0820386E-3,-9.854583E-4,3.9134663E-2,-4.5765694E-2,3.1861506E-2,3.0706042E-2,1.0448894E-3,-3.4507364E-2,3.9962564E-2,1.4591577E-2,-2.9343698E-2,-6.616785E-2,-1.21200085E-2,-1.0551802E-2,4.4993088E-2,-3.254478E-2,9.406912E-3,-1.9321434E-2,-5.8654707E-2],"categories":[],"categories_nodes":[],"categories_segments":[],"categories_sizes":[],"default_left":[0,0,0,0,0,0,0,0,0,0,0,0,0,0,0,0,0,0,0,0,0,0,0,0,0,0,0,0,0,0,0,0,0,0,0,0,0,0,0,0,0,0,0,0,0,0,0,0,0,0,0,0,0,0,0,0,0,0,0,0,0,0,0,0,0,0,0,0,0,0,0,0,0,0,0,0,0,0,0,0,0,0,0,0,0],"id":7,"left_children":[1,3,5,7,9,11,13,15,17,19,21,23,25,27,29,31,33,-1,-1,35,37,39,41,43,45,47,-1,-1,49,51,-1,53,-1,55,-1,57,59,-1,61,63,65,-1,-1,67,69,71,73,75,77,79,-1,81,83,-1,-1,-1,-1,-1,-1,-1,-1,-1,-1,-1,-1,-1,-1,-1,-1,-1,-1,-1,-1,-1,-1,-1,-1,-1,-1,-1,-1,-1,-1,-1,-1],"loss_changes":[1.4694717E1,5.3964205E0,2.261428E1,1.9785805E0,6.810218E0,7.5147643E0,5.114273E0,2.616562E0,1.4560974E0,3.6063242E0,9.080727E0,3.8348844E0,2.619474E0,2.5445762E0,4.4839363E0,3.7222624E0,8.391051E0,0E0,0E0,4.169428E0,7.755285E0,6.4787703E0,4.0734673E-1,5.6928644E0,3.8949823E0,1.4247689E0,0E0,0E0,3.0440845E0,2.1873093E0,0E0,2.0077724E0,0E0,2.5000496E0,0E0,2.6040223E0,6.908083E-1,0E0,3.4507852E0,2.9053802E0,2.4271731E0,0E0,0E0,6.244942E0,3.8707752E0,3.2222729E0,5.1090655E0,9.6854424E-1,5.781622E-1,2.8611107E0,0E0,1.7134273E0,2.1398563E0,0E0,0E0,0E0,0E0,0E0,0E0,0E0,0E0,0E0,0E0,0E0,0E0,0E0,0E0,0E0,0E0,0E0,0E0,0E0,0E0,0E0,0E0,0E0,0E0,0E0,0E0,0E0,0E0,0E0,0E0,0E0,0E0],"parents":[2147483647,0,0,1,1,2,2,3,3,4,4,5,5,6,6,7,7,8,8,9,9,10,10,11,11,12,12,13,13,14,14,15,15,16,16,19,19,20,20,21,21,22,22,23,23,24,24,25,25,28,28,29,29,31,31,33,33,35,35,36,36,38,38,39,39,40,40,43,43,44,44,45,45,46,46,47,47,48,48,49,49,51,51,52,52],"right_children":[2,4,6,8,10,12,14,16,18,20,22,24,26,28,30,32,34,-1,-1,36,38,40,42,44,46,48,-1,-1,50,52,-1,54,-1,56,-1,58,60,-1,62,64,66,-1,-1,68,70,72,74,76,78,80,-1,82,84,-1,-1,-1,-1,-1,-1,-1,-1,-1,-1,-1,-1,-1,-1,-1,-1,-1,-1,-1,-1,-1,-1,-1,-1,-1,-1,-1,-1,-1,-1,-1,-1],"split_conditions":[2.3E1,1E0,6E0,2.304E3,7.24E2,3E0,1.299E3,1.594E3,1E1,3E0,9E0,1.78E2,1.125E3,3.5E1,3.161E3,1.206E3,3E0,2.3537619E-2,-3.1460326E-2,6.31E2,5E0,1.4E1,1.8E1,2.353E3,2.6E0,1E2,1.8103076E-2,-4.3755237E-2,1E1,1E0,3.165079E-2,1.3E1,-4.364645E-2,4E0,-3.8762704E-2,4.82E2,9E0,6.829617E-2,3.45E2,1.085E3,9.77E2,6.338083E-2,1.5125017E-2,2.069E3,3.15E0,3E0,2.636E3,2E0,2.167E1,5E0,-3.4360074E-2,1E0,1.793E3,1.6817568E-2,4.2305868E-2,-4.0433407E-3,6.1347794E-2,6.0965084E-3,-3.3780977E-2,1.991005E-2,6.077944E-2,-5.9628673E-2,2.8429598E-2,-5.500582E-2,-5.5725724E-3,4.6203595E-2,-7.0820386E-3,-9.854583E-4,3.9134663E-2,-4.5765694E-2,3.1861506E-2,3.0706042E-2,1.0448894E-3,-3.4507364E-2,3.9962564E-2,1.4591577E-2,-2.9343698E-2,-6.616785E-2,-1.21200085E-2,-1.0551802E-2,4.4993088E-2,-3.254478E-2,9.406912E-3,-1.9321434E-2,-5.8654707E-2],"split_indices":[2,10,6,0,0,7,0,0,2,3,6,2,2,2,0,0,6,0,0,0,3,2,2,0,13,14,0,0,3,10,0,6,0,2,0,0,2,0,0,0,0,0,0,0,13,6,0,3,13,3,0,12,0,0,0,0,0,0,0,0,0,0,0,0,0,0,0,0,0,0,0,0,0,0,0,0,0,0,0,0,0,0,0,0,0],"split_type":[0,0,0,0,0,0,0,0,0,0,0,0,0,0,0,0,0,0,0,0,0,0,0,0,0,0,0,0,0,0,0,0,0,0,0,0,0,0,0,0,0,0,0,0,0,0,0,0,0,0,0,0,0,0,0,0,0,0,0,0,0,0,0,0,0,0,0,0,0,0,0,0,0,0,0,0,0,0,0,0,0,0,0,0,0],"sum_hessian":[3.5966855E2,1.5537244E2,2.0429611E2,9.290776E1,6.2464684E1,1.480688E2,5.6227314E1,8.959128E1,3.3164837E0,3.361445E1,2.8850233E1,1.3759052E2,1.0478286E1,1.2358017E1,4.3869297E1,7.323862E1,1.6352654E1,1.0091939E0,2.3072898E0,2.418891E1,9.425539E0,2.5322811E1,3.527422E0,8.216149E1,5.5429028E1,9.031287E0,1.4469982E0,2.1286137E0,1.0229403E1,4.2492214E1,1.3770804E0,7.180939E1,1.4292297E0,1.4236339E1,2.116316E0,1.8143164E1,6.045747E0,6.7331223E0,2.6924167E0,1.6383362E1,8.93945E0,2.0819137E0,1.4455082E0,7.258231E1,9.579175E0,4.664058E1,8.788448E0,3.5428326E0,5.4884543E0,7.9169016E0,2.3125012E0,1.3879435E1,2.8612782E1,6.3199055E1,8.610337E0,1.5024279E0,1.2733911E1,1.3384257E1,4.758907E0,4.1552243E0,1.8905222E0,1.4972847E0,1.1951319E0,1.2236718E1,4.146643E0,1.9573514E0,6.982099E0,6.2097397E1,1.0484919E1,8.381186E0,1.1979886E0,3.4162716E1,1.2477863E1,6.39128E0,2.3971682E0,1.254821E0,2.2880118E0,4.372259E0,1.1161951E0,3.5088344E0,4.408067E0,1.1324669E1,2.5547662E0,5.543586E0,2.3069195E1],"tree_param":{"num_deleted":"0","num_feature":"15","num_nodes":"85","size_leaf_vector":"1"}},{"base_weights":[-2.4029208E-2,1.0026305E-1,-8.688018E-1,2.8945562E-1,-1.8908523E-2,-9.440635E-1,2.659421E-2,3.4499487E-1,-5.6572026E-1,-5.7407968E-2,7.907666E-1,-5.0074965E-1,-1.1446011E0,1.6108122E-1,6.8250275E-1,-9.115769E-1,1.7113011E-2,-1.7313892E-2,-6.928198E-1,7.563272E-2,-1.05892785E-1,3.3469513E-1,-7.218022E-1,-1.200368E0,-3.7452823E-1,2.1194284E-1,-4.2687133E-2,7.755072E-1,-3.8845283E-1,-5.6551393E-2,-4.1019144E-3,-7.86701E-2,2.8673095E-1,-8.609162E-1,7.1994797E-3,-4.3215293E-2,4.614693E-1,-1.3082392E-2,4.1785285E-2,-1.0413662E0,-2.896059E-1,-1.2723649E0,-9.333159E-3,9.874129E-3,-3.5357863E-2,8.218505E-3,6.1849322E-2,9.5294026E-4,4.104522E-2,1.30972E-2,-4.3932762E-2,-2.531286E-2,1.9264373E-4,1.3194841E-3,3.3946846E-2,-5.1824074E-2,-3.128396E-3,3.3587154E-2,-2.7304902E-4,-2.11028E-2,-6.0685635E-2,1.3048646E-2,-4.244342E-2,-2.8901586E-2,-6.84781E-2],"categories":[],"categories_nodes":[],"categories_segments":[],"categories_sizes":[],"default_left":[0,0,0,0,0,0,0,0,0,0,0,0,0,0,0,0,0,0,0,0,0,0,0,0,0,0,0,0,0,0,0,0,0,0,0,0,0,0,0,0,0,0,0,0,0,0,0,0,0,0,0,0,0,0,0,0,0,0,0,0,0,0,0,0,0],"id":8,"left_children":[1,3,5,7,9,11,-1,13,15,17,19,21,23,25,27,29,-1,31,33,-1,35,37,39,41,43,45,-1,47,49,-1,-1,51,53,55,-1,-1,57,-1,-1,59,61,63,-1,-1,-1,-1,-1,-1,-1,-1,-1,-1,-1,-1,-1,-1,-1,-1,-1,-1,-1,-1,-1,-1,-1],"loss_changes":[3.782779E1,7.0903177E0,5.3729935E0,5.965987E0,6.0844436E0,3.3571053E0,0E0,7.010564E0,2.757826E0,4.7233114E0,5.8960524E0,3.1128457E0,8.242569E-1,4.0810614E0,4.3005524E0,9.836502E-1,0E0,3.303322E0,1.672204E0,0E0,2.501635E0,1.3947018E0,1.4402075E0,1.7480507E0,7.9731345E-1,3.3445444E0,0E0,1.2644882E0,1.4654708E0,0E0,0E0,5.193164E0,3.0193279E0,1.2398858E0,0E0,0E0,3.421508E-1,0E0,0E0,2.2050095E-1,2.2987833E0,9.1101074E-1,0E0,0E0,0E0,0E0,0E0,0E0,0E0,0E0,0E0,0E0,0E0,0E0,0E0,0E0,0E0,0E0,0E0,0E0,0E0,0E0,0E0,0E0,0E0],"parents":[2147483647,0,0,1,1,2,2,3,3,4,4,5,5,7,7,8,8,9,9,10,10,11,11,12,12,13,13,14,14,15,15,17,17,18,18,20,20,21,21,22,22,23,23,24,24,25,25,27,27,28,28,31,31,32,32,33,33,36,36,39,39,40,40,41,41],"right_children":[2,4,6,8,10,12,-1,14,16,18,20,22,24,26,28,30,-1,32,34,-1,36,38,40,42,44,46,-1,48,50,-1,-1,52,54,56,-1,-1,58,-1,-1,60,62,64,-1,-1,-1,-1,-1,-1,-1,-1,-1,-1,-1,-1,-1,-1,-1,-1,-1,-1,-1,-1,-1,-1,-1],"split_conditions":[5E0,1E0,3.161E3,3E0,2.979E3,1E0,2.659421E-2,1.021E3,4E0,3E0,3.098E3,7E0,2.442E3,2.2E1,6.25E2,1E2,1.7113011E-2,5E0,1.125E3,7.563272E-2,3.62E2,6.5E1,1.3E2,2.979E3,2.862E3,1.3E1,-4.2687133E-2,4E0,2.332E3,-5.6551393E-2,-4.1019144E-3,8E0,8.57E2,3E0,7.1994797E-3,-4.3215293E-2,8.92E2,-1.3082392E-2,4.1785285E-2,1.86E3,1.5E1,1.761E3,-9.333159E-3,9.874129E-3,-3.5357863E-2,8.218505E-3,6.1849322E-2,9.5294026E-4,4.104522E-2,1.30972E-2,-4.3932762E-2,-2.531286E-2,1.9264373E-4,1.3194841E-3,3.3946846E-2,-5.1824074E-2,-3.128396E-3,3.3587154E-2,-2.7304902E-4,-2.11028E-2,-6.0685635E-2,1.3048646E-2,-4.244342E-2,-2.8901586E-2,-6.84781E-2],"split_indices":[5,10,0,5,0,10,0,0,5,7,0,5,2,2,2,14,0,6,2,0,2,2,2,0,0,2,0,2,0,0,0,2,0,6,0,0,2,0,0,0,5,0,0,0,0,0,0,0,0,0,0,0,0,0,0,0,0,0,0,0,0,0,0,0,0],"split_type":[0,0,0,0,0,0,0,0,0,0,0,0,0,0,0,0,0,0,0,0,0,0,0,0,0,0,0,0,0,0,0,0,0,0,0,0,0,0,0,0,0,0,0,0,0,0,0,0,0,0,0,0,0,0,0,0,0,0,0,0,0,0,0,0,0],"sum_hessian":[3.584395E2,3.1323434E2,4.5205177E1,1.2050152E2,1.9273283E2,4.3209446E1,1.9957328E0,1.1371302E2,6.7884936E0,1.8487143E2,7.8614E0,1.45474615E1,2.8661985E1,7.4560844E1,3.9152176E1,4.913097E0,1.8753968E0,1.7486482E2,1.0006609E1,3.974554E0,3.886846E0,2.9362223E0,1.1611239E1,2.620547E1,2.4565156E0,7.17557E1,2.805146E0,3.627761E1,2.8745644E0,3.597857E0,1.3152399E0,1.4611923E2,2.8745588E1,8.308756E0,1.6978523E0,1.4393884E0,2.4474578E0,1.5586965E0,1.3775258E0,5.8651204E0,5.7461185E0,2.4229446E1,1.9760222E0,1.0526342E0,1.4038812E0,6.9682076E1,2.073622E0,2.1342719E0,3.414334E1,1.4355409E0,1.4390235E0,2.2807745E1,1.23311485E2,1.7918684E1,1.0826905E1,6.566443E0,1.7423134E0,1.3850762E0,1.0623816E0,2.0276916E0,3.8374288E0,3.1643066E0,2.581812E0,3.8283577E0,2.0401089E1],"tree_param":{"num_deleted":"0","num_feature":"15","num_nodes":"65","size_leaf_vector":"1"}},{"base_weights":[-1.5045563E-2,1.10283375E-1,-8.790721E-1,7.9893775E-2,7.662615E-1,-9.396103E-1,3.0339612E-2,1.1030499E-1,-6.643016E-1,9.474174E-1,-1.934688E-2,-4.931882E-1,-1.0329722E0,5.120555E-2,4.5499003E-1,-8.5407776E-1,2.0960351E-2,6.1846036E-2,5.290345E-1,-9.829875E-1,4.610376E-1,-1.0646676E0,-1.390504E-2,1.0024091E-1,-2.800757E-1,6.134627E-1,1.8036218E-2,2.9139841E-2,-1.0698836E0,-1.637692E-1,4.735091E-2,-6.2155563E-2,9.704966E-3,-7.829907E-3,4.6426944E-2,-1.1314768E0,-4.301911E-1,1.5041018E-3,3.3707246E-2,-2.0120427E-2,5.9739947E-2,2.3911215E-2,5.657043E-2,-4.7746535E-2,1.7569035E-2,-9.436517E-3,-5.82091E-2,8.14801E-3,-2.1652E-2,-6.2270027E-2,-3.6805015E-2,-5.678605E-2,2.2357194E-2],"categories":[],"categories_nodes":[],"categories_segments":[],"categories_sizes":[],"default_left":[0,0,0,0,0,0,0,0,0,0,0,0,0,0,0,0,0,0,0,0,0,0,0,0,0,0,0,0,0,0,0,0,0,0,0,0,0,0,0,0,0,0,0,0,0,0,0,0,0,0,0,0,0],"id":9,"left_children":[1,3,5,7,9,11,-1,13,15,17,-1,19,21,23,25,27,-1,-1,29,31,33,35,-1,37,39,41,43,-1,45,47,-1,-1,-1,-1,-1,49,51,-1,-1,-1,-1,-1,-1,-1,-1,-1,-1,-1,-1,-1,-1,-1,-1],"loss_changes":[3.847029E1,6.1258545E0,4.618103E0,6.8116593E0,3.213027E0,1.3090935E0,0E0,5.8211927E0,2.790913E0,8.070307E-1,0E0,4.874774E0,5.4543304E-1,4.0248847E0,2.8879547E0,3.8476324E0,0E0,0E0,2.089992E0,2.253182E0,1.2685101E0,9.2908096E-1,0E0,8.638774E0,6.251956E0,1.6088638E0,4.2836237E0,0E0,5.6070995E-1,3.667807E-1,0E0,0E0,0E0,0E0,0E0,4.1677475E-1,3.4761353E0,0E0,0E0,0E0,0E0,0E0,0E0,0E0,0E0,0E0,0E0,0E0,0E0,0E0,0E0,0E0,0E0],"parents":[2147483647,0,0,1,1,2,2,3,3,4,4,5,5,7,7,8,8,9,9,11,11,12,12,13,13,14,14,15,15,18,18,19,19,20,20,21,21,23,23,24,24,25,25,26,26,28,28,29,29,35,35,36,36],"right_children":[2,4,6,8,10,12,-1,14,16,18,-1,20,22,24,26,28,-1,-1,30,32,34,36,-1,38,40,42,44,-1,46,48,-1,-1,-1,-1,-1,50,52,-1,-1,-1,-1,-1,-1,-1,-1,-1,-1,-1,-1,-1,-1,-1,-1],"split_conditions":[6E0,1.415E3,1.03E2,3E0,5E0,6E1,3.0339612E-2,8E0,3E0,2.678E3,-1.934688E-2,5.7E1,3.726E3,7.7E1,2.1E1,2.15E2,2.0960351E-2,6.1846036E-2,3.726E3,2.55E2,1.24E2,1E0,-1.390504E-2,6.9E1,7.856E1,2.2E1,3.5E1,2.9139841E-2,2.34E2,2.983E3,4.735091E-2,-6.2155563E-2,9.704966E-3,-7.829907E-3,4.6426944E-2,8.2E1,6.9E1,1.5041018E-3,3.3707246E-2,-2.0120427E-2,5.9739947E-2,2.3911215E-2,5.657043E-2,-4.7746535E-2,1.7569035E-2,-9.436517E-3,-5.82091E-2,8.14801E-3,-2.1652E-2,-6.2270027E-2,-3.6805015E-2,-5.678605E-2,2.2357194E-2],"split_indices":[5,2,1,7,6,1,0,4,4,2,0,1,2,1,2,2,0,0,2,2,2,12,0,1,13,1,2,0,2,2,0,0,0,0,0,1,1,0,0,0,0,0,0,0,0,0,0,0,0,0,0,0,0],"split_type":[0,0,0,0,0,0,0,0,0,0,0,0,0,0,0,0,0,0,0,0,0,0,0,0,0,0,0,0,0,0,0,0,0,0,0,0,0,0,0,0,0,0,0,0,0,0,0,0,0,0,0,0,0],"sum_hessian":[3.533653E2,3.0936377E2,4.4001526E1,2.9673853E2,1.2625256E1,4.263221E1,1.3693194E0,2.8590683E2,1.08316765E1,1.1065433E1,1.5598227E0,8.46037E0,3.4171837E1,2.4504086E2,4.0865967E1,9.397463E0,1.4342142E0,5.383704E0,5.681729E0,5.5707765E0,2.8895934E0,3.2400993E1,1.770846E0,2.140545E2,3.0986357E1,2.9693054E1,1.1172914E1,1.005056E0,8.392406E0,2.3668656E0,3.3148632E0,4.516571E0,1.0542054E0,1.5314119E0,1.3581815E0,2.8605562E1,3.79543E0,1.9167496E2,2.2379549E1,2.9284523E1,1.7018349E0,2.507036E1,4.6226945E0,2.3752704E0,8.797643E0,1.1014578E0,7.290949E0,1.2477149E0,1.1191506E0,2.0537865E1,8.067698E0,1.9404546E0,1.8549753E0],"tree_param":{"num_deleted":"0","num_feature":"15","num_nodes":"53","size_leaf_vector":"1"}},{"base_weights":[2.1285547E-2,1.54984E-1,-5.563175E-1,1.8596233E-1,-5.947308E-1,-6.1009574E-1,4.147954E-2,1.4736198E-1,6.7856413E-1,-7.8978884E-1,3.1065319E-2,-2.8086045E-1,-8.308065E-1,3.0122325E-1,6.1878547E-2,-8.383684E-2,1.0864061E0,-4.5790952E-1,-5.8055963E-2,-4.0046465E-1,3.8174134E-1,-2.5789675E-1,-9.3967986E-1,2.2441134E-1,7.883231E-1,-1.7659636E-1,2.3871909E-1,3.366796E-1,-4.1616563E-2,7.8030944E-1,7.1798556E-2,-6.8814456E-1,1.8062772E-2,-2.187355E-1,-5.1954217E-2,-2.131664E-2,8.358966E-1,-9.3317723E-1,9.7337204E-1,-5.819113E-1,-1.1090436E0,7.220778E-3,2.6353484E-2,5.333344E-2,4.8103157E-5,-1.1282857E-2,3.396982E-2,8.704783E-3,2.610221E-2,1.3266344E-4,3.7549835E-2,1.2312532E-2,5.3056784E-2,-1.4745939E-2,-4.20704E-2,-2.1903805E-2,2.7068112E-2,5.496045E-2,6.7659705E-3,-1.007795E-2,-5.37691E-2,1.2846276E-2,5.9990436E-2,-8.359835E-3,-5.8163382E-2,-5.9915125E-2,-1.2461058E-2],"categories":[],"categories_nodes":[],"categories_segments":[],"categories_sizes":[],"default_left":[0,0,0,0,0,0,0,0,0,0,0,0,0,0,0,0,0,0,0,0,0,0,0,0,0,0,0,0,0,0,0,0,0,0,0,0,0,0,0,0,0,0,0,0,0,0,0,0,0,0,0,0,0,0,0,0,0,0,0,0,0,0,0,0,0,0,0],"id":10,"left_children":[1,3,5,7,9,11,-1,13,15,17,-1,19,21,23,25,27,29,31,-1,33,35,37,39,41,43,45,47,49,-1,51,-1,53,-1,55,-1,-1,57,59,61,63,65,-1,-1,-1,-1,-1,-1,-1,-1,-1,-1,-1,-1,-1,-1,-1,-1,-1,-1,-1,-1,-1,-1,-1,-1,-1,-1],"loss_changes":[2.7544014E1,6.834397E0,5.5034504E0,5.2009315E0,3.2720914E0,4.498741E0,0E0,3.3984208E0,6.3038197E0,7.6789904E-1,0E0,2.3438113E0,2.1575432E0,3.2851486E0,7.138452E0,2.764205E0,2.800045E-1,1.6102335E0,0E0,2.547228E0,2.0956151E0,7.1628075E0,1.29076E0,1.8928785E0,2.6740122E0,3.1864026E0,1.685977E0,7.958359E-1,0E0,1.1137447E0,0E0,1.12247944E-1,0E0,3.5511189E0,0E0,0E0,4.7325015E-1,3.4178925E-1,2.033794E-1,2.7879162E0,1.2810211E0,0E0,0E0,0E0,0E0,0E0,0E0,0E0,0E0,0E0,0E0,0E0,0E0,0E0,0E0,0E0,0E0,0E0,0E0,0E0,0E0,0E0,0E0,0E0,0E0,0E0,0E0],"parents":[2147483647,0,0,1,1,2,2,3,3,4,4,5,5,7,7,8,8,9,9,11,11,12,12,13,13,14,14,15,15,16,16,17,17,19,19,20,20,21,21,22,22,23,23,24,24,25,25,26,26,27,27,29,29,31,31,33,33,36,36,37,37,38,38,39,39,40,40],"right_children":[2,4,6,8,10,12,-1,14,16,18,-1,20,22,24,26,28,30,32,-1,34,36,38,40,42,44,46,48,50,-1,52,-1,54,-1,56,-1,-1,58,60,62,64,66,-1,-1,-1,-1,-1,-1,-1,-1,-1,-1,-1,-1,-1,-1,-1,-1,-1,-1,-1,-1,-1,-1,-1,-1,-1,-1],"split_conditions":[3E0,3E0,3.161E3,1E0,2.37E3,6E0,4.147954E-2,1.4E1,1.293E3,1.786E3,3.1065319E-2,2.549E3,6E1,1.3E1,4.1E1,8E0,1E2,1.668E3,-5.8055963E-2,2.196E3,1E0,1.724E3,1E0,5E0,2.2E1,3.4E1,2E0,5.28E2,-4.1616563E-2,2.052E3,7.1798556E-2,1E2,1.8062772E-2,2.069E3,-5.1954217E-2,-2.131664E-2,4E0,1.237E3,8E0,1.9E1,2.996E3,7.220778E-3,2.6353484E-2,5.333344E-2,4.8103157E-5,-1.1282857E-2,3.396982E-2,8.704783E-3,2.610221E-2,1.3266344E-4,3.7549835E-2,1.2312532E-2,5.3056784E-2,-1.4745939E-2,-4.20704E-2,-2.1903805E-2,2.7068112E-2,5.496045E-2,6.7659705E-3,-1.007795E-2,-5.37691E-2,1.2846276E-2,5.9990436E-2,-8.359835E-3,-5.8163382E-2,-5.9915125E-2,-1.2461058E-2],"split_indices":[5,7,0,12,0,5,0,1,0,0,0,0,1,4,1,3,14,0,0,0,10,0,10,1,4,4,7,0,0,0,0,14,0,0,0,0,5,0,5,5,0,0,0,0,0,0,0,0,0,0,0,0,0,0,0,0,0,0,0,0,0,0,0,0,0,0,0],"split_type":[0,0,0,0,0,0,0,0,0,0,0,0,0,0,0,0,0,0,0,0,0,0,0,0,0,0,0,0,0,0,0,0,0,0,0,0,0,0,0,0,0,0,0,0,0,0,0,0,0,0,0,0,0,0,0,0,0,0,0,0,0,0,0,0,0,0,0],"sum_hessian":[3.5455746E2,2.8850787E2,6.6049576E1,2.7778186E2,1.0726039E1,6.412122E1,1.9283487E0,2.588013E2,1.898056E1,9.54543E0,1.1806091E0,2.6645912E1,3.7475315E1,9.15311E1,1.6727019E2,6.891795E0,1.2088764E1,6.2196918E0,3.325738E0,2.290671E1,3.7392018E0,6.522359E0,3.0952955E1,8.032515E1,1.1205952E1,7.122392E1,9.6046265E1,4.764956E0,2.1268394E0,8.168364E0,3.9204006E0,4.979964E0,1.239728E0,1.8877373E1,4.029337E0,1.3674223E0,2.3717794E0,4.3685565E0,2.1538024E0,1.137017E1,1.9582787E1,6.470112E1,1.562403E1,8.017048E0,3.1889033E0,6.805951E1,3.1644156E0,7.952251E1,1.652376E1,3.1952882E0,1.5696676E0,3.4617984E0,4.7065654E0,2.2167473E0,2.7632167E0,1.4978657E1,3.8987164E0,1.3102982E0,1.0614812E0,1.1043351E0,3.2642214E0,1.0298859E0,1.1239164E0,7.387699E0,3.9824703E0,1.7384432E1,2.1983547E0],"tree_param":{"num_deleted":"0","num_feature":"15","num_nodes":"67","size_leaf_vector":"1"}},{"base_weights":[-5.584564E-3,8.012037E-2,-6.9564503E-1,2.3463957E-1,-2.0821605E-2,-2.7519974E-1,-8.9913344E-1,2.9117158E-1,-2.6333198E-1,-6.286359E-2,6.0501665E-1,-4.6040288E-1,4.2221695E-2,-9.8953295E-1,1.4897403E-2,2.0705125E-1,9.90511E-1,3.6830213E-2,-7.818327E-1,1.7414121E-1,-1.7535532E-1,8.0027336E-1,-2.7314937E-2,-8.8543886E-1,2.505E-3,-3.9983952E-1,-5.4146986E-2,2.2333488E-1,-2.8863598E-2,-1.4897359E-2,5.883173E-2,-2.2982047E-1,3.3837143E-2,-4.7690507E-2,-8.836406E-3,-4.4992962E-1,2.751595E-1,-8.6906415E-1,-1.1796616E-1,4.4443208E-1,5.932209E-2,-4.9276475E-2,-9.805287E-3,3.1778935E-1,-4.346421E-2,-4.74187E-2,2.872552E-2,1.0082117E-2,4.4142872E-2,2.5287217E-2,-2.1262242E-2,-3.1953696E-2,2.4358615E-2,2.4277762E-2,-3.0259516E-3,-6.396296E-2,1.9016763E-2,-2.783873E-3,-2.6744822E-2,6.24215E-2,-1.3434365E-2,-1.4435314E-2,2.7509883E-2],"categories":[],"categories_nodes":[],"categories_segments":[],"categories_sizes":[],"default_left":[0,0,0,0,0,0,0,0,0,0,0,0,0,0,0,0,0,0,0,0,0,0,0,0,0,0,0,0,0,0,0,0,0,0,0,0,0,0,0,0,0,0,0,0,0,0,0,0,0,0,0,0,0,0,0,0,0,0,0,0,0,0,0],"id":11,"left_children":[1,3,5,7,9,11,13,15,17,19,21,23,-1,25,-1,27,29,31,33,35,37,39,-1,41,43,45,-1,47,-1,-1,-1,49,-1,-1,-1,51,53,55,57,59,-1,-1,-1,61,-1,-1,-1,-1,-1,-1,-1,-1,-1,-1,-1,-1,-1,-1,-1,-1,-1,-1,-1],"loss_changes":[2.1086224E1,4.952511E0,3.1224918E0,3.6074543E0,5.1105037E0,3.3513756E0,3.1194172E0,6.4489965E0,2.100584E0,4.871009E0,3.1864395E0,2.5416071E0,0E0,9.165058E-1,0E0,1.4345589E0,3.199626E0,1.7571117E0,3.4403396E-1,3.8394506E0,4.818844E0,9.653077E-1,0E0,2.711649E-1,2.2484345E0,3.1826882E0,0E0,1.26511E0,0E0,0E0,0E0,1.2747467E0,0E0,0E0,0E0,1.834025E0,3.6558523E0,5.2467017E0,2.9653149E0,4.4933114E0,0E0,0E0,0E0,1.004823E0,0E0,0E0,0E0,0E0,0E0,0E0,0E0,0E0,0E0,0E0,0E0,0E0,0E0,0E0,0E0,0E0,0E0,0E0,0E0],"parents":[2147483647,0,0,1,1,2,2,3,3,4,4,5,5,6,6,7,7,8,8,9,9,10,10,11,11,13,13,15,15,16,16,17,17,18,18,19,19,20,20,21,21,23,23,24,24,25,25,27,27,31,31,35,35,36,36,37,37,38,38,39,39,43,43],"right_children":[2,4,6,8,10,12,14,16,18,20,22,24,-1,26,-1,28,30,32,34,36,38,40,-1,42,44,46,-1,48,-1,-1,-1,50,-1,-1,-1,52,54,56,58,60,-1,-1,-1,62,-1,-1,-1,-1,-1,-1,-1,-1,-1,-1,-1,-1,-1,-1,-1,-1,-1,-1,-1],"split_conditions":[6E0,1E0,1E0,2.332E3,1.415E3,1E-2,3.161E3,2.069E3,1E0,9.45E2,5E0,2.075E3,4.2221695E-2,1.793E3,1.4897403E-2,7.82E0,6E0,1.49E2,1.415E3,1.35E2,8E0,3.33E3,-2.7314937E-2,3E0,3.7E1,1.613E3,-5.4146986E-2,1E-2,-2.8863598E-2,-1.4897359E-2,5.883173E-2,1E1,3.3837143E-2,-4.7690507E-2,-8.836406E-3,5.5E-1,2.4E1,1.085E3,9E0,2.125E3,5.932209E-2,-4.9276475E-2,-9.805287E-3,1.01E2,-4.346421E-2,-4.74187E-2,2.872552E-2,1.0082117E-2,4.4142872E-2,2.5287217E-2,-2.1262242E-2,-3.1953696E-2,2.4358615E-2,2.4277762E-2,-3.0259516E-3,-6.396296E-2,1.9016763E-2,-2.783873E-3,-2.6744822E-2,6.24215E-2,-1.3434365E-2,-1.4435314E-2,2.7509883E-2],"split_indices":[5,10,10,0,2,13,0,0,3,0,6,0,0,0,0,13,2,2,2,0,2,2,0,3,5,0,0,13,0,0,0,2,0,0,0,13,2,0,3,2,0,0,0,2,0,0,0,0,0,0,0,0,0,0,0,0,0,0,0,0,0,0,0],"split_type":[0,0,0,0,0,0,0,0,0,0,0,0,0,0,0,0,0,0,0,0,0,0,0,0,0,0,0,0,0,0,0,0,0,0,0,0,0,0,0,0,0,0,0,0,0,0,0,0,0,0,0,0,0,0,0,0,0,0,0,0,0,0,0],"sum_hessian":[3.5459558E2,3.1620685E2,3.8388733E1,1.2442144E2,1.9178542E2,1.328723E1,2.5101503E1,1.12109535E2,1.2311904E1,1.8055576E2,1.1229654E1,1.1906516E1,1.3807137E0,2.3500225E1,1.6012775E0,1.012292E2,1.088033E1,8.386115E0,3.9257886E0,5.7938717E1,1.2261704E2,9.862017E0,1.3676379E0,5.7313185E0,6.1751976E0,3.935478E0,1.9564747E1,9.9870995E1,1.3582089E0,1.2974946E0,9.582835E0,6.3718367E0,2.0142787E0,2.608228E0,1.3175604E0,7.590734E0,5.034798E1,8.288151E0,1.1432889E2,6.2519393E0,3.6100771E0,4.6294417E0,1.1018765E0,5.0017715E0,1.1734263E0,2.534998E0,1.4004802E0,9.795488E1,1.9161189E0,1.0041924E0,5.3676443E0,6.58055E0,1.0101839E0,3.067506E1,1.9672922E1,6.221611E0,2.06654E0,1.00454666E2,1.3874223E1,2.5858703E0,3.666069E0,1.318572E0,3.6831992E0],"tree_param":{"num_deleted":"0","num_feature":"15","num_nodes":"63","size_leaf_vector":"1"}},{"base_weights":[-2.8901989E-2,8.901808E-2,-1.995688E-1,3.728193E-2,6.5972984E-1,6.461054E-2,-5.865887E-1,7.306917E-2,-5.9098655E-1,8.4501874E-1,-2.0411415E-2,-1.6613497E-1,1.6993813E-1,-9.623828E-1,-3.3158258E-1,4.991307E-2,6.328575E-1,-7.2278845E-1,1.1218547E-2,9.16441E-1,-3.0964778E-3,-2.3935299E-1,4.0593576E-2,2.168375E-1,-3.513736E-2,-8.0294025E-1,-6.529471E-2,6.913146E-1,-5.076512E-1,9.614308E-2,-3.5483027E-1,5.8692843E-2,-1.6131258E-1,-4.4746855E-1,-5.626164E-2,5.249845E-2,2.1374491E-1,-7.4054845E-2,-7.304339E-1,1.5784958E-1,5.2410193E-2,-5.1636335E-2,-5.945659E-1,9.863381E-1,-1.45003125E-2,-6.1437833E-1,4.222214E-2,1.3932763E-3,2.4879737E-2,-2.2531983E-2,1.0836291E-2,-3.7583996E-2,1.9659309E-2,-3.8641337E-2,2.5681913E-2,2.8013466E-2,-1.033825E-2,-1.7603248E-2,3.494258E-2,-5.534355E-2,6.512694E-3,5.827347E-3,4.5012992E-2,6.3351737E-3,-4.314479E-2,5.953927E-2,6.854424E-3,-4.421352E-2,-1.3596664E-2],"categories":[],"categories_nodes":[],"categories_segments":[],"categories_sizes":[],"default_left":[0,0,0,0,0,0,0,0,0,0,0,0,0,0,0,0,0,0,0,0,0,0,0,0,0,0,0,0,0,0,0,0,0,0,0,0,0,0,0,0,0,0,0,0,0,0,0,0,0,0,0,0,0,0,0,0,0,0,0,0,0,0,0,0,0,0,0,0,0],"id":12,"left_children":[1,3,5,7,9,11,13,15,17,19,-1,21,23,25,27,29,31,33,-1,35,-1,37,-1,39,-1,41,-1,43,45,47,49,-1,51,53,-1,-1,55,57,59,61,-1,-1,63,65,-1,67,-1,-1,-1,-1,-1,-1,-1,-1,-1,-1,-1,-1,-1,-1,-1,-1,-1,-1,-1,-1,-1,-1,-1],"loss_changes":[7.152183E0,6.18603E0,1.4879782E1,4.403238E0,3.7926536E0,2.1468987E0,5.3338165E0,2.3581486E0,1.2970808E0,1.0395966E0,0E0,2.186922E0,2.6223059E0,2.2875786E-1,6.9548593E0,3.3669682E0,3.2989373E0,5.3004265E-1,0E0,1.1012478E0,0E0,2.1100895E0,0E0,2.6805563E0,0E0,2.7296066E-1,0E0,1.9675691E0,5.116353E0,4.3895016E0,1.1092303E0,0E0,1.5433648E0,2.6481094E0,0E0,0E0,6.275503E-1,4.771224E0,2.2829442E0,1.5928029E0,0E0,0E0,2.4456987E0,6.5155363E-1,0E0,2.542203E0,0E0,0E0,0E0,0E0,0E0,0E0,0E0,0E0,0E0,0E0,0E0,0E0,0E0,0E0,0E0,0E0,0E0,0E0,0E0,0E0,0E0,0E0,0E0],"parents":[2147483647,0,0,1,1,2,2,3,3,4,4,5,5,6,6,7,7,8,8,9,9,11,11,12,12,13,13,14,14,15,15,16,16,17,17,19,19,21,21,23,23,25,25,27,27,28,28,29,29,30,30,32,32,33,33,36,36,37,37,38,38,39,39,42,42,43,43,45,45],"right_children":[2,4,6,8,10,12,14,16,18,20,-1,22,24,26,28,30,32,34,-1,36,-1,38,-1,40,-1,42,-1,44,46,48,50,-1,52,54,-1,-1,56,58,60,62,-1,-1,64,66,-1,68,-1,-1,-1,-1,-1,-1,-1,-1,-1,-1,-1,-1,-1,-1,-1,-1,-1,-1,-1,-1,-1,-1,-1],"split_conditions":[3E0,1E0,6E1,3E0,8E0,4E0,2.069E3,2.979E3,2.208E3,2.143E3,-2.0411415E-2,2.4E1,7.2E1,1.4E1,2.087E3,2.353E3,1.04E2,1.844E3,1.1218547E-2,1E0,-3.0964778E-3,6E0,4.0593576E-2,4.1E1,-3.513736E-2,1.87E3,-6.529471E-2,1E2,1E0,2.034E3,1E-2,5.8692843E-2,3.181E3,1.668E3,-5.626164E-2,5.249845E-2,1.727E3,1.299E3,1.724E3,1E0,5.2410193E-2,-5.1636335E-2,1.953E3,1E0,-1.45003125E-2,2.549E3,4.222214E-2,1.3932763E-3,2.4879737E-2,-2.2531983E-2,1.0836291E-2,-3.7583996E-2,1.9659309E-2,-3.8641337E-2,2.5681913E-2,2.8013466E-2,-1.033825E-2,-1.7603248E-2,3.494258E-2,-5.534355E-2,6.512694E-3,5.827347E-3,4.5012992E-2,6.3351737E-3,-4.314479E-2,5.953927E-2,6.854424E-3,-4.421352E-2,-1.3596664E-2],"split_indices":[6,12,1,7,3,4,0,0,0,0,0,6,4,6,0,0,1,0,0,10,0,6,0,4,0,0,0,14,4,0,13,0,0,0,0,0,0,0,0,9,0,0,0,10,0,0,0,0,0,0,0,0,0,0,0,0,0,0,0,0,0,0,0,0,0,0,0,0,0],"split_type":[0,0,0,0,0,0,0,0,0,0,0,0,0,0,0,0,0,0,0,0,0,0,0,0,0,0,0,0,0,0,0,0,0,0,0,0,0,0,0,0,0,0,0,0,0,0,0,0,0,0,0,0,0,0,0,0,0,0,0,0,0,0,0,0,0,0,0,0,0],"sum_hessian":[3.5350452E2,2.0934125E2,1.4416327E2,1.9291817E2,1.6423086E1,8.617403E1,5.7989235E1,1.8335751E2,9.5606575E0,1.4172872E1,2.2502158E0,2.682659E1,5.934744E1,2.2321228E1,3.566801E1,1.7711996E2,6.237546E0,8.327978E0,1.2326791E0,1.3128531E1,1.04434E0,2.5660772E1,1.1658177E0,5.7033886E1,2.3135552E0,1.7524563E1,4.796664E0,4.8081203E0,3.0859888E1,1.5964742E2,1.7472555E1,3.4257715E0,2.8117743E0,6.199E0,2.128978E0,1.0616886E1,2.5116453E0,2.0059525E1,5.6012487E0,5.4366302E1,2.667583E0,6.452693E0,1.107187E1,3.6928058E0,1.1153146E0,2.9107876E1,1.7520123E0,1.373558E2,2.2291603E1,1.5145318E1,2.3272374E0,1.1896101E0,1.6221642E0,4.7775736E0,1.4214264E0,1.1947476E0,1.3168979E0,1.5153417E1,4.9061074E0,3.6978831E0,1.9033655E0,5.2597137E1,1.7691625E0,3.145252E0,7.9266176E0,2.6521647E0,1.0406411E0,1.5393521E1,1.3714355E1],"tree_param":{"num_deleted":"0","num_feature":"15","num_nodes":"69","size_leaf_vector":"1"}},{"base_weights":[-2.07813E-3,9.237449E-2,-7.3207456E-1,3.0948311E-2,3.3027297E-1,-7.805357E-1,1.4310329E-2,7.207156E-2,-4.5823258E-1,8.6380327E-1,1.4939544E-1,-4.4701737E-1,-9.459171E-1,5.7329245E-2,9.179509E-1,-6.562377E-1,5.322554E-1,1.1172236E0,-1.1141753E-1,2.0731942E-1,-4.9826568E-1,-8.27187E-1,5.6978602E-2,-3.841444E-1,-1.0492932E0,2.952714E-2,4.696715E-1,1.621749E-2,5.6551106E-2,-7.6158583E-1,2.546995E-2,5.5814058E-2,-1.0839217E-2,1.2216008E0,3.8247606E-1,-2.9996667E-2,3.1153047E-2,-3.5078657E-1,2.8036842E-1,-4.165183E-2,-2.6283364E-3,-9.830788E-1,7.153512E-3,4.3596575E-1,-5.049839E-1,-8.7640214E-1,3.8859006E-2,-5.9811402E-2,-7.322161E-1,8.829036E-3,-4.296496E-3,6.1923273E-2,-9.5750735E-4,-3.803607E-3,-5.4367423E-2,6.573969E-2,2.1506276E-2,4.68392E-3,2.4416145E-2,-2.1390257E-2,-1.8157918E-4,7.4096494E-3,3.113622E-2,-1.8831315E-2,-5.3734463E-2,-4.489809E-3,5.8754534E-2,-3.179858E-2,-5.4705036E-3,-5.380841E-2,-6.949678E-3,-1.565387E-2,-4.5848478E-2],"categories":[],"categories_nodes":[],"categories_segments":[],"categories_sizes":[],"default_left":[0,0,0,0,0,0,0,0,0,0,0,0,0,0,0,0,0,0,0,0,0,0,0,0,0,0,0,0,0,0,0,0,0,0,0,0,0,0,0,0,0,0,0,0,0,0,0,0,0,0,0,0,0,0,0,0,0,0,0,0,0,0,0,0,0,0,0,0,0,0,0,0,0],"id":13,"left_children":[1,3,5,7,9,11,-1,13,15,17,19,21,23,25,27,29,31,33,35,37,39,41,43,45,47,49,51,-1,-1,53,-1,-1,-1,55,57,-1,-1,59,61,-1,-1,63,-1,65,67,69,-1,-1,71,-1,-1,-1,-1,-1,-1,-1,-1,-1,-1,-1,-1,-1,-1,-1,-1,-1,-1,-1,-1,-1,-1,-1,-1],"loss_changes":[2.4703302E1,4.62584E0,2.2488804E0,5.1275826E0,6.1438518E0,1.7530899E0,0E0,2.8713348E0,4.2275076E0,4.14011E0,1.9698026E0,2.9160442E0,1.0764198E0,2.6403365E0,1.3273573E-1,2.4666605E0,1.9247369E0,5.2880096E-1,1.9025571E0,1.9890194E0,6.094767E-1,1.4413671E0,1.7905682E0,3.8464549E0,9.965134E-2,3.715917E0,5.4944444E0,0E0,0E0,3.4737082E0,0E0,0E0,0E0,2.3966217E-1,4.8139513E-2,0E0,0E0,1.5383339E-1,1.7885082E0,0E0,0E0,1.3931274E-2,0E0,2.0253868E0,1.08311296E-1,4.9249148E-1,0E0,0E0,4.260106E-1,0E0,0E0,0E0,0E0,0E0,0E0,0E0,0E0,0E0,0E0,0E0,0E0,0E0,0E0,0E0,0E0,0E0,0E0,0E0,0E0,0E0,0E0,0E0,0E0],"parents":[2147483647,0,0,1,1,2,2,3,3,4,4,5,5,7,7,8,8,9,9,10,10,11,11,12,12,13,13,14,14,15,15,16,16,17,17,18,18,19,19,20,20,21,21,22,22,23,23,24,24,25,25,26,26,29,29,33,33,34,34,37,37,38,38,41,41,43,43,44,44,45,45,48,48],"right_children":[2,4,6,8,10,12,-1,14,16,18,20,22,24,26,28,30,32,34,36,38,40,42,44,46,48,50,52,-1,-1,54,-1,-1,-1,56,58,-1,-1,60,62,-1,-1,64,-1,66,68,70,-1,-1,72,-1,-1,-1,-1,-1,-1,-1,-1,-1,-1,-1,-1,-1,-1,-1,-1,-1,-1,-1,-1,-1,-1,-1,-1],"split_conditions":[6E0,4E0,3.161E3,1E0,7E0,1E0,1.4310329E-2,3.5093E2,2.021E3,7E0,1E1,1.3E2,1.793E3,1E0,5.299E2,1.125E3,4.5E2,9.49E2,1.85E2,8E0,3.96E2,1E-2,1.9E1,3.08E2,2.409E3,1E0,2.18E2,1.621749E-2,5.6551106E-2,1.76E2,2.546995E-2,5.5814058E-2,-1.0839217E-2,1.6E1,5E0,-2.9996667E-2,3.1153047E-2,1.82E2,6.5E2,-4.165183E-2,-2.6283364E-3,3.9E1,7.153512E-3,2.37E3,3.9E1,1.613E3,3.8859006E-2,-5.9811402E-2,1E0,8.829036E-3,-4.296496E-3,6.1923273E-2,-9.5750735E-4,-3.803607E-3,-5.4367423E-2,6.573969E-2,2.1506276E-2,4.68392E-3,2.4416145E-2,-2.1390257E-2,-1.8157918E-4,7.4096494E-3,3.113622E-2,-1.8831315E-2,-5.3734463E-2,-4.489809E-3,5.8754534E-2,-3.179858E-2,-5.4705036E-3,-5.380841E-2,-6.949678E-3,-1.565387E-2,-4.5848478E-2],"split_indices":[5,4,0,9,4,10,0,13,0,3,3,2,0,8,13,2,2,0,2,6,2,13,5,2,0,10,2,0,0,2,0,0,0,2,4,0,0,0,0,0,0,2,0,0,5,0,0,0,3,0,0,0,0,0,0,0,0,0,0,0,0,0,0,0,0,0,0,0,0,0,0,0,0],"split_type":[0,0,0,0,0,0,0,0,0,0,0,0,0,0,0,0,0,0,0,0,0,0,0,0,0,0,0,0,0,0,0,0,0,0,0,0,0,0,0,0,0,0,0,0,0,0,0,0,0,0,0,0,0,0,0,0,0,0,0,0,0,0,0,0,0,0,0,0,0,0,0,0,0],"sum_hessian":[3.5629736E2,3.162517E2,4.004565E1,2.5225002E2,6.400169E1,3.844928E1,1.596369E0,2.3347545E2,1.8774567E1,1.5248354E1,4.875334E1,1.3973136E1,2.4476145E1,2.3052554E2,2.9499137E0,1.5927929E1,2.8466384E0,1.1987641E1,3.2607126E0,4.5375088E1,3.3782551E0,7.599496E0,6.3736396E0,4.5369835E0,1.9939161E1,2.1696811E2,1.3557428E1,1.4453981E0,1.5045158E0,1.4925614E1,1.0023147E0,1.3240188E0,1.5226195E0,9.916328E0,2.0713127E0,2.0682585E0,1.1924541E0,4.811603E0,4.0563484E1,1.4329153E0,1.9453399E0,6.5361195E0,1.0633764E0,3.9404268E0,2.4332128E0,3.358667E0,1.1783164E0,1.1730518E1,8.208643E0,9.519377E1,1.21774345E2,4.673543E0,8.883885E0,5.2053447E0,9.720269E0,8.280177E0,1.6361516E0,1.0611247E0,1.0101879E0,3.74781E0,1.0637932E0,3.0298733E1,1.0264752E1,1.5285352E0,5.007584E0,2.8159013E0,1.1245255E0,1.3713832E0,1.0618296E0,2.281272E0,1.077395E0,3.3357048E0,4.872938E0],"tree_param":{"num_deleted":"0","num_feature":"15","num_nodes":"73","size_leaf_vector":"1"}},{"base_weights":[-2.5671197E-4,1.0314067E-1,-6.89123E-1,8.500565E-2,8.623918E-1,-7.5166464E-1,3.2422218E-1,2.2177722E-1,-9.200425E-3,1.0214838E-2,5.3025037E-2,-4.334538E-1,-9.316181E-1,-4.6340153E-3,2.7455274E-2,2.693204E-1,-4.4934198E-1,-1.3789317E-1,2.1047728E-1,-5.736381E-1,2.9573878E-2,-2.84819E-1,-1.0330191E0,1.6451147E-1,4.5650175E-1,-4.7042E-2,-7.425817E-2,-3.3519155E-1,1.14522085E-1,8.045656E-1,8.7515175E-2,-9.566995E-2,-8.9675254E-1,-4.697429E-2,4.2670812E-2,-2.5672251E-3,-1.0763448E0,1.06180385E-2,-2.3045955E-2,2.9430691E-2,-6.5977047E-3,3.268972E-2,-3.3845983E-2,-1.04933595E-2,-3.319548E-2,1.4535971E-2,-3.0647507E-2,5.3610235E-2,-1.0831608E-2,-9.910954E-4,4.2092126E-2,-2.7196405E-2,2.4332486E-2,-5.1834464E-2,7.695247E-5,-6.11445E-2,-3.7272792E-2],"categories":[],"categories_nodes":[],"categories_segments":[],"categories_sizes":[],"default_left":[0,0,0,0,0,0,0,0,0,0,0,0,0,0,0,0,0,0,0,0,0,0,0,0,0,0,0,0,0,0,0,0,0,0,0,0,0,0,0,0,0,0,0,0,0,0,0,0,0,0,0,0,0,0,0,0,0],"id":14,"left_children":[1,3,5,7,9,11,13,15,17,-1,-1,19,21,-1,-1,23,25,27,29,31,-1,33,35,37,39,-1,41,43,45,47,49,51,53,-1,-1,-1,55,-1,-1,-1,-1,-1,-1,-1,-1,-1,-1,-1,-1,-1,-1,-1,-1,-1,-1,-1,-1],"loss_changes":[2.5278288E1,4.1755767E0,3.179119E0,3.8995795E0,7.0761013E-1,2.111536E0,3.6882004E-1,4.0588098E0,5.120028E0,0E0,0E0,2.8878305E0,1.4889584E0,0E0,0E0,2.198166E0,1.5043665E0,5.723665E0,4.8180804E0,2.4023933E0,0E0,4.576354E0,9.282017E-1,2.3676622E0,3.2673893E0,0E0,3.043973E0,2.510838E0,6.69345E0,3.3353324E0,4.5966806E0,2.25318E0,1.1949482E0,0E0,0E0,0E0,1.598072E-1,0E0,0E0,0E0,0E0,0E0,0E0,0E0,0E0,0E0,0E0,0E0,0E0,0E0,0E0,0E0,0E0,0E0,0E0,0E0,0E0],"parents":[2147483647,0,0,1,1,2,2,3,3,4,4,5,5,6,6,7,7,8,8,11,11,12,12,15,15,16,16,17,17,18,18,19,19,21,21,22,22,23,23,24,24,26,26,27,27,28,28,29,29,30,30,31,31,32,32,36,36],"right_children":[2,4,6,8,10,12,14,16,18,-1,-1,20,22,-1,-1,24,26,28,30,32,-1,34,36,38,40,-1,42,44,46,48,50,52,54,-1,-1,-1,56,-1,-1,-1,-1,-1,-1,-1,-1,-1,-1,-1,-1,-1,-1,-1,-1,-1,-1,-1,-1],"split_conditions":[5E0,2.996E3,3.161E3,1E0,3.62E2,1E0,7E0,4E0,3E0,1.0214838E-2,5.3025037E-2,1E-2,1.793E3,-4.6340153E-3,2.7455274E-2,7E0,1.078E3,4.4E1,2.5E1,1.1E1,2.9573878E-2,3.08E2,6.5E1,1.613E3,3E0,-4.7042E-2,4.14E2,1E0,1.8E0,6E0,1.551E3,2.069E3,2.043E3,-4.697429E-2,4.2670812E-2,-2.5672251E-3,2.409E3,1.06180385E-2,-2.3045955E-2,2.9430691E-2,-6.5977047E-3,3.268972E-2,-3.3845983E-2,-1.04933595E-2,-3.319548E-2,1.4535971E-2,-3.0647507E-2,5.3610235E-2,-1.0831608E-2,-9.910954E-4,4.2092126E-2,-2.7196405E-2,2.4332486E-2,-5.1834464E-2,7.695247E-5,-6.11445E-2,-3.7272792E-2],"split_indices":[5,0,0,10,2,10,5,3,3,0,0,13,0,0,0,2,0,2,2,5,0,2,2,0,5,0,2,5,13,3,2,0,2,0,0,0,0,0,0,0,0,0,0,0,0,0,0,0,0,0,0,0,0,0,0,0,0],"split_type":[0,0,0,0,0,0,0,0,0,0,0,0,0,0,0,0,0,0,0,0,0,0,0,0,0,0,0,0,0,0,0,0,0,0,0,0,0,0,0,0,0,0,0,0,0,0,0,0,0,0,0,0,0,0,0,0,0],"sum_hessian":[3.528998E2,3.0758258E2,4.5317226E1,3.0149326E2,6.089328E0,4.2926144E1,2.3910816E0,1.2241412E2,1.7907915E2,1.8789399E0,4.210388E0,1.6737682E1,2.6188463E1,1.0438331E0,1.3472484E0,1.1487489E2,7.5392265E0,1.1315965E2,6.591949E1,1.5111177E1,1.6265049E0,4.065432E0,2.2123032E1,7.48454E1,4.0029495E1,2.6103544E0,4.928872E0,6.3330185E1,4.9829468E1,1.035352E1,5.556597E1,6.617825E0,8.493352E0,2.691819E0,1.3736132E0,1.0274801E0,2.109555E1,7.013973E1,4.7056656E0,3.2690094E1,7.339402E0,2.193791E0,2.7350812E0,4.703605E1,1.6294136E1,4.059704E1,9.232431E0,8.1639385E0,2.1895819E0,4.949657E1,6.0693974E0,3.776601E0,2.841224E0,7.2152805E0,1.2780713E0,1.2752093E1,8.343457E0],"tree_param":{"num_deleted":"0","num_feature":"15","num_nodes":"57","size_leaf_vector":"1"}},{"base_weights":[-1.7019471E-2,6.1934114E-2,-6.5987086E-1,9.175647E-2,-3.904113E-1,-7.187413E-1,1.842302E-2,7.348062E-2,7.7580607E-1,-6.230804E-1,2.9719377E-1,-8.648143E-1,-4.8913065E-1,1.0939808E-1,-2.8135455E-1,5.180202E-2,2.402481E-1,-2.8917146E-1,-1.2303566E0,-1.8127007E-2,5.3835225E-1,-9.025373E-1,-2.9820155E-3,-1.180805E-2,-7.9962474E-1,7.698168E-2,5.6670874E-1,-4.4638452E-1,4.7770816E-1,2.2646504E-2,-8.816174E-3,-6.3093555E-1,1.2474013E-1,-7.077698E-2,-1.49221E-2,4.750544E-2,-1.9328652E-2,-9.726572E-1,-2.5409877E-1,3.680845E-1,-4.4688207E-1,-2.1871437E-1,-6.1525106E-2,5.37033E-3,-1.1701623E-2,-3.770581E-3,4.929553E-2,-2.797446E-2,3.4480456E-2,-1.153447E-2,6.260338E-2,-1.253893E-3,-4.994099E-2,1.8793946E-2,-1.4885857E-2,-5.908078E-3,-5.0955504E-2,-2.8845742E-2,1.2049827E-2,-2.577616E-2,4.0000577E-2,-4.100554E-2,1.6826794E-2,-4.2939886E-2,2.6907772E-2],"categories":[],"categories_nodes":[],"categories_segments":[],"categories_sizes":[],"default_left":[0,0,0,0,0,0,0,0,0,0,0,0,0,0,0,0,0,0,0,0,0,0,0,0,0,0,0,0,0,0,0,0,0,0,0,0,0,0,0,0,0,0,0,0,0,0,0,0,0,0,0,0,0,0,0,0,0,0,0,0,0,0,0,0,0],"id":15,"left_children":[1,3,5,7,9,11,-1,13,15,17,19,21,23,25,27,-1,29,31,33,-1,35,37,-1,39,41,43,45,47,49,-1,-1,51,53,-1,-1,-1,-1,55,57,59,61,63,-1,-1,-1,-1,-1,-1,-1,-1,-1,-1,-1,-1,-1,-1,-1,-1,-1,-1,-1,-1,-1,-1,-1],"loss_changes":[1.8104912E1,4.3241324E0,2.6267776E0,3.681419E0,3.3611622E0,8.2608986E-1,0E0,3.7568321E0,8.210225E-1,2.7174191E0,1.1014293E0,5.979805E-1,2.477808E0,3.9027076E0,3.6146753E0,0E0,4.176243E-1,1.6469439E0,4.524331E-1,0E0,2.109175E0,6.8170166E-1,0E0,1.4254656E0,2.2722135E0,2.388342E0,4.7752E0,3.3180122E0,3.2138608E0,0E0,0E0,1.365164E0,7.324322E-1,0E0,0E0,0E0,0E0,5.9729767E-1,6.7398727E-1,2.176149E0,1.447912E0,3.1460526E0,0E0,0E0,0E0,0E0,0E0,0E0,0E0,0E0,0E0,0E0,0E0,0E0,0E0,0E0,0E0,0E0,0E0,0E0,0E0,0E0,0E0,0E0,0E0],"parents":[2147483647,0,0,1,1,2,2,3,3,4,4,5,5,7,7,8,8,9,9,10,10,11,11,12,12,13,13,14,14,16,16,17,17,18,18,20,20,21,21,23,23,24,24,25,25,26,26,27,27,28,28,31,31,32,32,37,37,38,38,39,39,40,40,41,41],"right_children":[2,4,6,8,10,12,-1,14,16,18,20,22,24,26,28,-1,30,32,34,-1,36,38,-1,40,42,44,46,48,50,-1,-1,52,54,-1,-1,-1,-1,56,58,60,62,64,-1,-1,-1,-1,-1,-1,-1,-1,-1,-1,-1,-1,-1,-1,-1,-1,-1,-1,-1,-1,-1,-1,-1],"split_conditions":[6E0,1E1,3.161E3,2.996E3,1.551E3,3.39E2,1.842302E-2,1.8E0,8.33E2,1.807E3,1.1E1,2.516E3,1E0,1E-2,3.5093E2,5.180202E-2,2E0,1.189E3,2E0,-1.8127007E-2,2E0,1E0,-2.9820155E-3,1.551E3,1.5E1,7.7E1,1.704E3,1E0,2.24E2,2.2646504E-2,-8.816174E-3,3E0,1.594E3,-7.077698E-2,-1.49221E-2,4.750544E-2,-1.9328652E-2,1.189E3,2.063E3,1.4E1,3.726E3,1.175E3,-6.1525106E-2,5.37033E-3,-1.1701623E-2,-3.770581E-3,4.929553E-2,-2.797446E-2,3.4480456E-2,-1.153447E-2,6.260338E-2,-1.253893E-3,-4.994099E-2,1.8793946E-2,-1.4885857E-2,-5.908078E-3,-5.0955504E-2,-2.8845742E-2,1.2049827E-2,-2.577616E-2,4.0000577E-2,-4.100554E-2,1.6826794E-2,-4.2939886E-2,2.6907772E-2],"split_indices":[5,3,0,0,2,2,0,13,2,0,3,0,3,13,13,0,3,0,5,0,4,12,0,2,5,1,0,12,2,0,0,4,0,0,0,0,0,0,0,5,2,2,0,0,0,0,0,0,0,0,0,0,0,0,0,0,0,0,0,0,0,0,0,0,0],"split_type":[0,0,0,0,0,0,0,0,0,0,0,0,0,0,0,0,0,0,0,0,0,0,0,0,0,0,0,0,0,0,0,0,0,0,0,0,0,0,0,0,0,0,0,0,0,0,0,0,0,0,0,0,0,0,0,0,0,0,0,0,0,0,0,0,0],"sum_hessian":[3.5490372E2,3.1688788E2,3.8015812E1,2.9803604E2,1.8851852E1,3.624207E1,1.7737451E0,2.9135916E2,6.6768646E0,1.4155732E1,4.6961203E0,2.0459667E1,1.5782401E1,2.6520593E2,2.6153233E1,3.864533E0,2.8123317E0,1.00861E1,4.069632E0,1.1223619E0,3.5737581E0,1.9428505E1,1.031162E0,6.6292634E0,9.153137E0,2.4874222E2,1.6463722E1,2.1820995E1,4.332238E0,1.8040088E0,1.0083227E0,5.2373385E0,4.848761E0,2.962073E0,1.1075591E0,2.4540436E0,1.1197145E0,1.7081383E1,2.3471212E0,3.621265E0,3.0079987E0,4.539956E0,4.613181E0,2.2717365E2,2.1568575E1,6.8267794E0,9.636942E0,2.0306662E1,1.5143346E0,2.6291425E0,1.7030957E0,2.3822496E0,2.8550892E0,3.1101322E0,1.7386287E0,1.0634283E0,1.6017956E1,1.3207166E0,1.0264045E0,1.1254177E0,2.4958472E0,2.0056489E0,1.0023497E0,2.3867855E0,2.1531706E0],"tree_param":{"num_deleted":"0","num_feature":"15","num_nodes":"65","size_leaf_vector":"1"}},{"base_weights":[1.4270579E-2,9.5512375E-2,-6.1302286E-1,2.8428552E-1,1.5271123E-2,-6.674733E-1,1.7963493E-2,3.476563E-1,-1.8352757E-1,-8.3285934E-1,4.5057908E-2,-3.4189174E-1,-8.1087804E-1,2.4419127E-1,8.594406E-1,-5.419926E-1,6.0059335E-2,4.5819297E-3,-1.1221293E0,-3.4102908E-1,9.351407E-2,-5.4124194E-1,4.02647E-2,-4.9894214E-1,-1.0146345E0,2.9601243E-1,-2.2037509E-1,9.378565E-1,-1.1474977E-3,-7.7574545E-1,2.0157771E-2,-6.8753555E-2,-5.676085E-1,-4.808708E-1,4.0955298E-2,1.3470133E-1,-4.5342395E-1,-9.3752915E-1,-2.1221493E-1,-9.4229E-1,-6.520071E-2,-1.1129315E0,-8.133036E-3,1.1468529E-2,3.709301E-2,-3.534394E-2,6.687846E-3,5.2480944E-2,1.0511031E-2,5.339437E-3,-5.6653727E-2,1.158238E-2,-5.5778354E-2,-3.4563266E-2,2.381522E-2,1.049361E-2,-1.0175278E-2,-3.1199336E-2,3.0735476E-2,-1.547833E-2,-5.527524E-2,-4.347268E-2,1.6637531E-3,-5.6245435E-2,-5.7251067E-3,9.824845E-3,-3.1466007E-2,-6.427917E-2,-2.7133254E-2],"categories":[],"categories_nodes":[],"categories_segments":[],"categories_sizes":[],"default_left":[0,0,0,0,0,0,0,0,0,0,0,0,0,0,0,0,0,0,0,0,0,0,0,0,0,0,0,0,0,0,0,0,0,0,0,0,0,0,0,0,0,0,0,0,0,0,0,0,0,0,0,0,0,0,0,0,0,0,0,0,0,0,0,0,0,0,0,0,0],"id":16,"left_children":[1,3,5,7,9,11,-1,13,15,17,19,21,23,25,27,29,-1,-1,31,33,35,37,-1,39,41,43,45,47,-1,49,-1,-1,51,53,-1,55,57,59,61,63,65,67,-1,-1,-1,-1,-1,-1,-1,-1,-1,-1,-1,-1,-1,-1,-1,-1,-1,-1,-1,-1,-1,-1,-1,-1,-1,-1,-1],"loss_changes":[1.7756842E1,4.6660004E0,2.35507E0,2.7885518E0,5.5301247E0,1.5056534E0,0E0,4.094632E0,6.4186263E0,2.0893006E0,3.979116E0,3.5015287E0,1.13233E0,1.7267823E0,9.3997E-1,2.504197E0,0E0,0E0,2.3651123E-2,4.2457714E0,4.301657E0,1.3681505E0,0E0,2.2756925E0,1.0439072E0,1.6873808E0,1.3865869E0,7.726326E-1,0E0,2.7366695E0,0E0,0E0,1.7908026E0,4.7231846E0,0E0,4.512973E0,2.8270435E0,2.0200968E-1,1.2969769E0,7.6852846E-1,1.1892035E0,5.766487E-1,0E0,0E0,0E0,0E0,0E0,0E0,0E0,0E0,0E0,0E0,0E0,0E0,0E0,0E0,0E0,0E0,0E0,0E0,0E0,0E0,0E0,0E0,0E0,0E0,0E0,0E0,0E0],"parents":[2147483647,0,0,1,1,2,2,3,3,4,4,5,5,7,7,8,8,9,9,10,10,11,11,12,12,13,13,14,14,15,15,18,18,19,19,20,20,21,21,23,23,24,24,25,25,26,26,27,27,29,29,32,32,33,33,35,35,36,36,37,37,38,38,39,39,40,40,41,41],"right_children":[2,4,6,8,10,12,-1,14,16,18,20,22,24,26,28,30,-1,-1,32,34,36,38,-1,40,42,44,46,48,-1,50,-1,-1,52,54,-1,56,58,60,62,64,66,68,-1,-1,-1,-1,-1,-1,-1,-1,-1,-1,-1,-1,-1,-1,-1,-1,-1,-1,-1,-1,-1,-1,-1,-1,-1,-1,-1],"split_conditions":[6E0,4.82E2,3.161E3,4E0,5.95E2,1E0,1.7963493E-2,5E0,1.3E2,4E0,8E0,1E-2,1E0,2.7E1,2E0,1.2E1,6.0059335E-2,4.5819297E-3,5.28E2,7E0,3E0,9.8E1,4.02647E-2,1.85E2,1E1,1.3E1,1.29E2,1.8E1,-1.1474977E-3,5E0,2.0157771E-2,-6.8753555E-2,5.6E2,2.052E3,4.0955298E-2,2.353E3,2.393E3,3.5E1,8E0,2.5E-1,4.7E1,1.175E3,-8.133036E-3,1.1468529E-2,3.709301E-2,-3.534394E-2,6.687846E-3,5.2480944E-2,1.0511031E-2,5.339437E-3,-5.6653727E-2,1.158238E-2,-5.5778354E-2,-3.4563266E-2,2.381522E-2,1.049361E-2,-1.0175278E-2,-3.1199336E-2,3.0735476E-2,-1.547833E-2,-5.527524E-2,-4.347268E-2,1.6637531E-3,-5.6245435E-2,-5.7251067E-3,9.824845E-3,-3.1466007E-2,-6.427917E-2,-2.7133254E-2],"split_indices":[5,0,0,3,0,10,0,2,2,2,2,13,3,0,7,1,0,0,0,4,7,2,0,2,3,4,0,2,0,3,0,0,0,0,0,0,0,2,5,13,5,2,0,0,0,0,0,0,0,0,0,0,0,0,0,0,0,0,0,0,0,0,0,0,0,0,0,0,0],"split_type":[0,0,0,0,0,0,0,0,0,0,0,0,0,0,0,0,0,0,0,0,0,0,0,0,0,0,0,0,0,0,0,0,0,0,0,0,0,0,0,0,0,0,0,0,0,0,0,0,0,0,0,0,0,0,0,0,0,0,0,0,0,0,0,0,0,0,0,0,0],"sum_hessian":[3.4628104E2,3.0732642E2,3.8954605E1,9.091043E1,2.1641599E2,3.718564E1,1.7689679E0,8.0290924E1,1.0619503E1,6.428014E0,2.0998798E2,1.2405253E1,2.4780386E1,6.801732E1,1.2273603E1,8.919163E0,1.7003409E0,1.6947746E0,4.733239E0,2.2742594E1,1.8724539E2,1.1018699E1,1.3865547E0,1.1153668E1,1.3626718E1,6.1517975E1,6.4993496E0,1.12141695E1,1.0594343E0,7.2943635E0,1.6247988E0,2.23432E0,2.4989192E0,2.0818636E1,1.9239572E0,1.7483325E2,1.2412128E1,4.1595035E0,6.8591948E0,4.9359393E0,6.217729E0,1.1942542E1,1.6841755E0,5.4835976E1,6.6819983E0,2.3183417E0,4.181008E0,9.337462E0,1.8767067E0,2.3043094E0,4.990054E0,1.2511854E0,1.2477338E0,1.7294893E1,3.5237432E0,1.4335107E2,3.1482183E1,1.1061595E1,1.3505334E0,1.4778003E0,2.6817033E0,1.174107E0,5.6850877E0,3.7497678E0,1.1861715E0,4.6925216E0,1.5252074E0,8.204284E0,3.7382584E0],"tree_param":{"num_deleted":"0","num_feature":"15","num_nodes":"69","size_leaf_vector":"1"}},{"base_weights":[-3.4044083E-2,4.718728E-2,-7.1976733E-1,2.3293369E-1,-7.0088424E-2,-8.613134E-1,-1.6705336E-1,2.9267198E-1,-2.3614438E-1,-9.071162E-2,4.8993643E-2,-9.084378E-1,2.464966E-3,1.3165252E-1,-4.0021155E-2,1.9133346E-1,9.789226E-1,-3.8895573E-2,-7.035867E-2,1.8559176E-1,-1.7209764E-1,-4.7430556E-2,-1.1138081E-2,-3.1798142E-1,3.519131E-2,2.2308613E-1,-3.3570418E-1,1.0484427E0,1.5491611E-2,3.6455162E-2,-2.4261652E-1,-3.4506506E-1,3.131934E-1,-4.7778633E-1,-6.706073E-2,7.083017E-2,-3.327829E-2,1.3325567E-2,-5.038404E-3,-4.068874E-2,1.0974044E-2,5.6658257E-2,1.5047207E-2,-4.0731087E-2,4.5713927E-3,-3.1548955E-2,3.5362367E-2,2.5340417E-2,-4.0395795E-3,-3.188682E-2,3.2603573E-2,-8.577779E-4,-3.619406E-2,-1.8158611E-3,7.1366965E-3],"categories":[],"categories_nodes":[],"categories_segments":[],"categories_sizes":[],"default_left":[0,0,0,0,0,0,0,0,0,0,0,0,0,0,0,0,0,0,0,0,0,0,0,0,0,0,0,0,0,0,0,0,0,0,0,0,0,0,0,0,0,0,0,0,0,0,0,0,0,0,0,0,0,0,0],"id":17,"left_children":[1,3,5,7,9,11,13,15,17,19,-1,21,-1,23,-1,25,27,-1,29,31,33,-1,-1,35,-1,37,39,41,-1,-1,43,45,47,49,51,53,-1,-1,-1,-1,-1,-1,-1,-1,-1,-1,-1,-1,-1,-1,-1,-1,-1,-1,-1],"loss_changes":[1.9495201E1,6.841415E0,2.7559414E0,3.4735007E0,4.2642093E0,1.3007431E0,1.7698095E0,7.338187E0,1.2276521E0,4.305069E0,0E0,5.56654E-1,0E0,1.9827398E0,0E0,1.6736019E0,3.1151962E-1,0E0,1.8338295E0,3.0683324E0,4.697771E0,0E0,0E0,6.576244E-1,0E0,1.3024669E0,1.7253888E0,4.1726494E-1,0E0,0E0,2.109276E0,3.139173E0,2.769344E0,7.1943645E0,3.6194165E0,2.8573865E-2,0E0,0E0,0E0,0E0,0E0,0E0,0E0,0E0,0E0,0E0,0E0,0E0,0E0,0E0,0E0,0E0,0E0,0E0,0E0],"parents":[2147483647,0,0,1,1,2,2,3,3,4,4,5,5,6,6,7,7,8,8,9,9,11,11,13,13,15,15,16,16,18,18,19,19,20,20,23,23,25,25,26,26,27,27,30,30,31,31,32,32,33,33,34,34,35,35],"right_children":[2,4,6,8,10,12,14,16,18,20,-1,22,-1,24,-1,26,28,-1,30,32,34,-1,-1,36,-1,38,40,42,-1,-1,44,46,48,50,52,54,-1,-1,-1,-1,-1,-1,-1,-1,-1,-1,-1,-1,-1,-1,-1,-1,-1,-1,-1],"split_conditions":[6E0,1E0,2.467E3,2.278E3,3.726E3,8E0,4.7E1,2.007E3,2.37E3,6.93E2,4.8993643E-2,4E1,2.464966E-3,1.043E3,-4.0021155E-2,4E0,1E2,-3.8895573E-2,1E1,1.49E2,2.7E1,-4.7430556E-2,-1.1138081E-2,1E0,3.519131E-2,1.727E3,1.078E3,2.208E3,1.5491611E-2,3.6455162E-2,5.4E1,2.2E1,2.1E1,8E0,1.2E1,2.582E3,-3.327829E-2,1.3325567E-2,-5.038404E-3,-4.068874E-2,1.0974044E-2,5.6658257E-2,1.5047207E-2,-4.0731087E-2,4.5713927E-3,-3.1548955E-2,3.5362367E-2,2.5340417E-2,-4.0395795E-3,-3.188682E-2,3.2603573E-2,-8.577779E-4,-3.619406E-2,-1.8158611E-3,7.1366965E-3],"split_indices":[5,10,0,0,2,3,5,0,0,0,0,5,0,2,0,3,14,0,2,0,2,0,0,3,0,0,0,0,0,0,2,2,2,4,3,0,0,0,0,0,0,0,0,0,0,0,0,0,0,0,0,0,0,0,0],"split_type":[0,0,0,0,0,0,0,0,0,0,0,0,0,0,0,0,0,0,0,0,0,0,0,0,0,0,0,0,0,0,0,0,0,0,0,0,0,0,0,0,0,0,0,0,0,0,0,0,0,0,0,0,0,0,0],"sum_hessian":[3.4837985E2,3.1231406E2,3.6065804E1,1.2049019E2,1.9182385E2,2.8268188E1,7.7976136E0,1.0721247E2,1.3277714E1,1.8902466E2,2.7991931E0,2.6879555E1,1.3886336E0,5.8369617E0,1.9606519E0,9.453179E1,1.2680684E1,2.2459517E0,1.1031762E1,4.2717957E1,1.463067E2,2.5029617E1,1.8499371E0,3.517245E0,2.3197167E0,8.970406E1,4.8277245E0,1.097354E1,1.7071434E0,1.3825613E0,9.6492E0,7.9504013E0,3.4767555E1,3.650821E1,1.097985E2,2.0359883E0,1.4812566E0,7.925405E1,1.0450016E1,2.3437479E0,2.4839766E0,9.392983E0,1.5805564E0,3.027079E0,6.6221213E0,6.5666313E0,1.3837701E0,2.3119593E1,1.1647961E1,3.2362343E1,4.1458645E0,1.0299878E2,6.7997212E0,1.0163676E0,1.0196208E0],"tree_param":{"num_deleted":"0","num_feature":"15","num_nodes":"55","size_leaf_vector":"1"}},{"base_weights":[-8.710957E-5,6.587748E-2,-5.889178E-1,2.201325E-1,-2.9587526E-2,-6.408678E-1,2.5890673E-2,2.5689235E-1,-3.4816355E-1,2.141422E-2,-3.0372816E-1,-7.2661114E-1,-1.7455254E-1,1.05915196E-1,5.376979E-1,-7.579041E-3,-3.3817064E-2,1.9872824E-3,8.7023807E-1,-5.32591E-1,1.5691495E-1,-7.806427E-1,2.3484274E-3,1.5223818E-1,-4.2678535E-2,1.5165277E-1,-7.127298E-1,6.8507E-1,-2.1343397E-2,2.373364E-1,-1.8467793E-2,-6.233133E-1,2.5431916E-2,5.923515E-2,1.828442E-3,-8.8360447E-1,-2.8185365E-1,-1.358683E-1,5.652941E-2,-4.097784E-2,-2.3558124E-3,5.890998E-1,-2.2276672E-2,-5.6224903E-3,1.6004933E-2,-4.818813E-2,7.353859E-4,6.25908E-2,2.7044926E-2,-1.4806273E-2,1.199693E-2,-7.918102E-3,2.7367372E-2,-3.892266E-2,2.397484E-3,2.179539E-2,-1.8437477E-3,-5.6373924E-2,7.4398504E-3,-3.225224E-2,2.0139074E-2,3.840012E-2,-2.0630071E-2,9.653443E-3,3.543337E-2],"categories":[],"categories_nodes":[],"categories_segments":[],"categories_sizes":[],"default_left":[0,0,0,0,0,0,0,0,0,0,0,0,0,0,0,0,0,0,0,0,0,0,0,0,0,0,0,0,0,0,0,0,0,0,0,0,0,0,0,0,0,0,0,0,0,0,0,0,0,0,0,0,0,0,0,0,0,0,0,0,0,0,0,0,0],"id":18,"left_children":[1,3,5,7,9,11,-1,13,15,17,19,21,23,25,27,29,-1,31,33,35,37,39,-1,41,-1,43,45,47,49,51,-1,53,55,-1,-1,57,59,61,-1,-1,-1,63,-1,-1,-1,-1,-1,-1,-1,-1,-1,-1,-1,-1,-1,-1,-1,-1,-1,-1,-1,-1,-1,-1,-1],"loss_changes":[1.3778166E1,4.7039413E0,2.3864317E0,2.6394248E0,2.7738252E0,1.2557869E0,0E0,4.827994E0,8.712282E-1,2.765513E0,3.3635635E0,1.2443209E0,1.6137636E0,2.9604833E0,3.3137207E0,5.1818067E-1,0E0,2.435628E0,9.404285E-1,1.6003556E0,3.3177545E0,7.3389435E-1,0E0,1.6629741E0,0E0,3.2823715E0,7.8230906E-1,1.9147043E0,7.4045616E-1,5.1678747E-1,0E0,6.6260433E-1,4.1095843E0,0E0,0E0,2.2543101E0,3.6727586E0,2.6746306E0,0E0,0E0,0E0,3.0292392E-2,0E0,0E0,0E0,0E0,0E0,0E0,0E0,0E0,0E0,0E0,0E0,0E0,0E0,0E0,0E0,0E0,0E0,0E0,0E0,0E0,0E0,0E0,0E0],"parents":[2147483647,0,0,1,1,2,2,3,3,4,4,5,5,7,7,8,8,9,9,10,10,11,11,12,12,13,13,14,14,15,15,17,17,18,18,19,19,20,20,21,21,23,23,25,25,26,26,27,27,28,28,29,29,31,31,32,32,35,35,36,36,37,37,41,41],"right_children":[2,4,6,8,10,12,-1,14,16,18,20,22,24,26,28,30,-1,32,34,36,38,40,-1,42,-1,44,46,48,50,52,-1,54,56,-1,-1,58,60,62,-1,-1,-1,64,-1,-1,-1,-1,-1,-1,-1,-1,-1,-1,-1,-1,-1,-1,-1,-1,-1,-1,-1,-1,-1,-1,-1],"split_conditions":[6E0,1E0,3.077E3,2.467E3,9.3E-1,2.9E1,2.5890673E-2,1.499E3,1E0,5.5E-1,6.7E1,8E0,6.1E1,4E0,3E0,3E0,-3.3817064E-2,1.29E2,3E0,5.29E0,2.5313E2,9.2E1,2.3484274E-3,1E0,-4.2678535E-2,2E0,7.89E2,1.724E3,2.069E3,2.582E3,-1.8467793E-2,9E0,4.82E2,5.923515E-2,1.828442E-3,4E0,4E0,2.59E0,5.652941E-2,-4.097784E-2,-2.3558124E-3,1E0,-2.2276672E-2,-5.6224903E-3,1.6004933E-2,-4.818813E-2,7.353859E-4,6.25908E-2,2.7044926E-2,-1.4806273E-2,1.199693E-2,-7.918102E-3,2.7367372E-2,-3.892266E-2,2.397484E-3,2.179539E-2,-1.8437477E-3,-5.6373924E-2,7.4398504E-3,-3.225224E-2,2.0139074E-2,3.840012E-2,-2.0630071E-2,9.653443E-3,3.543337E-2],"split_indices":[5,10,0,0,13,5,0,0,3,13,1,3,5,3,5,5,0,0,3,13,13,1,0,3,0,6,0,0,0,0,0,4,0,0,0,6,3,13,0,0,0,10,0,0,0,0,0,0,0,0,0,0,0,0,0,0,0,0,0,0,0,0,0,0,0],"split_type":[0,0,0,0,0,0,0,0,0,0,0,0,0,0,0,0,0,0,0,0,0,0,0,0,0,0,0,0,0,0,0,0,0,0,0,0,0,0,0,0,0,0,0,0,0,0,0,0,0,0,0,0,0,0,0,0,0,0,0,0,0,0,0,0,0],"sum_hessian":[3.527248E2,3.179897E2,3.4735123E1,1.2106445E2,1.9692522E2,3.357982E1,1.1553024E0,1.14223915E2,6.840536E0,1.6681287E2,3.0112358E1,2.7892849E1,5.6869707E0,7.5180016E1,3.90439E1,3.8588727E0,2.9816637E0,1.6406036E2,2.7524903E0,2.001303E1,1.0099329E1,2.60633E1,1.8295493E0,4.3629923E0,1.3239784E0,7.197361E1,3.2064037E0,3.072015E1,8.3237505E0,2.5061984E0,1.3526745E0,5.0042243E0,1.5905614E2,1.692862E0,1.0596282E0,7.287313E0,1.2725717E1,8.42607E0,1.6732588E0,2.4638905E1,1.4243951E0,2.529152E0,1.8338404E0,2.8157898E1,4.3815716E1,2.1422553E0,1.0641483E0,4.671884E0,2.6048265E1,3.9920652E0,4.3316855E0,1.3158363E0,1.190362E0,3.935079E0,1.0691454E0,2.01714E1,1.3888475E2,5.8203387E0,1.466974E0,8.35259E0,4.3731275E0,1.5589509E0,6.8671193E0,1.192868E0,1.3362839E0],"tree_param":{"num_deleted":"0","num_feature":"15","num_nodes":"65","size_leaf_vector":"1"}},{"base_weights":[4.8606474E-2,6.57158E-2,-8.316836E-1,3.4376044E-2,5.9075916E-1,-7.4181133E-3,-9.7016805E-1,6.196762E-2,-6.187369E-1,7.736297E-1,-3.387072E-1,-5.5122312E-2,-1.0692811E-2,4.079168E-2,7.0914054E-1,-9.1494715E-1,1.0442708E-2,5.0452405E-1,1.0580968E0,3.0596692E-3,-2.5472889E-2,8.2613155E-2,-3.260749E-1,6.2174838E-2,1.451853E-1,-1.3607033E-2,-9.996378E-1,3.107481E-2,-3.6236683E-1,8.392434E-1,-3.554018E-1,1.9102622E-2,6.0644712E-2,1.1866351E-3,2.852583E-2,-3.982255E-2,-6.518571E-3,-2.9163072E-2,2.462442E-2,-2.430196E-2,-5.7574667E-2,-4.1105017E-2,9.123447E-3,4.8262373E-2,7.8625465E-3,-4.4360425E-2,1.3241167E-2],"categories":[],"categories_nodes":[],"categories_segments":[],"categories_sizes":[],"default_left":[0,0,0,0,0,0,0,0,0,0,0,0,0,0,0,0,0,0,0,0,0,0,0,0,0,0,0,0,0,0,0,0,0,0,0,0,0,0,0,0,0,0,0,0,0,0,0],"id":19,"left_children":[1,3,5,7,9,-1,11,13,15,17,19,-1,-1,21,23,25,27,29,31,-1,-1,33,35,-1,37,-1,39,-1,41,43,45,-1,-1,-1,-1,-1,-1,-1,-1,-1,-1,-1,-1,-1,-1,-1,-1],"loss_changes":[5.3040667E0,5.6207213E0,4.9181175E-1,5.8872747E0,3.5337458E0,0E0,3.050351E-1,4.251335E0,2.4784293E0,7.2073364E-1,2.9474854E-1,0E0,0E0,4.683367E0,2.7831712E0,2.1890402E-1,1.4164206E0,3.272469E0,2.7496672E-1,0E0,0E0,7.835863E0,2.773659E0,0E0,1.7842038E0,0E0,3.2626152E-2,0E0,1.1216979E0,5.1294565E-1,1.4216015E0,0E0,0E0,0E0,0E0,0E0,0E0,0E0,0E0,0E0,0E0,0E0,0E0,0E0,0E0,0E0,0E0],"parents":[2147483647,0,0,1,1,2,2,3,3,4,4,6,6,7,7,8,8,9,9,10,10,13,13,14,14,15,15,16,16,17,17,18,18,21,21,22,22,24,24,26,26,28,28,29,29,30,30],"right_children":[2,4,6,8,10,-1,12,14,16,18,20,-1,-1,22,24,26,28,30,32,-1,-1,34,36,-1,38,-1,40,-1,42,44,46,-1,-1,-1,-1,-1,-1,-1,-1,-1,-1,-1,-1,-1,-1,-1,-1],"split_conditions":[6.1E1,1.3E1,4.4E2,1.5E1,8E0,-7.4181133E-3,1.55E2,2.996E3,2.9E1,1.9E1,5.05E2,-5.5122312E-2,-1.0692811E-2,2.353E3,3.077E3,1.771E3,3.4E1,4.15E2,4.5E1,3.0596692E-3,-2.5472889E-2,2.071E3,2.409E3,6.2174838E-2,3.75E2,-1.3607033E-2,1.9E1,3.107481E-2,3.9E1,1.7E1,2E0,1.9102622E-2,6.0644712E-2,1.1866351E-3,2.852583E-2,-3.982255E-2,-6.518571E-3,-2.9163072E-2,2.462442E-2,-2.430196E-2,-5.7574667E-2,-4.1105017E-2,9.123447E-3,4.8262373E-2,7.8625465E-3,-4.4360425E-2,1.3241167E-2],"split_indices":[6,4,0,6,3,0,6,0,6,4,0,0,0,0,0,0,6,0,0,0,0,0,0,0,2,0,6,0,6,4,3,0,0,0,0,0,0,0,0,0,0,0,0,0,0,0,0],"split_type":[0,0,0,0,0,0,0,0,0,0,0,0,0,0,0,0,0,0,0,0,0,0,0,0,0,0,0,0,0,0,0,0,0,0,0,0,0,0,0,0,0,0,0,0,0,0,0],"sum_hessian":[3.4753943E2,3.4182114E2,5.7182918E0,3.235726E2,1.8248526E1,1.3126477E0,4.405644E0,3.113254E2,1.2247211E1,1.5388528E1,2.8599975E0,3.3602743E0,1.0453696E0,3.0249072E2,8.834673E0,8.018166E0,4.229046E0,9.333046E0,6.0554814E0,1.0477564E0,1.812241E0,2.7223206E2,3.0258669E1,3.917667E0,4.9170065E0,1.4239162E0,6.5942492E0,1.3497223E0,2.8793235E0,6.735397E0,2.597649E0,1.7743729E0,4.2811084E0,2.4385245E2,2.8379608E1,7.988504E0,2.2270164E1,1.3680999E0,3.5489063E0,2.4633827E0,4.1308665E0,1.2856196E0,1.593704E0,5.334472E0,1.4009247E0,1.1667594E0,1.4308896E0],"tree_param":{"num_deleted":"0","num_feature":"15","num_nodes":"47","size_leaf_vector":"1"}},{"base_weights":[1.3759826E-2,9.666652E-2,-4.5085126E-1,7.055719E-2,8.196653E-1,-5.00965E-1,3.4340885E-2,8.694997E-2,-9.4534796E-1,1.0247586E0,1.4646372E-1,-7.644323E-2,-5.931725E-1,7.26785E-2,4.4988707E-2,-6.144605E-2,-4.350214E-1,5.9744496E-2,5.227258E-1,-2.4709199E-2,4.2636476E-2,-6.3995713E-1,8.591796E-1,-4.609197E-1,-9.227069E-1,9.3774326E-2,-7.506395E-1,4.7720405E-3,-3.679434E-2,5.2948114E-2,-1.4237686E-2,-8.2961845E-1,1.2934253E-2,2.435689E-3,5.822918E-2,-5.6793153E-1,1.476651E-1,-9.9542254E-1,-9.703825E-3,5.3735473E-3,-2.1462077E-2,-6.8020667E-3,-6.004111E-2,-5.5691507E-3,-4.7902334E-2,-2.061338E-2,-5.19885E-2,-1.3044742E-2,3.0469293E-2,-5.653576E-2,-2.0928554E-2],"categories":[],"categories_nodes":[],"categories_segments":[],"categories_sizes":[],"default_left":[0,0,0,0,0,0,0,0,0,0,0,0,0,0,0,0,0,0,0,0,0,0,0,0,0,0,0,0,0,0,0,0,0,0,0,0,0,0,0,0,0,0,0,0,0,0,0,0,0,0,0],"id":20,"left_children":[1,3,5,7,9,11,-1,13,15,17,19,21,23,25,-1,-1,27,-1,29,-1,-1,31,33,35,37,39,41,-1,-1,-1,-1,43,-1,-1,-1,45,47,49,-1,-1,-1,-1,-1,-1,-1,-1,-1,-1,-1,-1,-1],"loss_changes":[1.3719715E1,5.6450453E0,3.419263E0,4.9562073E0,1.2907195E0,1.9995842E0,0E0,3.286365E0,1.5015793E-1,4.4329643E-2,2.0519016E0,6.0700426E0,1.4387484E0,5.0211654E0,0E0,0E0,5.8702934E-1,0E0,1.9296201E0,0E0,0E0,1.4260077E0,1.0230737E0,2.2017403E0,4.0293217E-1,2.0433989E0,1.8376555E0,0E0,0E0,0E0,0E0,4.565735E-1,0E0,0E0,0E0,1.6178312E0,1.226074E0,3.0622292E-1,0E0,0E0,0E0,0E0,0E0,0E0,0E0,0E0,0E0,0E0,0E0,0E0,0E0],"parents":[2147483647,0,0,1,1,2,2,3,3,4,4,5,5,7,7,8,8,9,9,10,10,11,11,12,12,13,13,16,16,18,18,21,21,22,22,23,23,24,24,25,25,26,26,31,31,35,35,36,36,37,37],"right_children":[2,4,6,8,10,12,-1,14,16,18,20,22,24,26,-1,-1,28,-1,30,-1,-1,32,34,36,38,40,42,-1,-1,-1,-1,44,-1,-1,-1,46,48,50,-1,-1,-1,-1,-1,-1,-1,-1,-1,-1,-1,-1,-1],"split_conditions":[4E0,1.551E3,3.181E3,1.175E3,4.588E3,1.807E3,3.4340885E-2,9.29E2,1E0,2E0,1.1E1,1.724E3,1.7E1,6.99E2,4.4988707E-2,-6.144605E-2,2E0,5.9744496E-2,2.442E3,-2.4709199E-2,4.2636476E-2,1E0,6.3E1,1.175E3,3.726E3,3E0,4E0,4.7720405E-3,-3.679434E-2,5.2948114E-2,-1.4237686E-2,1.189E3,1.2934253E-2,2.435689E-3,5.822918E-2,2E0,9E0,2.704E3,-9.703825E-3,5.3735473E-3,-2.1462077E-2,-6.8020667E-3,-6.004111E-2,-5.5691507E-3,-4.7902334E-2,-2.061338E-2,-5.19885E-2,-1.3044742E-2,3.0469293E-2,-5.653576E-2,-2.0928554E-2],"split_indices":[5,2,0,2,2,0,0,2,3,7,3,0,5,2,0,0,6,0,2,0,0,8,2,2,2,7,3,0,0,0,0,0,0,0,0,3,5,0,0,0,0,0,0,0,0,0,0,0,0,0,0],"split_type":[0,0,0,0,0,0,0,0,0,0,0,0,0,0,0,0,0,0,0,0,0,0,0,0,0,0,0,0,0,0,0,0,0,0,0,0,0,0,0,0,0,0,0,0,0,0,0,0,0,0,0],"sum_hessian":[3.540456E2,3.0110703E2,5.2938564E1,2.916716E2,9.435417E0,5.1241077E1,1.6974862E0,2.879398E2,3.7318234E0,6.8318515E0,2.6035652E0,9.470073E0,4.1771008E1,2.8404202E2,3.8977628E0,1.4937079E0,2.2381155E0,4.0718575E0,2.7599943E0,1.5226598E0,1.0809056E0,6.107569E0,3.362503E0,3.1519794E1,1.0251211E1,2.778098E2,6.2322035E0,1.0570995E0,1.181016E0,1.4714094E0,1.2885847E0,5.1066117E0,1.0009576E0,1.2376351E0,2.124868E0,2.6863068E1,4.656727E0,8.988068E0,1.2631439E0,2.714945E2,6.3153186E0,3.1854954E0,3.046708E0,1.0578514E0,4.0487604E0,2.1608099E1,5.2549686E0,2.7013507E0,1.9553761E0,6.5027785E0,2.4852889E0],"tree_param":{"num_deleted":"0","num_feature":"15","num_nodes":"51","size_leaf_vector":"1"}},{"base_weights":[-3.979725E-2,3.9560966E-2,-6.057745E-1,1.4991278E-2,6.00873E-1,-1.5680514E-1,-6.804417E-1,-5.5424996E-2,2.3764499E-1,5.510008E-2,1.19169675E-1,-5.1765335E-1,4.188971E-2,-7.3960644E-1,6.402192E-2,-2.742477E-2,-5.3558594E-1,2.9195073E-1,-5.159219E-2,-4.132345E-1,5.189104E-1,1.3071231E-2,-7.2387403E-1,-5.855546E-1,-1.034651E0,3.203529E-2,-2.3074634E-2,-6.4585425E-2,3.8012078E-1,-9.967492E-1,-6.117027E-2,2.1988553E-1,8.052343E-1,-3.5997044E-2,6.5403837E-3,4.4149708E-2,-1.378776E-2,-5.2170526E-2,8.087077E-3,-6.9379705E-1,-2.99634E-2,-5.9959717E-2,-4.4999743E-1,-8.233585E-3,7.2395853E-3,3.434457E-2,-2.1693042E-2,-1.1520164E-2,-6.430508E-2,2.4096385E-2,-3.7624054E-2,7.283509E-3,4.7225E-2,5.788778E-2,-2.711892E-2,-2.3882912E-2,-4.9861513E-2,-2.1405384E-2,3.1485457E-2,1.2353042E-2,-4.1830655E-2],"categories":[],"categories_nodes":[],"categories_segments":[],"categories_sizes":[],"default_left":[0,0,0,0,0,0,0,0,0,0,0,0,0,0,0,0,0,0,0,0,0,0,0,0,0,0,0,0,0,0,0,0,0,0,0,0,0,0,0,0,0,0,0,0,0,0,0,0,0,0,0,0,0,0,0,0,0,0,0,0,0],"id":21,"left_children":[1,3,5,7,9,11,13,15,17,-1,19,21,-1,23,25,27,29,31,-1,33,35,-1,37,39,41,-1,-1,43,45,47,49,51,53,-1,-1,-1,-1,-1,-1,55,57,-1,59,-1,-1,-1,-1,-1,-1,-1,-1,-1,-1,-1,-1,-1,-1,-1,-1,-1,-1],"loss_changes":[1.5763896E1,4.242605E0,1.3400145E0,4.659957E0,2.983316E0,3.108614E0,1.6639404E0,3.0235217E0,5.223659E0,0E0,1.8531923E0,1.1671962E0,0E0,9.43161E-1,1.3934805E0,3.2743206E0,2.6514482E0,2.3845358E0,0E0,7.3805577E-1,1.6441987E0,0E0,1.6058736E0,1.4642391E0,4.5954895E-1,0E0,0E0,4.1627307E0,4.81174E0,1.0832148E0,3.057037E0,3.2020514E0,4.499801E0,0E0,0E0,0E0,0E0,0E0,0E0,8.761234E-1,1.601604E0,0E0,1.2528076E0,0E0,0E0,0E0,0E0,0E0,0E0,0E0,0E0,0E0,0E0,0E0,0E0,0E0,0E0,0E0,0E0,0E0,0E0],"parents":[2147483647,0,0,1,1,2,2,3,3,4,4,5,5,6,6,7,7,8,8,10,10,11,11,13,13,14,14,15,15,16,16,17,17,19,19,20,20,22,22,23,23,24,24,27,27,28,28,29,29,30,30,31,31,32,32,39,39,40,40,42,42],"right_children":[2,4,6,8,10,12,14,16,18,-1,20,22,-1,24,26,28,30,32,-1,34,36,-1,38,40,42,-1,-1,44,46,48,50,52,54,-1,-1,-1,-1,-1,-1,56,58,-1,60,-1,-1,-1,-1,-1,-1,-1,-1,-1,-1,-1,-1,-1,-1,-1,-1,-1,-1],"split_conditions":[5E0,1.415E3,6E1,4E0,2.678E3,3.08E2,3.33E3,6.76E2,7E1,5.510008E-2,3.726E3,1.313E3,4.188971E-2,1.9E1,4.225E3,1E0,8.92E2,1.8E1,-5.159219E-2,2E0,2E0,1.3071231E-2,1.724E3,1.175E3,2.704E3,3.203529E-2,-2.3074634E-2,5.6E1,8.5E1,2E0,1.175E3,2.46E2,1.085E3,-3.5997044E-2,6.5403837E-3,4.4149708E-2,-1.378776E-2,-5.2170526E-2,8.087077E-3,1E0,4E0,-5.9959717E-2,3.008E3,-8.233585E-3,7.2395853E-3,3.434457E-2,-2.1693042E-2,-1.1520164E-2,-6.430508E-2,2.4096385E-2,-3.7624054E-2,7.283509E-3,4.7225E-2,5.788778E-2,-2.711892E-2,-2.3882912E-2,-4.9861513E-2,-2.1405384E-2,3.1485457E-2,1.2353042E-2,-4.1830655E-2],"split_indices":[5,2,1,6,2,2,2,2,6,0,2,0,0,5,2,12,2,6,0,6,5,0,0,2,0,0,0,2,2,3,2,2,0,0,0,0,0,0,0,3,3,0,0,0,0,0,0,0,0,0,0,0,0,0,0,0,0,0,0,0,0],"split_type":[0,0,0,0,0,0,0,0,0,0,0,0,0,0,0,0,0,0,0,0,0,0,0,0,0,0,0,0,0,0,0,0,0,0,0,0,0,0,0,0,0,0,0,0,0,0,0,0,0,0,0,0,0,0,0,0,0,0,0,0,0],"sum_hessian":[3.4943863E2,3.0728317E2,4.2155453E1,2.9538052E2,1.1902657E1,6.4531384E0,3.5702312E1,2.2497969E2,7.040082E1,5.2025685E0,6.7000875E0,5.0870523E0,1.3660858E0,3.307988E1,2.6224334E0,2.1358194E2,1.1397756E1,6.825122E1,2.1496024E0,2.8587873E0,3.8413002E0,1.0086803E0,4.078372E0,2.369344E1,9.386439E0,1.1458334E0,1.4766E0,1.9650575E2,1.7076181E1,5.2213016E0,6.1764536E0,6.1101E1,7.150215E0,1.6213981E0,1.2373893E0,2.5581207E0,1.2831795E0,2.8660905E0,1.2122817E0,1.9621874E1,4.0715656E0,6.504666E0,2.8817735E0,1.3309656E2,6.3409195E1,1.2515512E1,4.560669E0,1.9234204E0,3.2978814E0,3.628646E0,2.547808E0,5.651386E1,4.587144E0,5.779296E0,1.3709192E0,1.2962629E1,6.659245E0,2.7580059E0,1.3135598E0,1.1568918E0,1.7248815E0],"tree_param":{"num_deleted":"0","num_feature":"15","num_nodes":"61","size_leaf_vector":"1"}},{"base_weights":[3.0544957E-2,2.0561983E-1,-8.0215834E-2,1.6127577E-1,8.120275E-1,2.6678035E-1,-1.65489E-1,2.0946717E-1,-4.2687723E-1,-7.4108653E-3,4.7603164E-2,4.2152902E-1,-9.573514E-2,-1.9382796E-1,6.2784994E-1,1.677744E-1,7.334281E-1,-5.2730437E-2,-1.9292149E-1,-1.8727078E-1,5.722527E-1,-5.7375777E-1,7.8232276E-1,-2.437653E-1,2.980572E-1,4.745717E-2,-1.1571686E-3,1.2431355E-1,5.4422885E-1,4.1236795E-2,9.8199565E-3,3.834832E-2,-4.8656154E-1,2.8899878E-1,-3.2001235E-2,3.292352E-1,6.171074E-2,-9.7455543E-1,2.1959884E-1,9.3489635E-1,4.75389E-3,-6.751805E-1,-1.35007E-1,-3.6552798E-2,5.029488E-1,1.0398519E-2,-2.1003164E-2,-1.9790908E-2,4.0766295E-2,-3.8328175E-2,6.2440266E-3,2.7846783E-2,4.0566243E-4,5.652581E-3,3.518908E-2,-5.74221E-2,-8.67068E-3,5.7234474E-2,-4.1332345E-2,9.123973E-3,5.9919804E-2,-3.974277E-2,1.0643934E-2,1.0215226E-2,-1.24277E-2,5.6957312E-2,7.752631E-3],"categories":[],"categories_nodes":[],"categories_segments":[],"categories_sizes":[],"default_left":[0,0,0,0,0,0,0,0,0,0,0,0,0,0,0,0,0,0,0,0,0,0,0,0,0,0,0,0,0,0,0,0,0,0,0,0,0,0,0,0,0,0,0,0,0,0,0,0,0,0,0,0,0,0,0,0,0,0,0,0,0,0,0,0,0,0,0],"id":22,"left_children":[1,3,5,7,9,11,13,15,17,-1,-1,19,21,23,25,27,29,-1,31,33,35,37,39,41,43,-1,-1,45,47,-1,-1,-1,49,51,-1,53,-1,55,57,59,-1,61,63,-1,65,-1,-1,-1,-1,-1,-1,-1,-1,-1,-1,-1,-1,-1,-1,-1,-1,-1,-1,-1,-1,-1,-1],"loss_changes":[6.7419715E0,3.4905424E0,6.3511944E0,3.681901E0,1.3418283E0,2.4206812E0,3.982389E0,2.4507375E0,1.2545645E0,0E0,0E0,2.8528323E0,6.118972E0,4.164E0,1.310055E0,1.7391076E0,2.4930096E-1,0E0,2.756669E0,1.6278362E0,3.4916143E0,3.1787717E0,4.5479035E-1,7.029475E0,3.6994724E0,0E0,0E0,4.6549907E0,3.1600144E0,0E0,0E0,0E0,1.3090951E0,2.927492E-1,0E0,1.4659898E0,0E0,6.894007E-1,4.764996E0,6.001041E-1,0E0,3.3900375E0,4.768724E0,0E0,2.871101E0,0E0,0E0,0E0,0E0,0E0,0E0,0E0,0E0,0E0,0E0,0E0,0E0,0E0,0E0,0E0,0E0,0E0,0E0,0E0,0E0,0E0,0E0],"parents":[2147483647,0,0,1,1,2,2,3,3,4,4,5,5,6,6,7,7,8,8,11,11,12,12,13,13,14,14,15,15,16,16,18,18,19,19,20,20,21,21,22,22,23,23,24,24,27,27,28,28,32,32,33,33,35,35,37,37,38,38,39,39,41,41,42,42,44,44],"right_children":[2,4,6,8,10,12,14,16,18,-1,-1,20,22,24,26,28,30,-1,32,34,36,38,40,42,44,-1,-1,46,48,-1,-1,-1,50,52,-1,54,-1,56,58,60,-1,62,64,-1,66,-1,-1,-1,-1,-1,-1,-1,-1,-1,-1,-1,-1,-1,-1,-1,-1,-1,-1,-1,-1,-1,-1],"split_conditions":[1E0,1E2,2.4E1,4E0,8E0,2.1E1,3.33E3,1.3E1,3.2E1,-7.4108653E-3,4.7603164E-2,5E0,6.2E1,5E0,5.437E3,1.3E2,2.2E1,-5.2730437E-2,1.01E2,2E0,3E0,5E0,1.1E1,2.7E1,8.57E2,4.745717E-2,-1.1571686E-3,4.2E1,1.824E3,4.1236795E-2,9.8199565E-3,3.834832E-2,1.351E3,2E0,-3.2001235E-2,6.31E2,6.171074E-2,4.1E1,3E0,3E0,4.75389E-3,2E0,7.9E1,-3.6552798E-2,2E0,1.0398519E-2,-2.1003164E-2,-1.9790908E-2,4.0766295E-2,-3.8328175E-2,6.2440266E-3,2.7846783E-2,4.0566243E-4,5.652581E-3,3.518908E-2,-5.74221E-2,-8.67068E-3,5.7234474E-2,-4.1332345E-2,9.123973E-3,5.9919804E-2,-3.974277E-2,1.0643934E-2,1.0215226E-2,-1.24277E-2,5.6957312E-2,7.752631E-3],"split_indices":[10,14,1,3,2,2,2,4,2,0,0,1,2,4,2,2,4,0,2,3,3,3,3,2,0,0,0,2,0,0,0,0,2,4,0,0,0,2,4,4,0,3,2,0,3,0,0,0,0,0,0,0,0,0,0,0,0,0,0,0,0,0,0,0,0,0,0],"split_type":[0,0,0,0,0,0,0,0,0,0,0,0,0,0,0,0,0,0,0,0,0,0,0,0,0,0,0,0,0,0,0,0,0,0,0,0,0,0,0,0,0,0,0,0,0,0,0,0,0,0,0,0,0,0,0,0,0,0,0,0,0,0,0,0,0,0,0],"sum_hessian":[3.4582727E2,1.3367557E2,2.1215172E2,1.2574623E2,7.9293404E0,4.1430977E1,1.7072073E2,1.1681836E2,8.927872E0,1.0017531E0,6.9275875E0,2.8922083E1,1.2508892E1,1.6556235E2,5.1583915E0,1.0943089E2,7.3874655E0,1.4716172E0,7.456254E0,5.691325E0,2.3230759E1,8.323865E0,4.1850266E0,1.5076114E2,1.48012E1,3.147146E0,2.0112453E0,9.929744E1,1.01334505E1,5.8560576E0,1.5314077E0,1.3690388E0,6.0872154E0,2.9498985E0,2.741427E0,1.808779E1,5.1429696E0,5.3783627E0,2.9455028E0,3.1298275E0,1.0551993E0,2.930559E1,1.2145556E2,2.0311735E0,1.2770026E1,8.660624E1,1.2691204E1,2.1652482E0,7.968202E0,4.001214E0,2.0860014E0,1.0067623E0,1.9431362E0,1.2293797E1,5.793992E0,4.06299E0,1.3153722E0,1.5133268E0,1.432176E0,1.2507799E0,1.8790476E0,2.591785E1,3.387739E0,3.025262E1,9.1202934E1,3.7104132E0,9.059613E0],"tree_param":{"num_deleted":"0","num_feature":"15","num_nodes":"67","size_leaf_vector":"1"}},{"base_weights":[-2.8254315E-2,5.5990264E-2,-4.0564123E-1,8.358674E-2,-6.455267E-1,-1.6838045E-1,-5.3496474E-1,1.0981207E-1,-4.1987452E-1,-8.66681E-1,2.0204512E-2,-4.133272E-2,-2.1377448E-2,7.3626004E-2,-6.9626373E-1,6.646805E-2,3.4532976E-1,-7.2241175E-1,1.643933E-2,-7.3067396E-4,-5.00443E-2,4.0290166E-2,-1.5682536E-1,-2.8827345E-2,2.7914408E-1,-7.4961525E-1,-6.2355027E-2,3.6929745E-2,4.4361302E-1,4.5580673E-1,-5.430315E-1,-4.7262188E-2,-3.8422593E-1,5.1801914E-1,-5.977721E-1,-8.2509696E-1,2.4414547E-2,4.3906424E-2,3.2716274E-2,-5.036228E-1,-4.800919E-2,3.3497598E-2,-4.4681266E-2,3.4011733E-3,-1.7430028E-2,2.8028822E-2,-2.3891086E-2,2.531389E-2,-2.5175562E-2,-4.073674E-2,-3.733736E-3,4.4749114E-3,-3.8225472E-2,4.596272E-2,-1.5498645E-2,-3.7999332E-2,-9.136243E-3,-5.6047726E-2,-5.8684344E-3,-2.0631036E-2,1.5652347E-2,-1.2632745E-2,1.6151434E-2,-2.7857456E-2,7.1004867E-3],"categories":[],"categories_nodes":[],"categories_segments":[],"categories_sizes":[],"default_left":[0,0,0,0,0,0,0,0,0,0,0,0,0,0,0,0,0,0,0,0,0,0,0,0,0,0,0,0,0,0,0,0,0,0,0,0,0,0,0,0,0,0,0,0,0,0,0,0,0,0,0,0,0,0,0,0,0,0,0,0,0,0,0,0,0],"id":23,"left_children":[1,3,5,7,9,11,13,15,17,19,-1,-1,21,23,25,27,29,31,33,-1,-1,-1,35,-1,37,39,41,43,45,47,49,-1,51,53,55,57,59,61,-1,63,-1,-1,-1,-1,-1,-1,-1,-1,-1,-1,-1,-1,-1,-1,-1,-1,-1,-1,-1,-1,-1,-1,-1,-1,-1],"loss_changes":[1.1190072E1,5.6300745E0,1.880496E0,3.7168632E0,2.9074364E0,2.315974E0,4.0865326E0,2.68268E0,1.8562143E0,1.0622497E0,0E0,0E0,2.4500818E0,1.4325774E0,1.0554609E0,2.4911168E0,4.267257E0,2.6027107E-1,2.3734334E0,0E0,0E0,0E0,2.2800596E0,0E0,6.6891855E-1,1.0688057E0,2.802765E0,2.539036E0,2.0200078E0,2.0449858E0,5.737114E-1,0E0,9.639329E-1,1.688008E0,9.5133305E-2,7.07978E-1,2.103216E0,5.725161E-1,0E0,6.2947035E-1,0E0,0E0,0E0,0E0,0E0,0E0,0E0,0E0,0E0,0E0,0E0,0E0,0E0,0E0,0E0,0E0,0E0,0E0,0E0,0E0,0E0,0E0,0E0,0E0,0E0],"parents":[2147483647,0,0,1,1,2,2,3,3,4,4,5,5,6,6,7,7,8,8,9,9,12,12,13,13,14,14,15,15,16,16,17,17,18,18,22,22,24,24,25,25,26,26,27,27,28,28,29,29,30,30,32,32,33,33,34,34,35,35,36,36,37,37,39,39],"right_children":[2,4,6,8,10,12,14,16,18,20,-1,-1,22,24,26,28,30,32,34,-1,-1,-1,36,-1,38,40,42,44,46,48,50,-1,52,54,56,58,60,62,-1,64,-1,-1,-1,-1,-1,-1,-1,-1,-1,-1,-1,-1,-1,-1,-1,-1,-1,-1,-1,-1,-1,-1,-1,-1,-1],"split_conditions":[3E0,3E0,1E0,1.262E1,1.264E1,2.1E1,4E0,1.91E2,1.2256E2,2.15E2,2.0204512E-2,-4.133272E-2,4.1E1,5.8E1,2.678E3,1.4E1,1.3E1,3.674E1,2E0,-7.3067396E-4,-5.00443E-2,4.0290166E-2,4E0,-2.8827345E-2,1E-2,8E0,4.225E3,1.18E2,6.5E1,1.4E1,2E0,-4.7262188E-2,6.89E1,2E0,1.07E2,4.72E2,1.01E2,2.15E2,3.2716274E-2,2.485E1,-4.800919E-2,3.3497598E-2,-4.4681266E-2,3.4011733E-3,-1.7430028E-2,2.8028822E-2,-2.3891086E-2,2.531389E-2,-2.5175562E-2,-4.073674E-2,-3.733736E-3,4.4749114E-3,-3.8225472E-2,4.596272E-2,-1.5498645E-2,-3.7999332E-2,-9.136243E-3,-5.6047726E-2,-5.8684344E-3,-2.0631036E-2,1.5652347E-2,-1.2632745E-2,1.6151434E-2,-2.7857456E-2,7.1004867E-3],"split_indices":[5,7,10,13,13,2,5,2,13,2,0,0,2,2,2,6,3,13,6,0,0,0,5,0,13,5,2,2,6,6,7,0,13,7,2,2,2,2,0,13,0,0,0,0,0,0,0,0,0,0,0,0,0,0,0,0,0,0,0,0,0,0,0,0,0],"split_type":[0,0,0,0,0,0,0,0,0,0,0,0,0,0,0,0,0,0,0,0,0,0,0,0,0,0,0,0,0,0,0,0,0,0,0,0,0,0,0,0,0,0,0,0,0,0,0,0,0,0,0,0,0,0,0,0,0,0,0,0,0,0,0,0,0],"sum_hessian":[3.5025436E2,2.8703156E2,6.3222794E1,2.770151E2,1.0016451E1,2.311582E1,4.0106976E1,2.6404297E2,1.2972134E1,8.417229E0,1.5992218E0,3.375787E0,1.9740032E1,8.516659E0,3.1590317E1,2.2408519E2,3.995779E1,7.2732162E0,5.6989174E0,1.2962474E0,7.1209817E0,2.0811667E0,1.7658865E1,1.6119119E0,6.904747E0,2.8969624E1,2.6206937E0,2.0882756E2,1.525763E1,3.59713E1,3.9864922E0,3.302285E0,3.970931E0,3.2233026E0,2.475615E0,3.0095344E0,1.4649331E1,4.9304166E0,1.9743301E0,1.492524E1,1.4044384E1,1.4964551E0,1.1242385E0,1.9400432E2,1.4823242E1,1.3886551E1,1.3710792E0,3.4622036E1,1.3492616E0,2.054864E0,1.9316282E0,2.108722E0,1.862209E0,2.0969322E0,1.1263703E0,1.1824062E0,1.2932088E0,1.7105727E0,1.2989618E0,5.655872E0,8.99346E0,2.4365058E0,2.4939108E0,1.3909147E1,1.0160925E0],"tree_param":{"num_deleted":"0","num_feature":"15","num_nodes":"65","size_leaf_vector":"1"}},{"base_weights":[-1.9760014E-2,1.5240472E-2,-2.7668095E-1,1.04967654E-1,-4.815135E-2,-3.6084688E-1,5.397129E-1,4.7634806E-2,9.536115E-1,-4.5650664E-1,1.0018611E-2,-6.925704E-1,-1.3276501E-1,4.8170786E-2,-1.4939505E-2,1.1871826E-1,-3.6984864E-1,7.137208E-3,1.0782632E0,-6.1674144E-2,1.0069276E-1,1.0448889E-1,-3.4826547E-1,-1.1997315E0,-3.3965218E-1,6.019404E-1,-3.247784E-1,-1.1518023E-2,3.8012576E-1,-7.136969E-1,-1.04921915E-1,6.2311854E-2,2.7798582E-3,-3.4800974E-1,4.926883E-1,7.538347E-2,6.0807902E-2,-5.138882E-1,3.120145E-1,-6.934162E-2,-7.6453397E-3,2.9158413E-1,-8.503511E-1,5.7240345E-2,1.05077334E-1,-6.3774306E-1,1.6830577E-1,3.076573E-3,-3.591065E-2,2.3098841E-2,-4.5974758E-2,-5.601427E-3,-5.691992E-2,3.8390007E-2,-1.6216373E-2,6.218589E-4,-3.0516148E-2,3.9152786E-2,-2.620096E-2,2.3388095E-2,7.784339E-4,1.2230401E-2,-3.2090615E-2,3.1734604E-2,-1.846977E-2,-2.5509689E-2,3.694803E-2,-1.2141488E-3,-5.5313874E-2,-1.5587083E-2,2.5656683E-2,-4.1762594E-2,2.6324783E-3,5.144557E-2,-2.2925777E-2],"categories":[],"categories_nodes":[],"categories_segments":[],"categories_sizes":[],"default_left":[0,0,0,0,0,0,0,0,0,0,0,0,0,0,0,0,0,0,0,0,0,0,0,0,0,0,0,0,0,0,0,0,0,0,0,0,0,0,0,0,0,0,0,0,0,0,0,0,0,0,0,0,0,0,0,0,0,0,0,0,0,0,0,0,0,0,0,0,0,0,0,0,0,0,0],"id":24,"left_children":[1,3,5,7,9,11,13,15,17,19,21,23,25,-1,-1,27,29,-1,31,-1,33,35,37,39,41,43,45,47,49,51,53,-1,-1,55,57,59,-1,61,63,-1,-1,65,67,-1,69,71,73,-1,-1,-1,-1,-1,-1,-1,-1,-1,-1,-1,-1,-1,-1,-1,-1,-1,-1,-1,-1,-1,-1,-1,-1,-1,-1,-1,-1],"loss_changes":[3.1627073E0,1.7687608E0,3.0920188E0,6.2158775E0,4.3370514E0,2.8454485E0,1.8302603E0,3.652416E0,6.6390276E-1,9.97908E0,5.473134E0,2.3812523E0,3.615513E0,0E0,0E0,3.567559E0,1.5588517E0,0E0,1.1092105E0,0E0,2.665746E0,4.0459423E0,3.85077E0,9.6279716E-1,3.6594088E0,1.3291034E0,3.1735284E0,3.700614E0,4.1301966E0,1.8227654E0,2.4131463E0,0E0,0E0,6.881872E-1,2.7669845E0,2.942502E0,0E0,2.8114343E0,1.8592426E0,0E0,0E0,2.341714E0,1.2638202E0,0E0,8.2443696E-1,1.7298408E0,5.0602245E0,0E0,0E0,0E0,0E0,0E0,0E0,0E0,0E0,0E0,0E0,0E0,0E0,0E0,0E0,0E0,0E0,0E0,0E0,0E0,0E0,0E0,0E0,0E0,0E0,0E0,0E0,0E0,0E0],"parents":[2147483647,0,0,1,1,2,2,3,3,4,4,5,5,6,6,7,7,8,8,9,9,10,10,11,11,12,12,15,15,16,16,18,18,20,20,21,21,22,22,23,23,24,24,25,25,26,26,27,27,28,28,29,29,30,30,33,33,34,34,35,35,37,37,38,38,41,41,42,42,44,44,45,45,46,46],"right_children":[2,4,6,8,10,12,14,16,18,20,22,24,26,-1,-1,28,30,-1,32,-1,34,36,38,40,42,44,46,48,50,52,54,-1,-1,56,58,60,-1,62,64,-1,-1,66,68,-1,70,72,74,-1,-1,-1,-1,-1,-1,-1,-1,-1,-1,-1,-1,-1,-1,-1,-1,-1,-1,-1,-1,-1,-1,-1,-1,-1,-1,-1,-1],"split_conditions":[9.3E-1,9.39E2,2.979E3,8.82E2,1.063E3,5.35E0,1.4051E2,2.4E1,6E0,1.4E1,6E0,1.753E3,1.298E1,4.8170786E-2,-1.4939505E-2,5E0,4.1E1,7.137208E-3,4E0,-6.1674144E-2,2E0,5.4E-1,2.467E3,2.71E0,2.59E0,3.1E1,2.55E2,2.7E1,8.5E2,3E0,5.3E1,6.2311854E-2,2.7798582E-3,2.8E1,1.11E2,1.3E1,6.0807902E-2,1.413E3,4.4E1,-6.934162E-2,-7.6453397E-3,1.1E0,5.2E1,5.7240345E-2,6.7E1,4E0,2E0,3.076573E-3,-3.591065E-2,2.3098841E-2,-4.5974758E-2,-5.601427E-3,-5.691992E-2,3.8390007E-2,-1.6216373E-2,6.218589E-4,-3.0516148E-2,3.9152786E-2,-2.620096E-2,2.3388095E-2,7.784339E-4,1.2230401E-2,-3.2090615E-2,3.1734604E-2,-1.846977E-2,-2.5509689E-2,3.694803E-2,-1.2141488E-3,-5.5313874E-2,-1.5587083E-2,2.5656683E-2,-4.1762594E-2,2.6324783E-3,5.144557E-2,-2.2925777E-2],"split_indices":[13,0,0,0,0,13,13,2,2,2,6,0,13,0,0,1,2,0,6,0,4,13,0,13,13,2,2,0,0,4,2,0,0,2,2,2,0,0,6,0,0,13,2,0,2,3,7,0,0,0,0,0,0,0,0,0,0,0,0,0,0,0,0,0,0,0,0,0,0,0,0,0,0,0,0],"split_type":[0,0,0,0,0,0,0,0,0,0,0,0,0,0,0,0,0,0,0,0,0,0,0,0,0,0,0,0,0,0,0,0,0,0,0,0,0,0,0,0,0,0,0,0,0,0,0,0,0,0,0,0,0,0,0,0,0,0,0,0,0,0,0,0,0,0,0,0,0,0,0,0,0,0,0],"sum_hessian":[3.5024164E2,3.0907663E2,4.1165005E1,1.2768732E2,1.8138931E2,3.782359E1,3.3414154E0,1.2059618E2,7.0911303E0,2.1763178E1,1.5962613E2,1.4580758E1,2.324283E1,2.1207905E0,1.2206249E0,1.036617E2,1.6934483E1,1.2306727E0,5.860458E0,8.582189E0,1.318099E1,1.2687961E2,3.2746517E1,4.998378E0,9.58238E0,4.373503E0,1.8869328E1,6.982834E1,3.383336E1,6.63238E0,1.0302103E1,4.8458986E0,1.0145591E0,6.1982718E0,6.982718E0,1.2468301E2,2.1966047E0,2.6356934E1,6.3895845E0,3.9649215E0,1.0334564E0,4.477335E0,5.105046E0,1.4668127E0,2.9066906E0,1.1363465E1,7.5058627E0,6.411395E1,5.7143855E0,3.2435104E1,1.3982574E0,3.267352E0,3.3650277E0,1.5675311E0,8.734571E0,3.0120177E0,3.186254E0,5.610263E0,