{"learner": {"attributes": {"best_iteration": "212", "best_score": "0.7417290992660829"}, "feature_names": [], "feature_types": [], "gradient_booster": {"model": {"cats": {"enc": [], "feature_segments": [], "sorted_idx": []}, "gbtree_model_param": {"num_parallel_tree": "1", "num_trees": "253"}, "iteration_indptr": [0, 1, 2, 3, 4, 5, 6, 7, 8, 9, 10, 11, 12, 13, 14, 15, 16, 17, 18, 19, 20, 21, 22, 23, 24, 25, 26, 27, 28, 29, 30, 31, 32, 33, 34, 35, 36, 37, 38, 39, 40, 41, 42, 43, 44, 45, 46, 47, 48, 49, 50, 51, 52, 53, 54, 55, 56, 57, 58, 59, 60, 61, 62, 63, 64, 65, 66, 67, 68, 69, 70, 71, 72, 73, 74, 75, 76, 77, 78, 79, 80, 81, 82, 83, 84, 85, 86, 87, 88, 89, 90, 91, 92, 93, 94, 95, 96, 97, 98, 99, 100, 101, 102, 103, 104, 105, 106, 107, 108, 109, 110, 111, 112, 113, 114, 115, 116, 117, 118, 119, 120, 121, 122, 123, 124, 125, 126, 127, 128, 129, 130, 131, 132, 133, 134, 135, 136, 137, 138, 139, 140, 141, 142, 143, 144, 145, 146, 147, 148, 149, 150, 151, 152, 153, 154, 155, 156, 157, 158, 159, 160, 161, 162, 163, 164, 165, 166, 167, 168, 169, 170, 171, 172, 173, 174, 175, 176, 177, 178, 179, 180, 181, 182, 183, 184, 185, 186, 187, 188, 189, 190, 191, 192, 193, 194, 195, 196, 197, 198, 199, 200, 201, 202, 203, 204, 205, 206, 207, 208, 209, 210, 211, 212, 213, 214, 215, 216, 217, 218, 219, 220, 221, 222, 223, 224, 225, 226, 227, 228, 229, 230, 231, 232, 233, 234, 235, 236, 237, 238, 239, 240, 241, 242, 243, 244, 245, 246, 247, 248, 249, 250, 251, 252, 253], "tree_info": [0, 0, 0, 0, 0, 0, 0, 0, 0, 0, 0, 0, 0, 0, 0, 0, 0, 0, 0, 0, 0, 0, 0, 0, 0, 0, 0, 0, 0, 0, 0, 0, 0, 0, 0, 0, 0, 0, 0, 0, 0, 0, 0, 0, 0, 0, 0, 0, 0, 0, 0, 0, 0, 0, 0, 0, 0, 0, 0, 0, 0, 0, 0, 0, 0, 0, 0, 0, 0, 0, 0, 0, 0, 0, 0, 0, 0, 0, 0, 0, 0, 0, 0, 0, 0, 0, 0, 0, 0, 0, 0, 0, 0, 0, 0, 0, 0, 0, 0, 0, 0, 0, 0, 0, 0, 0, 0, 0, 0, 0, 0, 0, 0, 0, 0, 0, 0, 0, 0, 0, 0, 0, 0, 0, 0, 0, 0, 0, 0, 0, 0, 0, 0, 0, 0, 0, 0, 0, 0, 0, 0, 0, 0, 0, 0, 0, 0, 0, 0, 0, 0, 0, 0, 0, 0, 0, 0, 0, 0, 0, 0, 0, 0, 0, 0, 0, 0, 0, 0, 0, 0, 0, 0, 0, 0, 0, 0, 0, 0, 0, 0, 0, 0, 0, 0, 0, 0, 0, 0, 0, 0, 0, 0, 0, 0, 0, 0, 0, 0, 0, 0, 0, 0, 0, 0, 0, 0, 0, 0, 0, 0, 0, 0, 0, 0, 0, 0, 0, 0, 0, 0, 0, 0, 0, 0, 0, 0, 0, 0, 0, 0, 0, 0, 0, 0, 0, 0, 0, 0, 0, 0, 0, 0, 0, 0, 0, 0, 0, 0, 0, 0, 0, 0], "trees": [{"base_weights": [-0.000712472, 0.5217861, -0.9236511, 1.4936606, 0.15185787, -1.0873638, 0.86160004, 0.09982377, 1.1504902, -0.24583049, 1.3864447, -1.2021952, 0.11903125, 1.3592101, 0.38195378, 0.94442123, 1.8750364, -0.13556455, -1.2391673, 1.2209901, 1.6232772, -1.1072392, -1.9361131, -0.38546494, 0.90423065, 0.51538646, 1.5239193, -0.1443035, 1.0850934, 0.03097542, 0.05687942, 0.09516365, 0.056994934, -0.015213757, 0.03412398, -0.030687941, -0.069294594, 0.06738385, -0.021843528, 0.086584955, 0.0671102, -0.0593364, -0.0075528584, -0.09811294, -0.070728116, -0.030656284, 0.03337846, 0.054204103, -0.008462808, -0.026994402, 0.04732561, 0.06416909, 0.091487125, 0.005606824, -0.048805904, 0.0072164605, 0.07453966], "categories": [], "categories_nodes": [], "categories_segments": [], "categories_sizes": [], "default_left": [0, 0, 0, 0, 0, 0, 0, 0, 0, 0, 0, 0, 0, 0, 0, 0, 0, 0, 0, 0, 0, 0, 0, 0, 0, 0, 0, 0, 0, 0, 0, 0, 0, 0, 0, 0, 0, 0, 0, 0, 0, 0, 0, 0, 0, 0, 0, 0, 0, 0, 0, 0, 0, 0, 0, 0, 0], "id": 0, "left_children": [1, 3, 5, 7, 9, 11, 13, -1, 15, 17, 19, 21, 23, 25, 27, 29, 31, 33, 35, 37, 39, 41, 43, 45, 47, 49, 51, 53, 55, -1, -1, -1, -1, -1, -1, -1, -1, -1, -1, -1, -1, -1, -1, -1, -1, -1, -1, -1, -1, -1, -1, -1, -1, -1, -1, -1, -1], "loss_changes": [3841.555, 1828.5067, 842.5581, 239.6582, 1809.7634, 365.61426, 57.347, 0.0, 123.01599, 305.23553, 33.207764, 165.73706, 91.53791, 15.698776, 46.35213, 40.26172, 1.651001, 346.7315, 24.70224, 112.47705, 8.83905, 162.11914, 0.9691162, 34.176643, 17.626701, 10.01088, 4.913971, 15.528511, 20.225967, 0.0, 0.0, 0.0, 0.0, 0.0, 0.0, 0.0, 0.0, 0.0, 0.0, 0.0, 0.0, 0.0, 0.0, 0.0, 0.0, 0.0, 0.0, 0.0, 0.0, 0.0, 0.0, 0.0, 0.0, 0.0, 0.0, 0.0, 0.0], "parents": [2147483647, 0, 0, 1, 1, 2, 2, 3, 3, 4, 4, 5, 5, 6, 6, 8, 8, 9, 9, 10, 10, 11, 11, 12, 12, 13, 13, 14, 14, 15, 15, 16, 16, 17, 17, 18, 18, 19, 19, 20, 20, 21, 21, 22, 22, 23, 23, 24, 24, 25, 25, 26, 26, 27, 27, 28, 28], "right_children": [2, 4, 6, 8, 10, 12, 14, -1, 16, 18, 20, 22, 24, 26, 28, 30, 32, 34, 36, 38, 40, 42, 44, 46, 48, 50, 52, 54, 56, -1, -1, -1, -1, -1, -1, -1, -1, -1, -1, -1, -1, -1, -1, -1, -1, -1, -1, -1, -1, -1, -1, -1, -1, -1, -1, -1, -1], "split_conditions": [1.0, 180.50146, 1.0, 1.0, 1.0, 7.0, 490.29727, 0.09982377, 1.0, 989.8585, 1.0, 801.734, 6.0, 2.0, 3.0, 2.0, 33.0, 707.8879, 2.0, 49.0, 0.36363637, 730.5307, 3.0, 41.0, 1.6752137, 5.0, 3.0, 1287.1144, 4.0, 0.03097542, 0.05687942, 0.09516365, 0.056994934, -0.015213757, 0.03412398, -0.030687941, -0.069294594, 0.06738385, -0.021843528, 0.086584955, 0.0671102, -0.0593364, -0.0075528584, -0.09811294, -0.070728116, -0.030656284, 0.03337846, 0.054204103, -0.008462808, -0.026994402, 0.04732561, 0.06416909, 0.091487125, 0.005606824, -0.048805904, 0.0072164605, 0.07453966], "split_indices": [17, 2, 18, 15, 18, 10, 2, 0, 18, 2, 5, 2, 5, 15, 18, 15, 5, 2, 3, 3, 17, 2, 17, 10, 17, 3, 18, 2, 15, 0, 0, 0, 0, 0, 0, 0, 0, 0, 0, 0, 0, 0, 0, 0, 0, 0, 0, 0, 0, 0, 0, 0, 0, 0, 0, 0, 0], "split_type": [0, 0, 0, 0, 0, 0, 0, 0, 0, 0, 0, 0, 0, 0, 0, 0, 0, 0, 0, 0, 0, 0, 0, 0, 0, 0, 0, 0, 0, 0, 0, 0, 0, 0, 0, 0, 0, 0, 0, 0, 0, 0, 0, 0, 0, 0, 0, 0, 0, 0, 0, 0, 0, 0, 0, 0, 0], "sum_hessian": [7964.1626, 5085.544, 2878.6187, 1401.2213, 3684.3225, 2637.173, 241.44556, 566.44525, 834.77606, 2787.278, 897.0445, 2407.9724, 229.20053, 117.60363, 123.84192, 651.7225, 183.05357, 2509.8115, 277.4666, 531.7275, 365.31705, 2134.3362, 273.6364, 139.85304, 89.34748, 19.880856, 97.72278, 71.284546, 52.557377, 244.5647, 407.15778, 174.75235, 8.3012295, 2081.2166, 428.59485, 53.71048, 223.75615, 494.1534, 37.574062, 259.90106, 105.415985, 1970.3009, 164.03513, 257.9432, 15.693209, 115.33577, 24.517271, 76.51786, 12.829625, 5.6932087, 14.187647, 57.60861, 40.11417, 55.14813, 16.136417, 16.244438, 36.31294], "tree_param": {"num_deleted": "0", "num_feature": "30", "num_nodes": "57", "size_leaf_vector": "1"}}, {"base_weights": [-0.0029861776, 0.50209934, -0.897931, 0.095247895, 0.31873828, -1.0523633, 0.8312133, -0.029827286, 1.421169, -1.1274863, 0.72225076, 0.39684862, 1.4129856, -0.24275802, 0.64622927, 1.4593594, 0.6893281, -1.2825234, -0.7262376, -0.001976431, 1.0398126, -0.13022652, 0.9597032, 1.0777266, 1.6448693, -0.0061872955, -0.049286004, 0.035499357, -0.08444671, 0.067266926, 0.08335, 0.06388744, -0.045319837, -0.059643935, -0.08836743, -0.043958355, -0.01819972, -0.033008482, 0.0287577, 0.01876142, 0.06588173, -0.032368492, 0.015629698, 0.035868347, 0.06260734, 0.06460233, 0.019903228, 0.06800778, 0.091405116], "categories": [], "categories_nodes": [], "categories_segments": [], "categories_sizes": [], "default_left": [0, 0, 0, 0, 0, 0, 0, 0, 0, 0, 0, 0, 0, 0, 0, 0, 0, 0, 0, 0, 0, 0, 0, 0, 0, 0, 0, 0, 0, 0, 0, 0, 0, 0, 0, 0, 0, 0, 0, 0, 0, 0, 0, 0, 0, 0, 0, 0, 0], "id": 1, "left_children": [1, 3, 5, -1, 7, 9, 11, 13, 15, 17, 19, 21, 23, 25, 27, 29, 31, 33, 35, 37, 39, 41, 43, 45, 47, -1, -1, -1, -1, -1, -1, -1, -1, -1, -1, -1, -1, -1, -1, -1, -1, -1, -1, -1, -1, -1, -1, -1, -1], "loss_changes": [3618.2393, 1315.5753, 772.0139, 0.0, 1739.4319, 354.29102, 59.411346, 495.3688, 29.38623, 157.33667, 24.90791, 40.847366, 6.083618, 231.26328, 123.9169, 22.203857, 53.575882, 77.592285, 39.08789, 13.29817, 13.405785, 16.637081, 3.81456, 5.9268417, 0.53086853, 0.0, 0.0, 0.0, 0.0, 0.0, 0.0, 0.0, 0.0, 0.0, 0.0, 0.0, 0.0, 0.0, 0.0, 0.0, 0.0, 0.0, 0.0, 0.0, 0.0, 0.0, 0.0, 0.0, 0.0], "parents": [2147483647, 0, 0, 1, 1, 2, 2, 4, 4, 5, 5, 6, 6, 7, 7, 8, 8, 9, 9, 10, 10, 11, 11, 12, 12, 13, 13, 14, 14, 15, 15, 16, 16, 17, 17, 18, 18, 19, 19, 20, 20, 21, 21, 22, 22, 23, 23, 24, 24], "right_children": [2, 4, 6, -1, 8, 10, 12, 14, 16, 18, 20, 22, 24, 26, 28, 30, 32, 34, 36, 38, 40, 42, 44, 46, 48, -1, -1, -1, -1, -1, -1, -1, -1, -1, -1, -1, -1, -1, -1, -1, -1, -1, -1, -1, -1, -1, -1, -1, -1], "split_conditions": [1.0, 1.0, 1.0, 0.095247895, 1.0, 13.0, 3.0, 4.0, 2.0, 2.0, 2.0, 2.0, 6.0, 1.0, 1.0, 4.0, 2.0, 1.0, 20.0, 41.0, 21.0, 1.0, 4.0, 41.0, 1.0, -0.0061872955, -0.049286004, 0.035499357, -0.08444671, 0.067266926, 0.08335, 0.06388744, -0.045319837, -0.059643935, -0.08836743, -0.043958355, -0.01819972, -0.033008482, 0.0287577, 0.01876142, 0.06588173, -0.032368492, 0.015629698, 0.035868347, 0.06260734, 0.06460233, 0.019903228, 0.06800778, 0.091405116], "split_indices": [17, 15, 18, 0, 18, 9, 18, 9, 20, 9, 6, 9, 15, 12, 12, 9, 9, 12, 7, 10, 9, 7, 7, 4, 6, 0, 0, 0, 0, 0, 0, 0, 0, 0, 0, 0, 0, 0, 0, 0, 0, 0, 0, 0, 0, 0, 0, 0, 0], "split_type": [0, 0, 0, 0, 0, 0, 0, 0, 0, 0, 0, 0, 0, 0, 0, 0, 0, 0, 0, 0, 0, 0, 0, 0, 0, 0, 0, 0, 0, 0, 0, 0, 0, 0, 0, 0, 0, 0, 0, 0, 0, 0, 0, 0, 0, 0, 0, 0, 0], "sum_hessian": [8002.5376, 5115.762, 2886.7754, 590.27765, 4525.485, 2650.4512, 236.32405, 3439.0896, 1086.3953, 2543.1587, 107.292496, 136.26648, 100.05757, 2615.8442, 823.24524, 1031.5698, 54.825462, 1832.7949, 710.36383, 33.008205, 74.28429, 70.7668, 65.49968, 43.21899, 56.83858, 2255.6821, 360.16214, 802.0427, 21.202518, 670.7325, 360.83728, 40.20077, 14.624693, 1549.7119, 283.08298, 498.48825, 211.87555, 15.353872, 17.654333, 22.592022, 51.692265, 32.430847, 38.335957, 37.70668, 27.792997, 32.17282, 11.046169, 25.55438, 31.284203], "tree_param": {"num_deleted": "0", "num_feature": "30", "num_nodes": "49", "size_leaf_vector": "1"}}, {"base_weights": [-0.009113753, 0.4641019, -0.8454915, 0.091069624, 0.30291954, -0.99115556, 0.8186073, -0.02269397, 1.3320385, -1.0966545, 0.21081959, 0.440873, 1.3523201, -0.19886771, 0.72570455, 1.5452132, 1.1292522, -1.2233827, -0.71449864, -0.2089672, 0.8828276, -0.050798286, 0.9582784, 1.4400989, -0.0016441696, -0.004312245, -0.047588937, 0.039793428, -0.079158254, 0.08091666, 0.06654745, -0.0034018867, 0.06715705, -0.056860864, -0.08340889, -0.049203623, -0.02146876, -0.019181762, 0.040639322, 0.06912012, 0.028481916, -0.021478554, 0.044926744, 0.03703232, 0.07068768, 0.05811456, 0.08391357], "categories": [], "categories_nodes": [], "categories_segments": [], "categories_sizes": [], "default_left": [0, 0, 0, 0, 0, 0, 0, 0, 0, 0, 0, 0, 0, 0, 0, 0, 0, 0, 0, 0, 0, 0, 0, 0, 0, 0, 0, 0, 0, 0, 0, 0, 0, 0, 0, 0, 0, 0, 0, 0, 0, 0, 0, 0, 0, 0, 0], "id": 2, "left_children": [1, 3, 5, -1, 7, 9, 11, 13, 15, 17, 19, 21, 23, 25, 27, 29, 31, 33, 35, 37, 39, 41, 43, 45, -1, -1, -1, -1, -1, -1, -1, -1, -1, -1, -1, -1, -1, -1, -1, -1, -1, -1, -1, -1, -1, -1, -1], "loss_changes": [3131.5957, 1104.9556, 693.8501, 0.0, 1514.0104, 333.65918, 45.907013, 452.7946, 45.19922, 116.20068, 60.27282, 34.787544, 11.61232, 235.62538, 107.269714, 6.0977783, 143.56342, 67.62573, 46.033813, 23.854195, 12.056408, 25.905045, 5.5533905, 3.9690857, 0.0, 0.0, 0.0, 0.0, 0.0, 0.0, 0.0, 0.0, 0.0, 0.0, 0.0, 0.0, 0.0, 0.0, 0.0, 0.0, 0.0, 0.0, 0.0, 0.0, 0.0, 0.0, 0.0], "parents": [2147483647, 0, 0, 1, 1, 2, 2, 4, 4, 5, 5, 6, 6, 7, 7, 8, 8, 9, 9, 10, 10, 11, 11, 12, 12, 13, 13, 14, 14, 15, 15, 16, 16, 17, 17, 18, 18, 19, 19, 20, 20, 21, 21, 22, 22, 23, 23], "right_children": [2, 4, 6, -1, 8, 10, 12, 14, 16, 18, 20, 22, 24, 26, 28, 30, 32, 34, 36, 38, 40, 42, 44, 46, -1, -1, -1, -1, -1, -1, -1, -1, -1, -1, -1, -1, -1, -1, -1, -1, -1, -1, -1, -1, -1, -1, -1], "split_conditions": [1.0, 1.0, 1.0, 0.091069624, 1.0, 6.0, 3.0, 5.0, 434.86252, 2.0, 6.0, 2.0, 1695.2053, 1.0, 1.0, 0.48387095, 1.0, 1.0, 30.0, 37.0, 296.0, 10.0, 19.0, 9.0, -0.0016441696, -0.004312245, -0.047588937, 0.039793428, -0.079158254, 0.08091666, 0.06654745, -0.0034018867, 0.06715705, -0.056860864, -0.08340889, -0.049203623, -0.02146876, -0.019181762, 0.040639322, 0.06912012, 0.028481916, -0.021478554, 0.044926744, 0.03703232, 0.07068768, 0.05811456, 0.08391357], "split_indices": [17, 20, 18, 0, 18, 9, 18, 9, 0, 9, 5, 9, 0, 12, 12, 17, 7, 12, 4, 9, 4, 6, 10, 16, 0, 0, 0, 0, 0, 0, 0, 0, 0, 0, 0, 0, 0, 0, 0, 0, 0, 0, 0, 0, 0, 0, 0], "split_type": [0, 0, 0, 0, 0, 0, 0, 0, 0, 0, 0, 0, 0, 0, 0, 0, 0, 0, 0, 0, 0, 0, 0, 0, 0, 0, 0, 0, 0, 0, 0, 0, 0, 0, 0, 0, 0, 0, 0, 0, 0, 0, 0, 0, 0, 0, 0], "sum_hessian": [7910.333, 5052.2544, 2858.0786, 535.1918, 4517.0625, 2628.4097, 229.66891, 3432.1174, 1084.945, 2416.4062, 212.00363, 135.55568, 94.113235, 2778.7349, 653.3826, 525.69714, 559.24774, 1812.9921, 603.41406, 130.91396, 81.089676, 69.968765, 65.586914, 88.46752, 5.645716, 2418.137, 360.59802, 634.7486, 18.634022, 387.057, 138.64015, 84.86713, 474.38065, 1521.7556, 291.2365, 308.90463, 294.50946, 112.33492, 18.579039, 29.931446, 51.15823, 50.40519, 19.56358, 46.15808, 19.428837, 43.550117, 44.9174], "tree_param": {"num_deleted": "0", "num_feature": "30", "num_nodes": "47", "size_leaf_vector": "1"}}, {"base_weights": [-0.00067799847, 0.45719475, -0.80406284, 0.08790647, 0.29107127, -0.94196254, 0.77515364, -0.01878564, 1.2752541, -1.0393583, 0.18953967, 0.48068163, 1.4251914, -0.22220367, 0.62649125, 1.3211341, 0.38627324, -0.95831925, -1.6290824, -0.17184465, 0.81259716, 0.57626927, -0.06555515, 1.1392573, 0.08162887, -0.0064208233, -0.051721353, 0.03429788, -0.07779801, 0.05408911, 0.07304977, 0.054442056, -0.061273195, -0.05790111, -0.03796946, -0.08308447, -0.051758826, -0.017406665, 0.034817774, 0.02296128, 0.055772502, 0.0056472654, 0.04915358, 0.04450388, 0.06780456], "categories": [], "categories_nodes": [], "categories_segments": [], "categories_sizes": [], "default_left": [0, 0, 0, 0, 0, 0, 0, 0, 0, 0, 0, 0, 0, 0, 0, 0, 0, 0, 0, 0, 0, 0, 0, 0, 0, 0, 0, 0, 0, 0, 0, 0, 0, 0, 0, 0, 0, 0, 0, 0, 0, 0, 0, 0, 0], "id": 3, "left_children": [1, 3, 5, -1, 7, 9, 11, 13, 15, 17, 19, 21, 23, 25, 27, 29, 31, 33, 35, 37, 39, 41, -1, 43, -1, -1, -1, -1, -1, -1, -1, -1, -1, -1, -1, -1, -1, -1, -1, -1, -1, -1, -1, -1, -1], "loss_changes": [2918.388, 1091.6349, 627.9512, 0.0, 1366.984, 292.15894, 43.695282, 447.75772, 43.267334, 115.02319, 47.607376, 28.343239, 2.396286, 197.432, 107.17941, 32.57361, 62.582726, 84.422, 3.9597168, 20.790056, 7.7886047, 28.8419, 0.0, 0.6020775, 0.0, 0.0, 0.0, 0.0, 0.0, 0.0, 0.0, 0.0, 0.0, 0.0, 0.0, 0.0, 0.0, 0.0, 0.0, 0.0, 0.0, 0.0, 0.0, 0.0, 0.0], "parents": [2147483647, 0, 0, 1, 1, 2, 2, 4, 4, 5, 5, 6, 6, 7, 7, 8, 8, 9, 9, 10, 10, 11, 11, 12, 12, 13, 13, 14, 14, 15, 15, 16, 16, 17, 17, 18, 18, 19, 19, 20, 20, 21, 21, 23, 23], "right_children": [2, 4, 6, -1, 8, 10, 12, 14, 16, 18, 20, 22, 24, 26, 28, 30, 32, 34, 36, 38, 40, 42, -1, 44, -1, -1, -1, -1, -1, -1, -1, -1, -1, -1, -1, -1, -1, -1, -1, -1, -1, -1, -1, -1, -1], "split_conditions": [1.0, 1.0, 1.0, 0.08790647, 1.0, 6.0, 6.0, 4.0, 2.0, 1.0, 6.0, 59.11071, 3.0, 33.282616, 1.0, 2.0, 2.0, 6.0, 3.0, 42.0, 17.0, 2.0, -0.06555515, 1.3076923, 0.08162887, -0.0064208233, -0.051721353, 0.03429788, -0.07779801, 0.05408911, 0.07304977, 0.054442056, -0.061273195, -0.05790111, -0.03796946, -0.08308447, -0.051758826, -0.017406665, 0.034817774, 0.02296128, 0.055772502, 0.0056472654, 0.04915358, 0.04450388, 0.06780456], "split_indices": [17, 15, 18, 0, 18, 9, 9, 9, 20, 12, 5, 1, 18, 1, 12, 18, 9, 3, 17, 10, 15, 18, 0, 17, 0, 0, 0, 0, 0, 0, 0, 0, 0, 0, 0, 0, 0, 0, 0, 0, 0, 0, 0, 0, 0], "split_type": [0, 0, 0, 0, 0, 0, 0, 0, 0, 0, 0, 0, 0, 0, 0, 0, 0, 0, 0, 0, 0, 0, 0, 0, 0, 0, 0, 0, 0, 0, 0, 0, 0, 0, 0, 0, 0, 0, 0, 0, 0, 0, 0, 0, 0], "sum_hessian": [7931.6787, 5052.526, 2879.1528, 571.04156, 4481.4844, 2648.3022, 230.85051, 3409.142, 1072.3422, 2438.4875, 209.81479, 160.07486, 70.77564, 2592.526, 816.616, 1019.2528, 53.08941, 2146.187, 292.30063, 133.25104, 76.56376, 152.61176, 7.463111, 32.482998, 38.292645, 2325.1946, 267.33148, 795.62305, 20.993023, 379.14185, 640.11096, 37.19867, 15.8907385, 1068.607, 1077.5798, 275.38345, 16.917187, 111.258865, 21.992172, 36.496105, 40.067654, 71.946526, 80.66523, 17.489458, 14.993541], "tree_param": {"num_deleted": "0", "num_feature": "30", "num_nodes": "45", "size_leaf_vector": "1"}}, {"base_weights": [-0.002143912, 0.42298037, -0.7577722, 1.296817, 0.09521843, -0.8956317, 0.7400762, 0.08454194, 1.024335, -0.25609714, 1.1602721, -0.9577446, 0.8997945, 1.2952269, 0.3371436, 0.8603669, 1.6027464, -0.40036988, 0.4637761, 0.90082836, 1.2995086, -0.46202606, -1.1150649, 0.40821803, 1.2123032, 0.476969, 0.07175961, -0.18768862, 0.7495044, 0.049186412, 0.014653946, 0.081556894, 0.044746425, -0.038040902, -0.0026452946, 0.027093459, -0.082632534, 0.037777733, 0.070206, 0.06727411, 0.02882255, -0.031164631, 0.015387848, -0.071584746, -0.047854517, -0.017229652, 0.041188344, 0.07121853, 0.021282364, -0.024898585, 0.05265076, -0.024385778, 0.03622675, 0.042643543, -0.016381761], "categories": [], "categories_nodes": [], "categories_segments": [], "categories_sizes": [], "default_left": [0, 0, 0, 0, 0, 0, 0, 0, 0, 0, 0, 0, 0, 0, 0, 0, 0, 0, 0, 0, 0, 0, 0, 0, 0, 0, 0, 0, 0, 0, 0, 0, 0, 0, 0, 0, 0, 0, 0, 0, 0, 0, 0, 0, 0, 0, 0, 0, 0, 0, 0, 0, 0, 0, 0], "id": 4, "left_children": [1, 3, 5, 7, 9, 11, 13, -1, 15, 17, 19, 21, 23, 25, 27, 29, 31, 33, 35, 37, 39, 41, 43, 45, 47, 49, -1, 51, 53, -1, -1, -1, -1, -1, -1, -1, -1, -1, -1, -1, -1, -1, -1, -1, -1, -1, -1, -1, -1, -1, -1, -1, -1, -1, -1], "loss_changes": [2532.4053, 1444.8081, 586.76086, 146.00562, 1373.4729, 290.76514, 53.19644, 0.0, 76.01355, 286.8816, 31.718994, 195.47607, 12.937996, 10.823761, 30.500607, 44.35623, 2.1389465, 288.03372, 77.14384, 22.426147, 18.844727, 75.56181, 94.017334, 11.386761, 8.226952, 9.608617, 0.0, 17.46548, 9.048462, 0.0, 0.0, 0.0, 0.0, 0.0, 0.0, 0.0, 0.0, 0.0, 0.0, 0.0, 0.0, 0.0, 0.0, 0.0, 0.0, 0.0, 0.0, 0.0, 0.0, 0.0, 0.0, 0.0, 0.0, 0.0, 0.0], "parents": [2147483647, 0, 0, 1, 1, 2, 2, 3, 3, 4, 4, 5, 5, 6, 6, 8, 8, 9, 9, 10, 10, 11, 11, 12, 12, 13, 13, 14, 14, 15, 15, 16, 16, 17, 17, 18, 18, 19, 19, 20, 20, 21, 21, 22, 22, 23, 23, 24, 24, 25, 25, 27, 27, 28, 28], "right_children": [2, 4, 6, 8, 10, 12, 14, -1, 16, 18, 20, 22, 24, 26, 28, 30, 32, 34, 36, 38, 40, 42, 44, 46, 48, 50, -1, 52, 54, -1, -1, -1, -1, -1, -1, -1, -1, -1, -1, -1, -1, -1, -1, -1, -1, -1, -1, -1, -1, -1, -1, -1, -1, -1, -1], "split_conditions": [1.0, 180.50146, 1.0, 1.0, 1.0, 17.0, 345.66635, 0.08454194, 1.0, 5.0, 2.0, 180.50146, 90.0, 2.0, 2.0, 1.0, 86.0, 560.12177, 833.2936, 8.0, 2.0, 3.0, 2.0, 27.0, 186.0, 5.0, 0.07175961, 10.0, 1537.3597, 0.049186412, 0.014653946, 0.081556894, 0.044746425, -0.038040902, -0.0026452946, 0.027093459, -0.082632534, 0.037777733, 0.070206, 0.06727411, 0.02882255, -0.031164631, 0.015387848, -0.071584746, -0.047854517, -0.017229652, 0.041188344, 0.07121853, 0.021282364, -0.024898585, 0.05265076, -0.024385778, 0.03622675, 0.042643543, -0.016381761], "split_indices": [17, 2, 18, 15, 18, 9, 2, 0, 18, 9, 18, 2, 7, 15, 18, 27, 3, 2, 2, 9, 20, 9, 3, 9, 3, 3, 0, 6, 2, 0, 0, 0, 0, 0, 0, 0, 0, 0, 0, 0, 0, 0, 0, 0, 0, 0, 0, 0, 0, 0, 0, 0, 0, 0, 0], "split_type": [0, 0, 0, 0, 0, 0, 0, 0, 0, 0, 0, 0, 0, 0, 0, 0, 0, 0, 0, 0, 0, 0, 0, 0, 0, 0, 0, 0, 0, 0, 0, 0, 0, 0, 0, 0, 0, 0, 0, 0, 0, 0, 0, 0, 0, 0, 0, 0, 0, 0, 0, 0, 0, 0, 0], "sum_hessian": [7881.3203, 5043.9707, 2837.3496, 1375.0454, 3668.9253, 2598.5825, 238.76718, 560.0218, 815.02356, 2759.458, 909.4673, 2512.1414, 86.44121, 99.48486, 139.28232, 636.94867, 178.0749, 2299.1248, 460.3332, 320.2341, 589.2332, 606.1357, 1906.0056, 34.49181, 51.949398, 15.175338, 84.309525, 61.523335, 77.75898, 522.5762, 114.3725, 169.9534, 8.121512, 1127.8938, 1171.2308, 444.66953, 15.663681, 250.44504, 69.78907, 553.1988, 36.03438, 501.30463, 104.83107, 631.7401, 1274.2655, 12.328383, 22.163427, 40.280018, 11.66938, 5.6865535, 9.488784, 46.64675, 14.876585, 71.1403, 6.6186895], "tree_param": {"num_deleted": "0", "num_feature": "30", "num_nodes": "55", "size_leaf_vector": "1"}}, {"base_weights": [-0.0022669043, 0.40911674, -0.72967654, 1.253679, 0.099907085, -0.86902815, 0.7780696, 0.08174147, 0.9992874, -0.22520375, 1.1062812, -0.93603504, 0.103751525, 1.2273278, 0.30623528, 0.8350549, 1.5421305, -0.7034254, 0.023116134, 0.9489697, 1.3356119, -0.49469236, -1.0741007, 0.301208, -0.07926822, 0.6072995, 1.3608959, -0.09950471, 0.9089878, 0.047851622, 0.013102303, 0.07865914, 0.042515215, -0.01757094, -0.06980241, 0.010088983, -0.053846806, 0.05900463, -0.0013808951, 0.07181386, 0.051528502, -0.036482226, -0.0011532849, -0.06986219, -0.041219145, -0.004994524, 0.047290724, -0.032408945, 0.05564445, 0.059173863, 0.078611545, 0.0024139322, -0.080235645, 0.028768975, 0.077586524], "categories": [], "categories_nodes": [], "categories_segments": [], "categories_sizes": [], "default_left": [0, 0, 0, 0, 0, 0, 0, 0, 0, 0, 0, 0, 0, 0, 0, 0, 0, 0, 0, 0, 0, 0, 0, 0, 0, 0, 0, 0, 0, 0, 0, 0, 0, 0, 0, 0, 0, 0, 0, 0, 0, 0, 0, 0, 0, 0, 0, 0, 0, 0, 0, 0, 0, 0, 0], "id": 5, "left_children": [1, 3, 5, 7, 9, 11, 13, -1, 15, 17, 19, 21, 23, 25, 27, 29, 31, 33, 35, 37, 39, 41, 43, 45, -1, 47, 49, 51, 53, -1, -1, -1, -1, -1, -1, -1, -1, -1, -1, -1, -1, -1, -1, -1, -1, -1, -1, -1, -1, -1, -1, -1, -1, -1, -1], "loss_changes": [2359.5354, 1315.1587, 599.14636, 129.23608, 1206.855, 170.08728, 50.819458, 0.0, 71.106384, 331.12286, 31.224365, 148.14429, 56.83042, 9.391769, 29.225056, 43.474915, 2.6888123, 231.85812, 361.10675, 121.3876, 9.696777, 64.61389, 148.75244, 39.42438, 0.0, 15.749031, 1.9154053, 16.11635, 9.405441, 0.0, 0.0, 0.0, 0.0, 0.0, 0.0, 0.0, 0.0, 0.0, 0.0, 0.0, 0.0, 0.0, 0.0, 0.0, 0.0, 0.0, 0.0, 0.0, 0.0, 0.0, 0.0, 0.0, 0.0, 0.0, 0.0], "parents": [2147483647, 0, 0, 1, 1, 2, 2, 3, 3, 4, 4, 5, 5, 6, 6, 8, 8, 9, 9, 10, 10, 11, 11, 12, 12, 13, 13, 14, 14, 15, 15, 16, 16, 17, 17, 18, 18, 19, 19, 20, 20, 21, 21, 22, 22, 23, 23, 25, 25, 26, 26, 27, 27, 28, 28], "right_children": [2, 4, 6, 8, 10, 12, 14, -1, 16, 18, 20, 22, 24, 26, 28, 30, 32, 34, 36, 38, 40, 42, 44, 46, -1, 48, 50, 52, 54, -1, -1, -1, -1, -1, -1, -1, -1, -1, -1, -1, -1, -1, -1, -1, -1, -1, -1, -1, -1, -1, -1, -1, -1, -1, -1], "split_conditions": [1.0, 180.50146, 1.0, 1.0, 1.0, 8.0, 490.29727, 0.08174147, 1.0, 9.0, 1.0, 180.50146, 801.734, 2.0, 3.0, 1.0, 33.0, 237.2561, 781.48486, 51.0, 0.42857143, 2.0, 20.0, 11.0, -0.07926822, 5.0, 3.0, 1450.4363, 1.0, 0.047851622, 0.013102303, 0.07865914, 0.042515215, -0.01757094, -0.06980241, 0.010088983, -0.053846806, 0.05900463, -0.0013808951, 0.07181386, 0.051528502, -0.036482226, -0.0011532849, -0.06986219, -0.041219145, -0.004994524, 0.047290724, -0.032408945, 0.05564445, 0.059173863, 0.078611545, 0.0024139322, -0.080235645, 0.028768975, 0.077586524], "split_indices": [17, 2, 18, 15, 18, 15, 2, 0, 18, 4, 5, 2, 2, 15, 18, 27, 5, 0, 2, 4, 17, 15, 4, 5, 0, 3, 18, 2, 5, 0, 0, 0, 0, 0, 0, 0, 0, 0, 0, 0, 0, 0, 0, 0, 0, 0, 0, 0, 0, 0, 0, 0, 0, 0, 0], "split_type": [0, 0, 0, 0, 0, 0, 0, 0, 0, 0, 0, 0, 0, 0, 0, 0, 0, 0, 0, 0, 0, 0, 0, 0, 0, 0, 0, 0, 0, 0, 0, 0, 0, 0, 0, 0, 0, 0, 0, 0, 0, 0, 0, 0, 0, 0, 0, 0, 0, 0, 0, 0, 0, 0, 0], "sum_hessian": [7882.9785, 5035.57, 2847.409, 1348.7089, 3686.861, 2606.8936, 240.51529, 537.68243, 811.0264, 2787.2207, 899.6402, 2438.933, 167.9606, 122.38495, 118.13033, 624.5979, 186.42853, 951.99963, 1835.2212, 536.6551, 362.98505, 582.259, 1856.6741, 151.11682, 16.843777, 22.674717, 99.710236, 71.10276, 47.027573, 514.4217, 110.17622, 177.201, 9.22751, 632.20575, 319.79388, 1579.5046, 255.71657, 433.78546, 102.86966, 270.13193, 92.85312, 388.2806, 193.97838, 807.34644, 1049.3276, 93.674225, 57.4426, 6.428774, 16.245943, 57.792572, 41.917664, 65.62731, 5.4754515, 32.206398, 14.821174], "tree_param": {"num_deleted": "0", "num_feature": "30", "num_nodes": "55", "size_leaf_vector": "1"}}, {"base_weights": [-0.0054228534, 0.39532074, -0.7179803, 1.1977209, 0.10189674, -0.8346332, 0.63356525, 0.07928583, 0.9373702, -0.20091848, 1.0761454, -1.0386649, -0.3816131, 1.091914, 0.20012563, 0.7640804, 1.4977438, -0.6276806, 0.020228589, 0.9156613, 1.2971677, -0.9565058, -1.5219706, -0.4763157, 0.7668781, 1.1483892, -0.0026091281, -0.1182989, 0.9401743, 0.023442926, 0.04708266, 0.07633317, 0.04748882, -0.014241092, -0.065602615, 0.010252182, -0.053225428, 0.056866825, -0.004595433, 0.05770601, 0.072418675, -0.053215753, 0.012775794, -0.06704777, -0.08012458, 0.016347438, -0.031768057, -0.0054429076, 0.05914215, 0.047736134, 0.07394883, 0.00017342366, -0.07988104, 0.027770624, 0.07064566], "categories": [], "categories_nodes": [], "categories_segments": [], "categories_sizes": [], "default_left": [0, 0, 0, 0, 0, 0, 0, 0, 0, 0, 0, 0, 0, 0, 0, 0, 0, 0, 0, 0, 0, 0, 0, 0, 0, 0, 0, 0, 0, 0, 0, 0, 0, 0, 0, 0, 0, 0, 0, 0, 0, 0, 0, 0, 0, 0, 0, 0, 0, 0, 0, 0, 0, 0, 0], "id": 6, "left_children": [1, 3, 5, 7, 9, 11, 13, -1, 15, 17, 19, 21, 23, 25, 27, 29, 31, 33, 35, 37, 39, 41, 43, 45, 47, 49, -1, 51, 53, -1, -1, -1, -1, -1, -1, -1, -1, -1, -1, -1, -1, -1, -1, -1, -1, -1, -1, -1, -1, -1, -1, -1, -1, -1, -1], "loss_changes": [2209.895, 1166.0962, 439.73096, 132.48218, 1070.5562, 236.67163, 43.866173, 0.0, 76.163635, 261.30737, 29.332336, 68.73999, 87.16269, 7.014099, 27.275724, 31.542633, 1.5133362, 221.37054, 366.00488, 112.20242, 6.1053467, 198.05469, 1.5702515, 94.47238, 22.413055, 5.157364, 0.0, 14.683616, 5.543335, 0.0, 0.0, 0.0, 0.0, 0.0, 0.0, 0.0, 0.0, 0.0, 0.0, 0.0, 0.0, 0.0, 0.0, 0.0, 0.0, 0.0, 0.0, 0.0, 0.0, 0.0, 0.0, 0.0, 0.0, 0.0, 0.0], "parents": [2147483647, 0, 0, 1, 1, 2, 2, 3, 3, 4, 4, 5, 5, 6, 6, 8, 8, 9, 9, 10, 10, 11, 11, 12, 12, 13, 13, 14, 14, 15, 15, 16, 16, 17, 17, 18, 18, 19, 19, 20, 20, 21, 21, 22, 22, 23, 23, 24, 24, 25, 25, 27, 27, 28, 28], "right_children": [2, 4, 6, 8, 10, 12, 14, -1, 16, 18, 20, 22, 24, 26, 28, 30, 32, 34, 36, 38, 40, 42, 44, 46, 48, 50, -1, 52, 54, -1, -1, -1, -1, -1, -1, -1, -1, -1, -1, -1, -1, -1, -1, -1, -1, -1, -1, -1, -1, -1, -1, -1, -1, -1, -1], "split_conditions": [1.0, 180.50146, 1.0, 1.0, 1.0, 2.0, 487.11014, 0.07928583, 1.0, 9.0, 1.0, 833.2936, 21.0, 684.65405, 4.0, 2.0, 33.0, 237.2561, 1004.5344, 51.0, 4.0, 730.5307, 1221.485, 120.73138, 2.0, 3.0, -0.0026091281, 1537.3597, 2.0, 0.023442926, 0.04708266, 0.07633317, 0.04748882, -0.014241092, -0.065602615, 0.010252182, -0.053225428, 0.056866825, -0.004595433, 0.05770601, 0.072418675, -0.053215753, 0.012775794, -0.06704777, -0.08012458, 0.016347438, -0.031768057, -0.0054429076, 0.05914215, 0.047736134, 0.07394883, 0.00017342366, -0.07988104, 0.027770624, 0.07064566], "split_indices": [17, 2, 18, 15, 18, 9, 2, 0, 18, 4, 5, 2, 9, 0, 18, 9, 5, 0, 0, 4, 18, 2, 2, 2, 5, 18, 0, 2, 5, 0, 0, 0, 0, 0, 0, 0, 0, 0, 0, 0, 0, 0, 0, 0, 0, 0, 0, 0, 0, 0, 0, 0, 0, 0, 0], "split_type": [0, 0, 0, 0, 0, 0, 0, 0, 0, 0, 0, 0, 0, 0, 0, 0, 0, 0, 0, 0, 0, 0, 0, 0, 0, 0, 0, 0, 0, 0, 0, 0, 0, 0, 0, 0, 0, 0, 0, 0, 0, 0, 0, 0, 0, 0, 0, 0, 0, 0, 0, 0, 0, 0, 0], "sum_hessian": [7737.011, 4952.2837, 2784.7278, 1325.2258, 3627.0576, 2563.8247, 220.90295, 530.11505, 795.1108, 2767.6216, 859.43616, 1766.7986, 797.0261, 106.628, 114.274956, 609.1125, 185.99826, 944.0287, 1823.5928, 500.8859, 358.5503, 1512.638, 254.16066, 736.85187, 60.17428, 101.60862, 5.0193806, 80.48458, 33.790367, 230.13841, 378.9741, 174.97757, 11.020701, 629.88367, 314.14502, 1558.8163, 264.7766, 410.45334, 90.43253, 188.6818, 169.8685, 1389.1914, 123.446625, 83.685234, 170.47542, 121.60845, 615.2434, 19.6156, 40.558678, 66.52471, 35.083908, 75.285286, 5.1993, 19.827593, 13.962776], "tree_param": {"num_deleted": "0", "num_feature": "30", "num_nodes": "55", "size_leaf_vector": "1"}}, {"base_weights": [-0.0043625026, 0.37705725, -0.6896942, 0.0774283, 0.23711844, -0.80246675, 0.5852552, -0.018902574, 1.0828282, -1.0002469, -0.3702379, 0.22641101, 1.1387444, -0.16889566, 0.61130387, 1.274656, 0.888519, -0.92654973, -1.4920918, -0.48974678, 0.6661136, 0.32848802, -0.08363201, 1.2181586, -0.0013970411, -0.004411872, -0.046433564, 0.033474386, -0.06835669, 0.06831073, 0.050691824, -0.015775997, 0.055284984, -0.051230885, -0.017115619, -0.0760569, -0.043888357, -0.031735953, -0.009474437, 0.0040358417, 0.04477103, -0.0012639761, 0.035577994, 0.04800223, 0.07027091], "categories": [], "categories_nodes": [], "categories_segments": [], "categories_sizes": [], "default_left": [0, 0, 0, 0, 0, 0, 0, 0, 0, 0, 0, 0, 0, 0, 0, 0, 0, 0, 0, 0, 0, 0, 0, 0, 0, 0, 0, 0, 0, 0, 0, 0, 0, 0, 0, 0, 0, 0, 0, 0, 0, 0, 0, 0, 0], "id": 7, "left_children": [1, 3, 5, -1, 7, 9, 11, 13, 15, 17, 19, 21, 23, 25, 27, 29, 31, 33, 35, 37, 39, 41, -1, 43, -1, -1, -1, -1, -1, -1, -1, -1, -1, -1, -1, -1, -1, -1, -1, -1, -1, -1, -1, -1, -1], "loss_changes": [2022.958, 814.7213, 398.3192, 0.0, 961.9164, 216.99048, 44.519043, 322.54868, 37.348267, 61.82715, 99.3846, 27.304398, 8.226715, 168.82083, 76.43077, 10.965881, 135.32498, 86.6936, 2.6904297, 31.119965, 11.085194, 17.881315, 0.0, 2.6533966, 0.0, 0.0, 0.0, 0.0, 0.0, 0.0, 0.0, 0.0, 0.0, 0.0, 0.0, 0.0, 0.0, 0.0, 0.0, 0.0, 0.0, 0.0, 0.0, 0.0, 0.0], "parents": [2147483647, 0, 0, 1, 1, 2, 2, 4, 4, 5, 5, 6, 6, 7, 7, 8, 8, 9, 9, 10, 10, 11, 11, 12, 12, 13, 13, 14, 14, 15, 15, 16, 16, 17, 17, 18, 18, 19, 19, 20, 20, 21, 21, 23, 23], "right_children": [2, 4, 6, -1, 8, 10, 12, 14, 16, 18, 20, 22, 24, 26, 28, 30, 32, 34, 36, 38, 40, 42, -1, 44, -1, -1, -1, -1, -1, -1, -1, -1, -1, -1, -1, -1, -1, -1, -1, -1, -1, -1, -1, -1, -1], "split_conditions": [1.0, 1.0, 1.0, 0.0774283, 1.0, 2.0, 6.0, 5.0, 446.7219, 34.505764, 17.0, 1750.2628, 26.0, 1004.5344, 1.0, 0.48387095, 1.0, 729.2528, 3.0, 17.0, 8.0, 2.0, -0.08363201, 3.0, -0.0013970411, -0.004411872, -0.046433564, 0.033474386, -0.06835669, 0.06831073, 0.050691824, -0.015775997, 0.055284984, -0.051230885, -0.017115619, -0.0760569, -0.043888357, -0.031735953, -0.009474437, 0.0040358417, 0.04477103, -0.0012639761, 0.035577994, 0.04800223, 0.07027091], "split_indices": [17, 15, 18, 0, 18, 9, 15, 9, 0, 1, 15, 0, 13, 0, 12, 17, 7, 0, 17, 7, 7, 18, 0, 18, 0, 0, 0, 0, 0, 0, 0, 0, 0, 0, 0, 0, 0, 0, 0, 0, 0, 0, 0, 0, 0], "split_type": [0, 0, 0, 0, 0, 0, 0, 0, 0, 0, 0, 0, 0, 0, 0, 0, 0, 0, 0, 0, 0, 0, 0, 0, 0, 0, 0, 0, 0, 0, 0, 0, 0, 0, 0, 0, 0, 0, 0, 0, 0, 0, 0, 0, 0], "sum_hessian": [7736.969, 4970.885, 2766.0845, 529.34717, 4441.5376, 2541.6404, 224.44402, 3410.1602, 1031.3774, 1742.8359, 798.8045, 137.01924, 87.424774, 2755.1494, 655.01086, 516.2046, 515.1728, 1518.2308, 224.60518, 716.6859, 82.11861, 130.81476, 6.204475, 81.81187, 5.612909, 2491.7407, 263.40857, 636.9407, 18.070183, 378.94217, 137.26244, 78.65585, 436.5169, 1299.3696, 218.86115, 213.0555, 11.549682, 482.57324, 234.11267, 23.493685, 58.62492, 68.49423, 62.32053, 36.974262, 44.8376], "tree_param": {"num_deleted": "0", "num_feature": "30", "num_nodes": "45", "size_leaf_vector": "1"}}, {"base_weights": [0.004492142, -0.18966556, 0.9851132, 0.075070284, -0.32144797, 1.3342826, 0.83897114, -0.4720293, 0.33033398, 1.3564619, 0.0066619455, 0.42618114, 1.0542443, -0.026044352, -0.825279, 0.5756432, -0.16814421, 0.0740132, 1.2771792, 0.22500764, 1.0043181, 0.8937449, 1.2784373, 0.049423948, -0.0077286996, -0.016999612, -0.047771033, 0.034733083, -0.017069485, -6.7619425e-05, -0.04217414, 0.017871419, 0.067039035, 0.017429985, -0.055190958, 0.05553466, 0.018323997, 0.056378633, -0.01860853, 0.06607375, 0.03108587], "categories": [], "categories_nodes": [], "categories_segments": [], "categories_sizes": [], "default_left": [0, 0, 0, 0, 0, 0, 0, 0, 0, 0, 0, 0, 0, 0, 0, 0, 0, 0, 0, 0, 0, 0, 0, 0, 0, 0, 0, 0, 0, 0, 0, 0, 0, 0, 0, 0, 0, 0, 0, 0, 0], "id": 8, "left_children": [1, 3, 5, -1, 7, 9, 11, 13, 15, 17, -1, 19, 21, 23, 25, 27, 29, -1, 31, 33, 35, 37, 39, -1, -1, -1, -1, -1, -1, -1, -1, -1, -1, -1, -1, -1, -1, -1, -1, -1, -1], "loss_changes": [1464.8202, 1431.6628, 63.76477, 0.0, 584.9709, 9.767883, 79.44336, 762.6111, 136.91174, 1.7077026, 0.0, 35.80991, 20.095276, 279.27585, 170.27112, 82.10269, 41.65173, 0.0, 13.02002, 38.346077, 5.0001526, 103.22125, 6.0726624, 0.0, 0.0, 0.0, 0.0, 0.0, 0.0, 0.0, 0.0, 0.0, 0.0, 0.0, 0.0, 0.0, 0.0, 0.0, 0.0, 0.0, 0.0], "parents": [2147483647, 0, 0, 1, 1, 2, 2, 4, 4, 5, 5, 6, 6, 7, 7, 8, 8, 9, 9, 11, 11, 12, 12, 13, 13, 14, 14, 15, 15, 16, 16, 18, 18, 19, 19, 20, 20, 21, 21, 22, 22], "right_children": [2, 4, 6, -1, 8, 10, 12, 14, 16, 18, -1, 20, 22, 24, 26, 28, 30, -1, 32, 34, 36, 38, 40, -1, -1, -1, -1, -1, -1, -1, -1, -1, -1, -1, -1, -1, -1, -1, -1, -1, -1], "split_conditions": [1.0, 1.0, 338.57208, 0.075070284, 4.0, 15.0, 2.0, 1.0, 514.68304, 1.0, 0.0066619455, 5.0, 1.0, 113.15061, 173.54332, 1.0, 758.2178, 0.0740132, 2.0, 1352.5061, 1501.0, 45.0, 2.0, 0.049423948, -0.0077286996, -0.016999612, -0.047771033, 0.034733083, -0.017069485, -6.7619425e-05, -0.04217414, 0.017871419, 0.067039035, 0.017429985, -0.055190958, 0.05553466, 0.018323997, 0.056378633, -0.01860853, 0.06607375, 0.03108587], "split_indices": [18, 20, 2, 0, 9, 26, 18, 16, 2, 10, 0, 5, 5, 2, 2, 27, 2, 0, 9, 0, 4, 4, 20, 0, 0, 0, 0, 0, 0, 0, 0, 0, 0, 0, 0, 0, 0, 0, 0, 0, 0], "split_type": [0, 0, 0, 0, 0, 0, 0, 0, 0, 0, 0, 0, 0, 0, 0, 0, 0, 0, 0, 0, 0, 0, 0, 0, 0, 0, 0, 0, 0, 0, 0, 0, 0, 0, 0, 0, 0, 0, 0, 0, 0], "sum_hessian": [7691.599, 6421.069, 1270.5306, 463.457, 5957.612, 372.47226, 898.05835, 4839.7573, 1117.8544, 365.5916, 6.8806477, 308.83728, 589.22107, 2139.5745, 2700.1829, 749.07007, 368.7844, 135.82544, 229.76617, 230.14369, 78.69358, 346.29532, 242.92574, 239.83035, 1899.7441, 571.75836, 2128.4246, 663.23376, 85.83627, 296.54672, 72.237656, 15.289008, 214.47716, 211.23476, 18.908941, 66.81004, 11.883542, 292.396, 53.899307, 227.0349, 15.890852], "tree_param": {"num_deleted": "0", "num_feature": "30", "num_nodes": "41", "size_leaf_vector": "1"}}, {"base_weights": [0.008658692, 0.35082498, -0.60089153, 0.07367326, 0.22007658, -0.715428, 0.62432766, -0.015159017, 1.0094678, -0.9127601, -0.2930633, 0.2607223, 0.985867, -0.1486439, 0.55978394, 1.0537823, 0.20957172, -0.8314159, -1.3607894, -0.39843857, 0.6210506, -0.26897374, 0.7329598, -0.016607715, 1.0516005, -0.02242938, 0.0026324203, 0.03059861, -0.073785335, 0.0421779, 0.059068393, 0.04012142, -0.055452537, -0.04674486, -0.010465808, -0.07118174, -0.0352422, -0.028578172, -0.007949202, 0.0029387118, 0.045881595, -0.0379362, 0.033631954, 0.0423849, -0.006904982, 0.05567637, 0.0110658975], "categories": [], "categories_nodes": [], "categories_segments": [], "categories_sizes": [], "default_left": [0, 0, 0, 0, 0, 0, 0, 0, 0, 0, 0, 0, 0, 0, 0, 0, 0, 0, 0, 0, 0, 0, 0, 0, 0, 0, 0, 0, 0, 0, 0, 0, 0, 0, 0, 0, 0, 0, 0, 0, 0, 0, 0, 0, 0, 0, 0], "id": 9, "left_children": [1, 3, 5, -1, 7, 9, 11, 13, 15, 17, 19, 21, 23, 25, 27, 29, 31, 33, 35, 37, 39, 41, 43, -1, 45, -1, -1, -1, -1, -1, -1, -1, -1, -1, -1, -1, -1, -1, -1, -1, -1, -1, -1, -1, -1, -1, -1], "loss_changes": [1593.8243, 718.0838, 385.99762, 0.0, 814.2711, 209.18164, 30.689667, 259.42688, 35.464355, 61.272827, 77.47087, 29.896595, 10.545013, 165.65396, 68.56438, 24.581177, 43.177536, 93.26257, 9.778259, 29.733963, 13.829693, 26.654242, 6.417324, 0.0, 5.5292816, 0.0, 0.0, 0.0, 0.0, 0.0, 0.0, 0.0, 0.0, 0.0, 0.0, 0.0, 0.0, 0.0, 0.0, 0.0, 0.0, 0.0, 0.0, 0.0, 0.0, 0.0, 0.0], "parents": [2147483647, 0, 0, 1, 1, 2, 2, 4, 4, 5, 5, 6, 6, 7, 7, 8, 8, 9, 9, 10, 10, 11, 11, 12, 12, 13, 13, 14, 14, 15, 15, 16, 16, 17, 17, 18, 18, 19, 19, 20, 20, 21, 21, 22, 22, 24, 24], "right_children": [2, 4, 6, -1, 8, 10, 12, 14, 16, 18, 20, 22, 24, 26, 28, 30, 32, 34, 36, 38, 40, 42, 44, -1, 46, -1, -1, -1, -1, -1, -1, -1, -1, -1, -1, -1, -1, -1, -1, -1, -1, -1, -1, -1, -1, -1, -1], "split_conditions": [1.0, 1.0, 1.0, 0.07367326, 1.0, 2.0, 2.0, 5.0, 2.0, 1.0, 17.0, 2.0, 1.0, 11.0, 1.0, 2.0, 2.0, 733.8827, 1.0, 8.0, 26.0, 8.0, 24.0, -0.016607715, 1.6752137, -0.02242938, 0.0026324203, 0.03059861, -0.073785335, 0.0421779, 0.059068393, 0.04012142, -0.055452537, -0.04674486, -0.010465808, -0.07118174, -0.0352422, -0.028578172, -0.007949202, 0.0029387118, 0.045881595, -0.0379362, 0.033631954, 0.0423849, -0.006904982, 0.05567637, 0.0110658975], "split_indices": [17, 15, 18, 0, 18, 9, 9, 9, 20, 12, 15, 18, 11, 4, 13, 18, 9, 0, 22, 7, 6, 6, 26, 0, 17, 0, 0, 0, 0, 0, 0, 0, 0, 0, 0, 0, 0, 0, 0, 0, 0, 0, 0, 0, 0, 0, 0], "split_type": [0, 0, 0, 0, 0, 0, 0, 0, 0, 0, 0, 0, 0, 0, 0, 0, 0, 0, 0, 0, 0, 0, 0, 0, 0, 0, 0, 0, 0, 0, 0, 0, 0, 0, 0, 0, 0, 0, 0, 0, 0, 0, 0, 0, 0, 0, 0], "sum_hessian": [7639.756, 4893.3413, 2746.4148, 509.3822, 4383.959, 2512.0027, 234.41202, 3378.238, 1005.7212, 1711.306, 800.69666, 117.7302, 116.681816, 2742.2983, 635.9397, 952.6279, 53.09322, 1450.7616, 260.5445, 718.4418, 82.25485, 55.6922, 62.038002, 5.350276, 111.331535, 1100.7914, 1641.507, 620.7242, 15.215499, 362.66757, 589.9604, 36.896088, 16.19713, 1243.4249, 207.3366, 236.6965, 23.847986, 416.16727, 302.2745, 28.818048, 53.436806, 36.76452, 18.927677, 54.841022, 7.196979, 103.28671, 8.044824], "tree_param": {"num_deleted": "0", "num_feature": "30", "num_nodes": "47", "size_leaf_vector": "1"}}, {"base_weights": [0.0009244908, 0.33690083, -0.60064495, 1.0823232, 0.07281786, -0.70663, 0.5621246, 0.071582094, 0.8679075, -0.179076, 0.9048345, -0.84374094, -0.23244847, 1.1619058, 0.21815017, 0.73674005, 1.3460407, -0.5743744, -0.0034510763, 0.6620095, 1.0392072, -0.76937956, -1.382618, 0.40872148, -0.4571672, 0.9522394, 0.06879938, -0.09618994, 0.7255572, 0.024129117, 0.044536285, 0.06871863, 0.03280775, -0.015722591, -0.06364438, 0.0074656988, -0.050342422, 0.05972589, 0.02612465, 0.054836877, 0.010985808, -0.043204334, 0.016533805, -0.0591153, -0.073814414, -0.019432217, 0.028261809, -0.044374105, 0.0038311759, 0.059201874, 0.0101010455, -0.018730616, 0.024027525, 0.015557485, 0.051937442], "categories": [], "categories_nodes": [], "categories_segments": [], "categories_sizes": [], "default_left": [0, 0, 0, 0, 0, 0, 0, 0, 0, 0, 0, 0, 0, 0, 0, 0, 0, 0, 0, 0, 0, 0, 0, 0, 0, 0, 0, 0, 0, 0, 0, 0, 0, 0, 0, 0, 0, 0, 0, 0, 0, 0, 0, 0, 0, 0, 0, 0, 0, 0, 0, 0, 0, 0, 0], "id": 10, "left_children": [1, 3, 5, 7, 9, 11, 13, -1, 15, 17, 19, 21, 23, 25, 27, 29, 31, 33, 35, 37, 39, 41, 43, 45, 47, 49, -1, 51, 53, -1, -1, -1, -1, -1, -1, -1, -1, -1, -1, -1, -1, -1, -1, -1, -1, -1, -1, -1, -1, -1, -1, -1, -1, -1, -1], "loss_changes": [1524.4918, 952.644, 333.5052, 93.579346, 749.3614, 160.8899, 46.445, 0.0, 48.366272, 190.55711, 26.424133, 75.93567, 80.456894, 2.3824081, 23.210375, 23.826935, 2.386078, 152.89978, 291.61948, 21.57193, 24.894958, 176.43762, 2.6029968, 18.32949, 94.93304, 7.5532, 0.0, 14.707167, 6.895048, 0.0, 0.0, 0.0, 0.0, 0.0, 0.0, 0.0, 0.0, 0.0, 0.0, 0.0, 0.0, 0.0, 0.0, 0.0, 0.0, 0.0, 0.0, 0.0, 0.0, 0.0, 0.0, 0.0, 0.0, 0.0, 0.0], "parents": [2147483647, 0, 0, 1, 1, 2, 2, 3, 3, 4, 4, 5, 5, 6, 6, 8, 8, 9, 9, 10, 10, 11, 11, 12, 12, 13, 13, 14, 14, 15, 15, 16, 16, 17, 17, 18, 18, 19, 19, 20, 20, 21, 21, 22, 22, 23, 23, 24, 24, 25, 25, 27, 27, 28, 28], "right_children": [2, 4, 6, 8, 10, 12, 14, -1, 16, 18, 20, 22, 24, 26, 28, 30, 32, 34, 36, 38, 40, 42, 44, 46, 48, 50, -1, 52, 54, -1, -1, -1, -1, -1, -1, -1, -1, -1, -1, -1, -1, -1, -1, -1, -1, -1, -1, -1, -1, -1, -1, -1, -1, -1, -1], "split_conditions": [1.0, 180.50146, 1.0, 1.0, 1.0, 3.0, 217.65613, 0.071582094, 1.0, 2.0, 2.0, 833.2936, 180.50146, 7.0, 6.0, 2.0, 33.0, 15.207463, 781.48486, 389.29593, 2.0, 730.5307, 1221.485, 3.0, 17.0, 1.25, 0.06879938, 2.0, 3.0, 0.024129117, 0.044536285, 0.06871863, 0.03280775, -0.015722591, -0.06364438, 0.0074656988, -0.050342422, 0.05972589, 0.02612465, 0.054836877, 0.010985808, -0.043204334, 0.016533805, -0.0591153, -0.073814414, -0.019432217, 0.028261809, -0.044374105, 0.0038311759, 0.059201874, 0.0101010455, -0.018730616, 0.024027525, 0.015557485, 0.051937442], "split_indices": [17, 2, 18, 15, 18, 10, 2, 0, 18, 3, 18, 2, 2, 16, 15, 15, 5, 1, 2, 2, 20, 2, 2, 15, 7, 17, 0, 14, 18, 0, 0, 0, 0, 0, 0, 0, 0, 0, 0, 0, 0, 0, 0, 0, 0, 0, 0, 0, 0, 0, 0, 0, 0, 0, 0], "split_type": [0, 0, 0, 0, 0, 0, 0, 0, 0, 0, 0, 0, 0, 0, 0, 0, 0, 0, 0, 0, 0, 0, 0, 0, 0, 0, 0, 0, 0, 0, 0, 0, 0, 0, 0, 0, 0, 0, 0, 0, 0, 0, 0, 0, 0, 0, 0, 0, 0, 0, 0, 0, 0, 0, 0], "sum_hessian": [7540.764, 4838.759, 2702.0054, 1264.9915, 3573.7676, 2476.6538, 225.35165, 478.9788, 786.0127, 2743.849, 829.91833, 1920.5436, 556.11017, 81.26816, 144.0835, 618.7973, 167.21538, 843.3525, 1900.4967, 297.76105, 532.1573, 1689.7914, 230.75217, 144.11133, 411.9988, 43.80988, 37.45828, 89.468155, 54.615345, 235.02153, 383.77576, 159.66615, 7.5492244, 615.6968, 227.65569, 1650.1207, 250.37605, 60.247135, 237.51392, 496.93307, 35.2242, 1556.0416, 133.74983, 77.863976, 152.8882, 23.402735, 120.708595, 227.74213, 184.2567, 33.027103, 10.782778, 60.575634, 28.89252, 24.367, 30.248344], "tree_param": {"num_deleted": "0", "num_feature": "30", "num_nodes": "55", "size_leaf_vector": "1"}}, {"base_weights": [-0.020564944, 0.29485095, -0.58421624, 0.07069998, 0.16982812, -0.6848196, 0.52330947, -0.050685063, 0.9396614, -0.87244993, -0.28516683, 0.21332932, 0.95304227, -0.17283572, 0.5682634, 1.1235383, 0.7631204, -0.7978642, -1.300476, -0.3803953, 0.63988245, 0.4422513, -0.39454904, 0.6340464, 1.2123581, -0.0049291607, -0.044168595, 0.031015662, -0.056832165, 0.060061943, 0.045733158, -0.013164838, 0.04782473, -0.044278286, -0.007123238, -0.06827344, -0.03595331, -0.025974875, -0.006839275, 0.037324365, -0.033468362, -0.002633659, 0.040533897, -0.07548334, 0.017825428, 0.042499833, 0.00040619975, 0.06391607, 0.029261762], "categories": [], "categories_nodes": [], "categories_segments": [], "categories_sizes": [], "default_left": [0, 0, 0, 0, 0, 0, 0, 0, 0, 0, 0, 0, 0, 0, 0, 0, 0, 0, 0, 0, 0, 0, 0, 0, 0, 0, 0, 0, 0, 0, 0, 0, 0, 0, 0, 0, 0, 0, 0, 0, 0, 0, 0, 0, 0, 0, 0, 0, 0], "id": 11, "left_children": [1, 3, 5, -1, 7, 9, 11, 13, 15, 17, 19, 21, 23, 25, 27, 29, 31, 33, 35, 37, 39, 41, 43, 45, 47, -1, -1, -1, -1, -1, -1, -1, -1, -1, -1, -1, -1, -1, -1, -1, -1, -1, -1, -1, -1, -1, -1, -1, -1], "loss_changes": [1321.5845, 666.67456, 297.5432, 0.0, 728.074, 183.13623, 29.458584, 252.21358, 30.142456, 52.076782, 69.20224, 18.355167, 6.926285, 146.88812, 49.499786, 6.458557, 97.57132, 81.46234, 8.287598, 24.001228, 10.749506, 17.434435, 30.914888, 5.9145737, 1.3291473, 0.0, 0.0, 0.0, 0.0, 0.0, 0.0, 0.0, 0.0, 0.0, 0.0, 0.0, 0.0, 0.0, 0.0, 0.0, 0.0, 0.0, 0.0, 0.0, 0.0, 0.0, 0.0, 0.0, 0.0], "parents": [2147483647, 0, 0, 1, 1, 2, 2, 4, 4, 5, 5, 6, 6, 7, 7, 8, 8, 9, 9, 10, 10, 11, 11, 12, 12, 13, 13, 14, 14, 15, 15, 16, 16, 17, 17, 18, 18, 19, 19, 20, 20, 21, 21, 22, 22, 23, 23, 24, 24], "right_children": [2, 4, 6, -1, 8, 10, 12, 14, 16, 18, 20, 22, 24, 26, 28, 30, 32, 34, 36, 38, 40, 42, 44, 46, 48, -1, -1, -1, -1, -1, -1, -1, -1, -1, -1, -1, -1, -1, -1, -1, -1, -1, -1, -1, -1, -1, -1, -1, -1], "split_conditions": [1.0, 1.0, 1.0, 0.07069998, 1.0, 2.0, 5.0, 6.0, 446.7219, 1.0, 17.0, 956.54987, 3.0, 1004.5344, 2.0, 0.48387095, 1.0, 750.89075, 2.0, 12.0, 1.6666666, 9.0, 2.0, 1.0, 1207.1923, -0.0049291607, -0.044168595, 0.031015662, -0.056832165, 0.060061943, 0.045733158, -0.013164838, 0.04782473, -0.044278286, -0.007123238, -0.06827344, -0.03595331, -0.025974875, -0.006839275, 0.037324365, -0.033468362, -0.002633659, 0.040533897, -0.07548334, 0.017825428, 0.042499833, 0.00040619975, 0.06391607, 0.029261762], "split_indices": [17, 15, 18, 0, 18, 9, 15, 9, 0, 12, 15, 0, 18, 0, 20, 17, 7, 0, 20, 7, 17, 4, 14, 26, 0, 0, 0, 0, 0, 0, 0, 0, 0, 0, 0, 0, 0, 0, 0, 0, 0, 0, 0, 0, 0, 0, 0, 0, 0], "split_type": [0, 0, 0, 0, 0, 0, 0, 0, 0, 0, 0, 0, 0, 0, 0, 0, 0, 0, 0, 0, 0, 0, 0, 0, 0, 0, 0, 0, 0, 0, 0, 0, 0, 0, 0, 0, 0, 0, 0, 0, 0, 0, 0, 0, 0, 0, 0, 0, 0], "sum_hessian": [7431.66, 4765.4307, 2666.2295, 477.8269, 4287.6035, 2444.5571, 221.67249, 3333.6404, 953.96313, 1662.7434, 781.8136, 129.64894, 92.023544, 2784.7798, 548.86084, 464.64563, 489.31747, 1418.4374, 244.30603, 709.3762, 72.43738, 94.379036, 35.2699, 42.80827, 49.215275, 2522.3298, 262.44995, 533.21814, 15.642684, 335.20123, 129.4444, 77.51444, 411.80304, 1250.7223, 167.71515, 218.52924, 25.7768, 450.82224, 258.55396, 67.380775, 5.056606, 40.641064, 53.737976, 13.788158, 21.481745, 31.561281, 11.246986, 43.59173, 5.623546], "tree_param": {"num_deleted": "0", "num_feature": "30", "num_nodes": "49", "size_leaf_vector": "1"}}, {"base_weights": [-0.0014436629, 0.31362396, -0.5697107, 1.0291678, 0.06355632, -0.66886955, 0.5190056, 0.06853611, 0.8238685, -0.16269071, 0.8456268, -0.74337834, 0.30501464, 1.0480549, 0.13039538, 0.70112216, 1.2772092, -0.6093768, 0.06421083, 0.5587515, 1.001651, -0.33565056, -0.87346673, -0.015239628, 0.7943965, 0.54040843, 1.164721, -0.17272015, 0.8266727, 0.023171788, 0.042186826, 0.06542383, 0.036409583, -0.015053301, -0.060802985, 0.010444882, -0.043497592, 0.021880465, 0.053915728, 0.052401602, 0.008885629, -0.021195056, 0.011327211, -0.0607539, -0.032633558, 0.006866564, -0.07048724, 0.049911145, 0.005825525, -0.025637567, 0.049118772, 0.0655787, 0.049659453, 0.006981205, -0.03710943, 0.025179056, 0.06803784], "categories": [], "categories_nodes": [], "categories_segments": [], "categories_sizes": [], "default_left": [0, 0, 0, 0, 0, 0, 0, 0, 0, 0, 0, 0, 0, 0, 0, 0, 0, 0, 0, 0, 0, 0, 0, 0, 0, 0, 0, 0, 0, 0, 0, 0, 0, 0, 0, 0, 0, 0, 0, 0, 0, 0, 0, 0, 0, 0, 0, 0, 0, 0, 0, 0, 0, 0, 0, 0, 0], "id": 12, "left_children": [1, 3, 5, 7, 9, 11, 13, -1, 15, 17, 19, 21, 23, 25, 27, 29, 31, 33, 35, 37, 39, 41, 43, 45, 47, 49, 51, 53, 55, -1, -1, -1, -1, -1, -1, -1, -1, -1, -1, -1, -1, -1, -1, -1, -1, -1, -1, -1, -1, -1, -1, -1, -1, -1, -1, -1, -1], "loss_changes": [1335.2894, 858.4347, 287.52032, 85.99219, 629.41095, 177.17004, 45.632042, 0.0, 42.42578, 279.69955, 35.16504, 119.86853, 27.284222, 4.9455185, 27.47097, 20.45108, 1.8738098, 173.50583, 247.61926, 17.367676, 19.521912, 27.363972, 128.70386, 22.780594, 9.396683, 9.559793, 0.60363007, 16.29686, 6.121416, 0.0, 0.0, 0.0, 0.0, 0.0, 0.0, 0.0, 0.0, 0.0, 0.0, 0.0, 0.0, 0.0, 0.0, 0.0, 0.0, 0.0, 0.0, 0.0, 0.0, 0.0, 0.0, 0.0, 0.0, 0.0, 0.0, 0.0, 0.0], "parents": [2147483647, 0, 0, 1, 1, 2, 2, 3, 3, 4, 4, 5, 5, 6, 6, 8, 8, 9, 9, 10, 10, 11, 11, 12, 12, 13, 13, 14, 14, 15, 15, 16, 16, 17, 17, 18, 18, 19, 19, 20, 20, 21, 21, 22, 22, 23, 23, 24, 24, 25, 25, 26, 26, 27, 27, 28, 28], "right_children": [2, 4, 6, 8, 10, 12, 14, -1, 16, 18, 20, 22, 24, 26, 28, 30, 32, 34, 36, 38, 40, 42, 44, 46, 48, 50, 52, 54, 56, -1, -1, -1, -1, -1, -1, -1, -1, -1, -1, -1, -1, -1, -1, -1, -1, -1, -1, -1, -1, -1, -1, -1, -1, -1, -1, -1, -1], "split_conditions": [1.0, 180.50146, 1.0, 1.0, 1.0, 7.0, 345.66635, 0.06853611, 1.0, 9.0, 2.0, 180.50146, 8.0, 2.0, 4.0, 2.0, 33.0, 237.2561, 781.48486, 9.0, 2.0, 3.0, 15.0, 697.62823, 176.0, 5.0, 1.1, 89.0, 1.0, 0.023171788, 0.042186826, 0.06542383, 0.036409583, -0.015053301, -0.060802985, 0.010444882, -0.043497592, 0.021880465, 0.053915728, 0.052401602, 0.008885629, -0.021195056, 0.011327211, -0.0607539, -0.032633558, 0.006866564, -0.07048724, 0.049911145, 0.005825525, -0.025637567, 0.049118772, 0.0655787, 0.049659453, 0.006981205, -0.03710943, 0.025179056, 0.06803784], "split_indices": [17, 2, 18, 9, 18, 9, 2, 0, 18, 4, 18, 2, 5, 9, 18, 9, 5, 0, 2, 9, 20, 9, 4, 0, 3, 3, 17, 4, 5, 0, 0, 0, 0, 0, 0, 0, 0, 0, 0, 0, 0, 0, 0, 0, 0, 0, 0, 0, 0, 0, 0, 0, 0, 0, 0, 0, 0], "split_type": [0, 0, 0, 0, 0, 0, 0, 0, 0, 0, 0, 0, 0, 0, 0, 0, 0, 0, 0, 0, 0, 0, 0, 0, 0, 0, 0, 0, 0, 0, 0, 0, 0, 0, 0, 0, 0, 0, 0, 0, 0, 0, 0, 0, 0, 0, 0, 0, 0, 0, 0, 0, 0, 0, 0, 0, 0], "sum_hessian": [7455.9463, 4796.849, 2659.0972, 1241.4493, 3555.3997, 2437.4802, 221.61696, 463.9325, 777.5169, 2758.2507, 797.149, 2264.4695, 173.01073, 93.131676, 128.48528, 613.8561, 163.66083, 928.56354, 1829.6871, 282.43286, 514.7161, 548.6016, 1715.8679, 105.161385, 67.849335, 18.456112, 74.67557, 90.03961, 38.445667, 231.79213, 382.06393, 153.53354, 10.127292, 616.6724, 311.8911, 1584.9762, 244.71098, 230.5254, 51.907463, 487.02844, 27.687672, 474.38153, 74.220085, 671.8655, 1044.0024, 95.603096, 9.558285, 51.801228, 16.048111, 5.4083757, 13.047735, 36.651234, 38.02433, 58.6344, 31.405209, 25.165068, 13.280601], "tree_param": {"num_deleted": "0", "num_feature": "30", "num_nodes": "57", "size_leaf_vector": "1"}}, {"base_weights": [0.007145809, 0.29327562, -0.5052983, 0.9701072, 0.062483512, -0.6034737, 0.5566272, 0.06745427, 0.7522706, -0.15974219, 0.8205855, -0.79961026, -0.27519286, 1.0568689, 0.3060587, 0.62125033, 1.2501613, -0.54032576, 0.039296795, 0.55143565, 0.9642862, -0.71132886, -1.3014063, 0.39962938, -0.40513602, 0.7990079, 0.06559758, 0.119800754, 0.9412428, 0.04069623, 0.020433173, 0.06407458, 0.020727692, -0.011620914, -0.0583151, 0.00872527, -0.043046746, 0.034584053, 0.0052223075, 0.055220075, 0.03679965, -0.041024502, 0.02715372, -0.0539155, -0.068707354, -0.0060954867, 0.038591646, -0.028089857, 0.013065075, 0.052264113, 0.013375225, 0.015837831, -0.020370238, 0.053162944, 0.01109987], "categories": [], "categories_nodes": [], "categories_segments": [], "categories_sizes": [], "default_left": [0, 0, 0, 0, 0, 0, 0, 0, 0, 0, 0, 0, 0, 0, 0, 0, 0, 0, 0, 0, 0, 0, 0, 0, 0, 0, 0, 0, 0, 0, 0, 0, 0, 0, 0, 0, 0, 0, 0, 0, 0, 0, 0, 0, 0, 0, 0, 0, 0, 0, 0, 0, 0, 0, 0], "id": 13, "left_children": [1, 3, 5, 7, 9, 11, 13, -1, 15, 17, 19, 21, 23, 25, 27, 29, 31, 33, 35, 37, 39, 41, 43, 45, 47, 49, -1, 51, 53, -1, -1, -1, -1, -1, -1, -1, -1, -1, -1, -1, -1, -1, -1, -1, -1, -1, -1, -1, -1, -1, -1, -1, -1, -1, -1], "loss_changes": [1084.7662, 741.5194, 276.69385, 98.63855, 596.7324, 156.0456, 27.86, 0.0, 49.373505, 207.53151, 30.52295, 66.3526, 79.89022, 3.8606567, 17.777386, 24.67781, 3.6358032, 181.05228, 219.19852, 17.593834, 15.888214, 177.59625, 2.1859741, 28.690266, 79.798164, 4.913149, 0.0, 12.389489, 2.7602215, 0.0, 0.0, 0.0, 0.0, 0.0, 0.0, 0.0, 0.0, 0.0, 0.0, 0.0, 0.0, 0.0, 0.0, 0.0, 0.0, 0.0, 0.0, 0.0, 0.0, 0.0, 0.0, 0.0, 0.0, 0.0, 0.0], "parents": [2147483647, 0, 0, 1, 1, 2, 2, 3, 3, 4, 4, 5, 5, 6, 6, 8, 8, 9, 9, 10, 10, 11, 11, 12, 12, 13, 13, 14, 14, 15, 15, 16, 16, 17, 17, 18, 18, 19, 19, 20, 20, 21, 21, 22, 22, 23, 23, 24, 24, 25, 25, 27, 27, 28, 28], "right_children": [2, 4, 6, 8, 10, 12, 14, -1, 16, 18, 20, 22, 24, 26, 28, 30, 32, 34, 36, 38, 40, 42, 44, 46, 48, 50, -1, 52, 54, -1, -1, -1, -1, -1, -1, -1, -1, -1, -1, -1, -1, -1, -1, -1, -1, -1, -1, -1, -1, -1, -1, -1, -1, -1, -1], "split_conditions": [0.95348835, 180.50146, 1.0, 1.0, 1.0, 2.0, 217.65613, 0.06745427, 1.0, 9.0, 2.0, 833.2936, 120.73138, 8.0, 5.0, 113.15061, 86.0, 237.2561, 781.48486, 0.48387095, 989.7595, 730.5307, 1159.0508, 100.56964, 8.0, 94.80746, 0.06559758, 1119.5752, 1319.1768, 0.04069623, 0.020433173, 0.06407458, 0.020727692, -0.011620914, -0.0583151, 0.00872527, -0.043046746, 0.034584053, 0.0052223075, 0.055220075, 0.03679965, -0.041024502, 0.02715372, -0.0539155, -0.068707354, -0.0060954867, 0.038591646, -0.028089857, 0.013065075, 0.052264113, 0.013375225, 0.015837831, -0.020370238, 0.053162944, 0.01109987], "split_indices": [17, 2, 18, 15, 18, 10, 2, 0, 18, 4, 18, 2, 2, 3, 18, 2, 3, 0, 2, 17, 0, 2, 2, 2, 15, 0, 0, 2, 2, 0, 0, 0, 0, 0, 0, 0, 0, 0, 0, 0, 0, 0, 0, 0, 0, 0, 0, 0, 0, 0, 0, 0, 0, 0, 0], "split_type": [0, 0, 0, 0, 0, 0, 0, 0, 0, 0, 0, 0, 0, 0, 0, 0, 0, 0, 0, 0, 0, 0, 0, 0, 0, 0, 0, 0, 0, 0, 0, 0, 0, 0, 0, 0, 0, 0, 0, 0, 0, 0, 0, 0, 0, 0, 0, 0, 0, 0, 0, 0, 0, 0, 0], "sum_hessian": [7396.197, 4746.4067, 2649.7898, 1206.1099, 3540.2969, 2425.9424, 223.8475, 438.33313, 767.77673, 2738.3745, 801.9223, 1517.7208, 908.22156, 73.63092, 150.21658, 609.60626, 158.1705, 939.7529, 1798.6217, 280.80853, 521.1138, 1292.7107, 225.0101, 146.31284, 761.9087, 38.671036, 34.95988, 117.074814, 33.141777, 318.2959, 291.31036, 151.94003, 6.2304716, 630.8294, 308.92346, 1564.4572, 234.16452, 213.3282, 67.48032, 320.54266, 200.57108, 1189.5399, 103.17078, 59.21659, 165.7935, 61.212746, 85.10008, 617.02106, 144.88766, 25.765724, 12.905312, 85.52367, 31.551146, 27.92599, 5.215788], "tree_param": {"num_deleted": "0", "num_feature": "30", "num_nodes": "55", "size_leaf_vector": "1"}}, {"base_weights": [0.013158304, 0.066687234, -0.07050253, -0.23724142, 0.77423364, -0.36607215, 0.29151866, 0.951789, 0.57513195, -0.05257327, -0.6199628, 0.36496738, -0.47054246, 0.63020974, 1.0281805, -0.10296158, 0.83154476, -0.014479796, 0.012118787, -0.027045835, -0.056854337, 0.012389256, 0.037703257, 0.017152622, -0.0441199, 0.041743807, -0.0040780003, 0.04764771, 0.05993044, 0.021902638, -0.07965558, 0.028884927, 0.05314643], "categories": [], "categories_nodes": [], "categories_segments": [], "categories_sizes": [], "default_left": [0, 0, 0, 0, 0, 0, 0, 0, 0, 0, 0, 0, 0, 0, 0, 0, 0, 0, 0, 0, 0, 0, 0, 0, 0, 0, 0, 0, 0, 0, 0, 0, 0], "id": 14, "left_children": [1, -1, 3, 5, 7, 9, 11, 13, 15, 17, 19, 21, 23, 25, 27, 29, 31, -1, -1, -1, -1, -1, -1, -1, -1, -1, -1, -1, -1, -1, -1, -1, -1], "loss_changes": [812.4663, 0.0, 974.29156, 393.612, 39.7641, 369.71014, 63.547585, 14.12207, 93.98741, 145.46448, 104.29834, 46.926666, 33.802124, 17.256756, 5.066162, 120.88027, 22.40982, 0.0, 0.0, 0.0, 0.0, 0.0, 0.0, 0.0, 0.0, 0.0, 0.0, 0.0, 0.0, 0.0, 0.0, 0.0, 0.0], "parents": [2147483647, 0, 0, 2, 2, 3, 3, 4, 4, 5, 5, 6, 6, 7, 7, 8, 8, 9, 9, 10, 10, 11, 11, 12, 12, 13, 13, 14, 14, 15, 15, 16, 16], "right_children": [2, -1, 4, 6, 8, 10, 12, 14, 16, 18, 20, 22, 24, 26, 28, 30, 32, -1, -1, -1, -1, -1, -1, -1, -1, -1, -1, -1, -1, -1, -1, -1, -1], "split_conditions": [1.0, 0.066687234, 1.0, 4.0, 548.2834, 1.0, 1.0, 2.0, 1.0, 583.6996, 34.505764, 21.0, 230.78578, 1.0, 2.0, 2.0, 3.0, -0.014479796, 0.012118787, -0.027045835, -0.056854337, 0.012389256, 0.037703257, 0.017152622, -0.0441199, 0.041743807, -0.0040780003, 0.04764771, 0.05993044, 0.021902638, -0.07965558, 0.028884927, 0.05314643], "split_indices": [15, 0, 18, 9, 0, 16, 27, 15, 6, 0, 1, 9, 0, 16, 6, 12, 18, 0, 0, 0, 0, 0, 0, 0, 0, 0, 0, 0, 0, 0, 0, 0, 0], "split_type": [0, 0, 0, 0, 0, 0, 0, 0, 0, 0, 0, 0, 0, 0, 0, 0, 0, 0, 0, 0, 0, 0, 0, 0, 0, 0, 0, 0, 0, 0, 0, 0, 0], "sum_hessian": [7352.027, 437.12146, 6914.9053, 5775.6025, 1139.3026, 4644.3335, 1131.2694, 600.2394, 539.06323, 2078.7473, 2565.5862, 1032.296, 98.973305, 116.99298, 483.24637, 148.07407, 390.98917, 1152.561, 926.1862, 2227.19, 338.3961, 794.62146, 237.67458, 33.319588, 65.65372, 90.730774, 26.262205, 339.8358, 143.4106, 109.15151, 38.922546, 188.11214, 202.87703], "tree_param": {"num_deleted": "0", "num_feature": "30", "num_nodes": "33", "size_leaf_vector": "1"}}, {"base_weights": [0.006198703, 0.27364182, -0.48069447, 0.06586833, 0.1678128, -0.57179797, 0.4853129, -0.010649139, 0.81800264, -0.68646574, -0.09929902, 0.5646917, -0.69740677, -0.13290873, 0.49930504, 0.9980197, 0.62410647, -0.6318408, -1.2958484, -0.42048916, 0.28065798, 0.39039585, 0.9767648, -0.09186942, 0.017315453, -0.0034187646, -0.040185343, 0.026991883, -0.066401884, 0.041033883, 0.05459276, -0.022380102, 0.04170219, -0.043372232, -0.022312796, -0.06820517, -0.051760208, -0.01709056, -0.06795228, 0.020828482, -0.044097666, 0.027213547, -0.048849728, 0.037874755, 0.06351142], "categories": [], "categories_nodes": [], "categories_segments": [], "categories_sizes": [], "default_left": [0, 0, 0, 0, 0, 0, 0, 0, 0, 0, 0, 0, 0, 0, 0, 0, 0, 0, 0, 0, 0, 0, 0, 0, 0, 0, 0, 0, 0, 0, 0, 0, 0, 0, 0, 0, 0, 0, 0, 0, 0, 0, 0, 0, 0], "id": 15, "left_children": [1, 3, 5, -1, 7, 9, 11, 13, 15, 17, 19, 21, 23, 25, 27, 29, 31, 33, 35, 37, 39, 41, 43, -1, -1, -1, -1, -1, -1, -1, -1, -1, -1, -1, -1, -1, -1, -1, -1, -1, -1, -1, -1, -1, -1], "loss_changes": [946.2217, 517.84595, 227.0083, 0.0, 494.26755, 127.51166, 21.289322, 208.50542, 31.397888, 62.250916, 56.380486, 14.638512, 17.824162, 116.71631, 48.6185, 6.992523, 100.344284, 75.72778, 1.3438721, 18.01352, 33.832943, 31.80427, 2.9948997, 0.0, 0.0, 0.0, 0.0, 0.0, 0.0, 0.0, 0.0, 0.0, 0.0, 0.0, 0.0, 0.0, 0.0, 0.0, 0.0, 0.0, 0.0, 0.0, 0.0, 0.0, 0.0], "parents": [2147483647, 0, 0, 1, 1, 2, 2, 4, 4, 5, 5, 6, 6, 7, 7, 8, 8, 9, 9, 10, 10, 11, 11, 12, 12, 13, 13, 14, 14, 15, 15, 16, 16, 17, 17, 18, 18, 19, 19, 20, 20, 21, 21, 22, 22], "right_children": [2, 4, 6, -1, 8, 10, 12, 14, 16, 18, 20, 22, 24, 26, 28, 30, 32, 34, 36, 38, 40, 42, 44, -1, -1, -1, -1, -1, -1, -1, -1, -1, -1, -1, -1, -1, -1, -1, -1, -1, -1, -1, -1, -1, -1], "split_conditions": [0.95348835, 1.0, 1.0, 0.06586833, 1.0, 3.0, 28.0, 5.0, 551.11304, 1177.2533, 17.0, 17.0, 254.0, 1036.253, 1.0, 4.0, 1.0, 8.0, 1808.2213, 706.3952, 1.6666666, 89.0, 408.0, -0.09186942, 0.017315453, -0.0034187646, -0.040185343, 0.026991883, -0.066401884, 0.041033883, 0.05459276, -0.022380102, 0.04170219, -0.043372232, -0.022312796, -0.06820517, -0.051760208, -0.01709056, -0.06795228, 0.020828482, -0.044097666, 0.027213547, -0.048849728, 0.037874755, 0.06351142], "split_indices": [17, 15, 19, 0, 19, 9, 26, 9, 0, 0, 7, 7, 3, 0, 13, 15, 7, 4, 0, 0, 17, 4, 4, 0, 0, 0, 0, 0, 0, 0, 0, 0, 0, 0, 0, 0, 0, 0, 0, 0, 0, 0, 0, 0, 0], "split_type": [0, 0, 0, 0, 0, 0, 0, 0, 0, 0, 0, 0, 0, 0, 0, 0, 0, 0, 0, 0, 0, 0, 0, 0, 0, 0, 0, 0, 0, 0, 0, 0, 0, 0, 0, 0, 0, 0, 0, 0, 0, 0, 0, 0, 0], "sum_hessian": [7264.5317, 4689.24, 2575.2915, 430.64206, 4258.598, 2353.7217, 221.56982, 3342.2202, 916.3778, 1893.699, 460.02258, 208.12402, 13.445799, 2696.487, 645.7333, 473.04572, 443.3321, 1739.7822, 153.91676, 249.23195, 210.79062, 147.62851, 60.495514, 6.0630746, 7.3827243, 2460.8457, 235.64124, 632.4102, 13.323022, 167.06026, 305.98547, 72.43365, 370.89847, 764.9671, 974.8151, 118.62006, 35.2967, 231.21379, 18.018156, 189.30247, 21.488152, 133.23705, 14.391458, 36.674397, 23.821115], "tree_param": {"num_deleted": "0", "num_feature": "30", "num_nodes": "45", "size_leaf_vector": "1"}}, {"base_weights": [0.0049785855, 0.2667395, -0.46732184, 0.917781, 0.051691346, -0.5479727, 0.39612085, 0.064008854, 0.7319761, -0.14368454, 0.74697053, -0.095720336, -0.69618845, 0.45921716, -0.08159175, 0.6189735, 1.2049406, -0.54219157, 0.0579818, 0.5940873, 0.95910066, -0.1623725, 0.808989, -1.0083257, -0.47812346, 0.9085685, 0.091260895, 0.039846957, 0.02054125, 0.06227227, 0.017502, -0.013359419, -0.054647315, 0.00884351, -0.03808924, 0.0412731, -0.021710984, 0.053025145, 0.034508344, -0.043983955, -0.003922502, 0.050219107, -0.01341857, -0.05308944, 0.02529977, -0.016640946, -0.04664006, 0.04843607, 0.021600403, -0.017805332, 0.027445877], "categories": [], "categories_nodes": [], "categories_segments": [], "categories_sizes": [], "default_left": [0, 0, 0, 0, 0, 0, 0, 0, 0, 0, 0, 0, 0, 0, 0, 0, 0, 0, 0, 0, 0, 0, 0, 0, 0, 0, 0, 0, 0, 0, 0, 0, 0, 0, 0, 0, 0, 0, 0, 0, 0, 0, 0, 0, 0, 0, 0, 0, 0, 0, 0], "id": 16, "left_children": [1, 3, 5, 7, 9, 11, 13, -1, 15, 17, 19, 21, 23, 25, -1, 27, 29, 31, 33, 35, 37, 39, 41, 43, 45, 47, 49, -1, -1, -1, -1, -1, -1, -1, -1, -1, -1, -1, -1, -1, -1, -1, -1, -1, -1, -1, -1, -1, -1, -1, -1], "loss_changes": [888.78375, 647.54565, 178.73773, 76.39307, 472.56866, 157.12067, 28.84584, 0.0, 39.954956, 218.29903, 24.178802, 35.104862, 119.723816, 35.25605, 0.0, 22.518112, 4.612854, 137.94318, 175.97826, 106.50037, 7.940033, 32.49937, 8.682337, 59.268677, 68.50319, 2.3367004, 24.482002, 0.0, 0.0, 0.0, 0.0, 0.0, 0.0, 0.0, 0.0, 0.0, 0.0, 0.0, 0.0, 0.0, 0.0, 0.0, 0.0, 0.0, 0.0, 0.0, 0.0, 0.0, 0.0, 0.0, 0.0], "parents": [2147483647, 0, 0, 1, 1, 2, 2, 3, 3, 4, 4, 5, 5, 6, 6, 8, 8, 9, 9, 10, 10, 11, 11, 12, 12, 13, 13, 15, 15, 16, 16, 17, 17, 18, 18, 19, 19, 20, 20, 21, 21, 22, 22, 23, 23, 24, 24, 25, 25, 26, 26], "right_children": [2, 4, 6, 8, 10, 12, 14, -1, 16, 18, 20, 22, 24, 26, -1, 28, 30, 32, 34, 36, 38, 40, 42, 44, 46, 48, 50, -1, -1, -1, -1, -1, -1, -1, -1, -1, -1, -1, -1, -1, -1, -1, -1, -1, -1, -1, -1, -1, -1, -1, -1], "split_conditions": [1.0, 180.50146, 7.0, 1.0, 1.0, 180.50146, 1.0, 0.064008854, 1.0, 9.0, 1.0, 1.0, 19.0, 290.3194, -0.08159175, 113.15061, 31.0, 237.2561, 781.48486, 51.0, 0.42857143, 90.53121, 1.3636364, 2.0, 1.0, 1.6666666, 17.0, 0.039846957, 0.02054125, 0.06227227, 0.017502, -0.013359419, -0.054647315, 0.00884351, -0.03808924, 0.0412731, -0.021710984, 0.053025145, 0.034508344, -0.043983955, -0.003922502, 0.050219107, -0.01341857, -0.05308944, 0.02529977, -0.016640946, -0.04664006, 0.04843607, 0.021600403, -0.017805332, 0.027445877], "split_indices": [17, 2, 9, 9, 18, 2, 26, 0, 18, 4, 5, 11, 4, 2, 0, 2, 5, 0, 2, 4, 17, 2, 17, 18, 26, 17, 9, 0, 0, 0, 0, 0, 0, 0, 0, 0, 0, 0, 0, 0, 0, 0, 0, 0, 0, 0, 0, 0, 0, 0, 0], "split_type": [0, 0, 0, 0, 0, 0, 0, 0, 0, 0, 0, 0, 0, 0, 0, 0, 0, 0, 0, 0, 0, 0, 0, 0, 0, 0, 0, 0, 0, 0, 0, 0, 0, 0, 0, 0, 0, 0, 0, 0, 0, 0, 0, 0, 0, 0, 0, 0, 0, 0, 0], "sum_hessian": [7187.067, 4624.4917, 2562.5754, 1147.4396, 3477.052, 2343.997, 218.57826, 386.91187, 760.5277, 2714.9382, 762.1138, 578.9838, 1765.0132, 212.733, 5.8452606, 615.72485, 144.80281, 911.6884, 1803.2498, 445.11667, 316.99713, 540.0198, 38.964058, 724.4355, 1040.5778, 95.112076, 117.62092, 330.40335, 285.32153, 137.8163, 6.986516, 609.0582, 302.6302, 1575.5382, 227.7115, 363.51996, 81.5967, 228.06229, 88.934845, 55.569668, 484.4501, 33.03963, 5.9244256, 700.02014, 24.415348, 789.8817, 250.69604, 83.53526, 11.576815, 59.591274, 58.029644], "tree_param": {"num_deleted": "0", "num_feature": "30", "num_nodes": "51", "size_leaf_vector": "1"}}, {"base_weights": [0.0020686234, 0.57314086, -0.19044757, 0.99061966, 0.20203027, -0.3502666, 0.61668557, 0.06340655, 0.74810416, -0.3470035, 0.54887336, -0.43118262, 0.24754633, 0.33915666, 0.7887822, 0.54334384, 1.0946493, -0.44388774, 0.46323362, 0.3459465, 0.8809135, -0.7806562, -0.27298588, 0.3207541, -1.2081411, 0.21076846, 0.91214687, 0.8367766, 0.09541968, 0.02210309, 0.060686506, 0.060218036, 0.045496356, -0.03189961, -0.0019501407, 0.051440377, -0.052455734, 0.021844253, -0.027493352, 0.037431866, 0.061065286, -0.04349797, 0.012110335, -0.0066335113, -0.04223564, -0.000960482, 0.031821348, -0.017509481, -0.069995694, 0.025869444, -0.0064246627, 0.049672883, 0.009132642, 0.043203957, -0.021643093, 0.0424282, -0.08328225], "categories": [], "categories_nodes": [], "categories_segments": [], "categories_sizes": [], "default_left": [0, 0, 0, 0, 0, 0, 0, 0, 0, 0, 0, 0, 0, 0, 0, 0, 0, 0, 0, 0, 0, 0, 0, 0, 0, 0, 0, 0, 0, 0, 0, 0, 0, 0, 0, 0, 0, 0, 0, 0, 0, 0, 0, 0, 0, 0, 0, 0, 0, 0, 0, 0, 0, 0, 0, 0, 0], "id": 17, "left_children": [1, 3, 5, 7, 9, 11, 13, -1, 15, 17, 19, 21, 23, 25, 27, 29, 31, 33, 35, 37, 39, 41, 43, 45, 47, 49, 51, 53, 55, -1, -1, -1, -1, -1, -1, -1, -1, -1, -1, -1, -1, -1, -1, -1, -1, -1, -1, -1, -1, -1, -1, -1, -1, -1, -1, -1, -1], "loss_changes": [782.7524, 277.90662, 687.0821, 55.88611, 181.39249, 215.13763, 41.783936, 0.0, 31.55658, 29.172562, 39.014038, 216.26917, 56.931293, 24.727818, 17.979675, 18.93657, 2.2946167, 25.918304, 35.20847, 29.879631, 9.023102, 111.61926, 216.25204, 54.31204, 3.7244034, 28.989517, 3.4787903, 17.963806, 49.508934, 0.0, 0.0, 0.0, 0.0, 0.0, 0.0, 0.0, 0.0, 0.0, 0.0, 0.0, 0.0, 0.0, 0.0, 0.0, 0.0, 0.0, 0.0, 0.0, 0.0, 0.0, 0.0, 0.0, 0.0, 0.0, 0.0, 0.0, 0.0], "parents": [2147483647, 0, 0, 1, 1, 2, 2, 3, 3, 4, 4, 5, 5, 6, 6, 8, 8, 9, 9, 10, 10, 11, 11, 12, 12, 13, 13, 14, 14, 15, 15, 16, 16, 17, 17, 18, 18, 19, 19, 20, 20, 21, 21, 22, 22, 23, 23, 24, 24, 25, 25, 26, 26, 27, 27, 28, 28], "right_children": [2, 4, 6, 8, 10, 12, 14, -1, 16, 18, 20, 22, 24, 26, 28, 30, 32, 34, 36, 38, 40, 42, 44, 46, 48, 50, 52, 54, 56, -1, -1, -1, -1, -1, -1, -1, -1, -1, -1, -1, -1, -1, -1, -1, -1, -1, -1, -1, -1, -1, -1, -1, -1, -1, -1, -1, -1], "split_conditions": [180.50146, 1.0, 1.0, 1.0, 2.0, 6.0, 2.0, 0.06340655, 2.0, 155.1662, 7.0, 2.0, 1.0, 8.0, 2.0, 1.0, 9.0, 7.0, 6.0, 86.0, 1.0, 4.0, 1.0, 6.0, 83.54633, 1.0, 663.65625, 1751.5953, 2.0, 0.02210309, 0.060686506, 0.060218036, 0.045496356, -0.03189961, -0.0019501407, 0.051440377, -0.052455734, 0.021844253, -0.027493352, 0.037431866, 0.061065286, -0.04349797, 0.012110335, -0.0066335113, -0.04223564, -0.000960482, 0.031821348, -0.017509481, -0.069995694, 0.025869444, -0.0064246627, 0.049672883, 0.009132642, 0.043203957, -0.021643093, 0.0424282, -0.08328225], "split_indices": [2, 16, 18, 9, 15, 9, 18, 0, 9, 2, 15, 3, 26, 9, 20, 11, 7, 3, 6, 7, 18, 26, 27, 6, 0, 16, 0, 2, 9, 0, 0, 0, 0, 0, 0, 0, 0, 0, 0, 0, 0, 0, 0, 0, 0, 0, 0, 0, 0, 0, 0, 0, 0, 0, 0, 0, 0], "split_type": [0, 0, 0, 0, 0, 0, 0, 0, 0, 0, 0, 0, 0, 0, 0, 0, 0, 0, 0, 0, 0, 0, 0, 0, 0, 0, 0, 0, 0, 0, 0, 0, 0, 0, 0, 0, 0, 0, 0, 0, 0, 0, 0, 0, 0, 0, 0, 0, 0, 0, 0, 0, 0, 0, 0, 0, 0], "sum_hessian": [7117.779, 1794.0385, 5323.74, 843.4899, 950.5485, 4444.2983, 879.44183, 391.39084, 452.0991, 368.0093, 582.53925, 3914.708, 529.5904, 337.7482, 541.6936, 285.79916, 166.29993, 329.10828, 38.901028, 362.83435, 219.7049, 1218.6483, 2696.0596, 504.97443, 24.615953, 277.04044, 60.70778, 506.43164, 35.261955, 249.72943, 36.06974, 100.87045, 65.429474, 222.07053, 107.037766, 28.545553, 10.355473, 329.8608, 32.973545, 160.5245, 59.18039, 1120.9326, 97.71581, 2165.7612, 530.29834, 243.58487, 261.38956, 5.013345, 19.602608, 145.2449, 131.79553, 54.294193, 6.413583, 496.08322, 10.34843, 25.06199, 10.199964], "tree_param": {"num_deleted": "0", "num_feature": "30", "num_nodes": "57", "size_leaf_vector": "1"}}, {"base_weights": [0.0015469984, 0.23902558, -0.42590153, 0.84970456, 0.042823415, -0.60636634, -0.07448868, 0.062506124, 0.6503591, -0.12401214, 0.66626436, -0.6484541, 0.522426, 0.36957276, -0.26825038, 0.54709136, 1.119951, -0.51943266, 0.070976056, 0.39582875, 0.8144174, -0.27202553, -0.7578263, 0.6642547, -0.038452927, 0.20867479, 0.9266024, -0.6592188, -0.01875915, 0.032338686, 0.005465618, 0.057692733, 0.023040107, -0.013392243, -0.051359184, 0.0094908355, -0.04067107, 0.043845654, 0.014054728, 0.047718238, 0.026551653, -0.023938337, 0.006386044, -0.05032747, -0.029981507, 0.038861055, -0.013630727, 0.0042101047, 0.047145497, 0.061422687, 0.035126526, -0.040165644, 0.035228174, 0.0138164675, -0.019728648], "categories": [], "categories_nodes": [], "categories_segments": [], "categories_sizes": [], "default_left": [0, 0, 0, 0, 0, 0, 0, 0, 0, 0, 0, 0, 0, 0, 0, 0, 0, 0, 0, 0, 0, 0, 0, 0, 0, 0, 0, 0, 0, 0, 0, 0, 0, 0, 0, 0, 0, 0, 0, 0, 0, 0, 0, 0, 0, 0, 0, 0, 0, 0, 0, 0, 0, 0, 0], "id": 18, "left_children": [1, 3, 5, 7, 9, 11, 13, -1, 15, 17, 19, 21, 23, 25, 27, 29, 31, 33, 35, 37, 39, 41, 43, 45, -1, 47, 49, 51, 53, -1, -1, -1, -1, -1, -1, -1, -1, -1, -1, -1, -1, -1, -1, -1, -1, -1, -1, -1, -1, -1, -1, -1, -1, -1, -1], "loss_changes": [722.66315, 548.3086, 161.20074, 88.010925, 360.4591, 80.14148, 74.425644, 0.0, 35.51544, 210.84639, 28.989899, 66.48364, 11.672035, 23.363892, 58.708244, 26.665192, 2.4482422, 115.090546, 192.70738, 14.153534, 18.20102, 30.329123, 48.76062, 6.0794315, 0.0, 18.67671, 3.1015625, 46.644073, 40.97702, 0.0, 0.0, 0.0, 0.0, 0.0, 0.0, 0.0, 0.0, 0.0, 0.0, 0.0, 0.0, 0.0, 0.0, 0.0, 0.0, 0.0, 0.0, 0.0, 0.0, 0.0, 0.0, 0.0, 0.0, 0.0, 0.0], "parents": [2147483647, 0, 0, 1, 1, 2, 2, 3, 3, 4, 4, 5, 5, 6, 6, 8, 8, 9, 9, 10, 10, 11, 11, 12, 12, 13, 13, 14, 14, 15, 15, 16, 16, 17, 17, 18, 18, 19, 19, 20, 20, 21, 21, 22, 22, 23, 23, 25, 25, 26, 26, 27, 27, 28, 28], "right_children": [2, 4, 6, 8, 10, 12, 14, -1, 16, 18, 20, 22, 24, 26, 28, 30, 32, 34, 36, 38, 40, 42, 44, 46, -1, 48, 50, 52, 54, -1, -1, -1, -1, -1, -1, -1, -1, -1, -1, -1, -1, -1, -1, -1, -1, -1, -1, -1, -1, -1, -1, -1, -1, -1, -1], "split_conditions": [1.0, 180.50146, 2.0, 1.0, 1.0, 2.0, 180.50146, 0.062506124, 1.0, 9.0, 2.0, 180.50146, 1537.3597, 7.0, 27.0, 1.0, 86.0, 237.2561, 833.2936, 389.29593, 1.0, 7.0, 14.0, 31.0, -0.038452927, 1.0, 118.084755, 34.0, 522.932, 0.032338686, 0.005465618, 0.057692733, 0.023040107, -0.013392243, -0.051359184, 0.0094908355, -0.04067107, 0.043845654, 0.014054728, 0.047718238, 0.026551653, -0.023938337, 0.006386044, -0.05032747, -0.029981507, 0.038861055, -0.013630727, 0.0042101047, 0.047145497, 0.061422687, 0.035126526, -0.040165644, 0.035228174, 0.0138164675, -0.019728648], "split_indices": [17, 2, 9, 15, 18, 18, 2, 0, 18, 4, 18, 2, 2, 9, 4, 27, 3, 0, 2, 2, 13, 3, 4, 26, 0, 11, 2, 10, 2, 0, 0, 0, 0, 0, 0, 0, 0, 0, 0, 0, 0, 0, 0, 0, 0, 0, 0, 0, 0, 0, 0, 0, 0, 0, 0], "split_type": [0, 0, 0, 0, 0, 0, 0, 0, 0, 0, 0, 0, 0, 0, 0, 0, 0, 0, 0, 0, 0, 0, 0, 0, 0, 0, 0, 0, 0, 0, 0, 0, 0, 0, 0, 0, 0, 0, 0, 0, 0, 0, 0, 0, 0, 0, 0, 0, 0, 0, 0, 0, 0, 0, 0], "sum_hessian": [7117.1396, 4575.538, 2541.6016, 1111.7832, 3463.7546, 1678.7628, 862.83875, 367.77533, 744.00793, 2733.1523, 730.60254, 1618.8292, 59.9336, 261.84262, 600.9961, 611.66254, 132.3454, 902.1004, 1831.0518, 259.8851, 470.7174, 365.24496, 1253.5842, 54.44068, 5.492922, 204.22647, 57.61617, 233.47847, 367.51764, 497.8293, 113.833206, 125.15735, 7.188055, 604.2335, 297.86688, 1614.8431, 216.20871, 48.76574, 211.11937, 313.52, 157.19742, 240.60892, 124.636024, 485.26572, 768.31854, 48.734726, 5.705956, 175.57623, 28.650238, 22.637873, 34.9783, 211.53873, 21.939737, 206.01761, 161.50003], "tree_param": {"num_deleted": "0", "num_feature": "30", "num_nodes": "55", "size_leaf_vector": "1"}}, {"base_weights": [0.0013317784, 0.23436522, -0.41967756, 0.8562976, 0.03451658, -0.6131383, -0.050184213, 0.061740316, 0.67014134, -0.13036624, 0.6525477, -0.6598486, 0.5780901, -0.20235753, 0.449343, 0.5654842, 1.123763, -0.4472413, 0.03640301, 0.40381467, 0.790949, -0.28552878, -0.7719553, -0.15673842, 0.7998995, 0.46005386, -0.36774623, 0.93861604, 0.18195061, 0.017708652, 0.034958817, 0.058571305, 0.034163058, -0.009645458, -0.046422273, 0.026554143, -0.0065008188, 0.049987536, 0.015085499, 0.047023218, 0.026790965, -0.038935836, -0.0067938506, -0.050584614, -0.030593311, -0.021679634, 0.017088054, 0.05009975, -0.019232625, -0.018781722, 0.029961962, -0.033727027, -0.007034056, 0.04999314, 0.014352068, -0.017938701, 0.029747063], "categories": [], "categories_nodes": [], "categories_segments": [], "categories_sizes": [], "default_left": [0, 0, 0, 0, 0, 0, 0, 0, 0, 0, 0, 0, 0, 0, 0, 0, 0, 0, 0, 0, 0, 0, 0, 0, 0, 0, 0, 0, 0, 0, 0, 0, 0, 0, 0, 0, 0, 0, 0, 0, 0, 0, 0, 0, 0, 0, 0, 0, 0, 0, 0, 0, 0, 0, 0, 0, 0], "id": 19, "left_children": [1, 3, 5, 7, 9, 11, 13, -1, 15, 17, 19, 21, 23, 25, 27, 29, 31, 33, 35, 37, 39, 41, 43, 45, 47, 49, 51, 53, 55, -1, -1, -1, -1, -1, -1, -1, -1, -1, -1, -1, -1, -1, -1, -1, -1, -1, -1, -1, -1, -1, -1, -1, -1, -1, -1, -1, -1], "loss_changes": [687.8319, 560.8918, 178.52927, 76.50098, 348.23224, 91.60388, 65.42698, 0.0, 34.393127, 142.58087, 24.455536, 66.000244, 10.29488, 72.42192, 26.126896, 16.746017, 2.082428, 113.67883, 145.65681, 15.478024, 17.094635, 26.85412, 45.964417, 2.2601433, 11.897793, 15.603123, 36.70764, 2.5381165, 29.516031, 0.0, 0.0, 0.0, 0.0, 0.0, 0.0, 0.0, 0.0, 0.0, 0.0, 0.0, 0.0, 0.0, 0.0, 0.0, 0.0, 0.0, 0.0, 0.0, 0.0, 0.0, 0.0, 0.0, 0.0, 0.0, 0.0, 0.0, 0.0], "parents": [2147483647, 0, 0, 1, 1, 2, 2, 3, 3, 4, 4, 5, 5, 6, 6, 8, 8, 9, 9, 10, 10, 11, 11, 12, 12, 13, 13, 14, 14, 15, 15, 16, 16, 17, 17, 18, 18, 19, 19, 20, 20, 21, 21, 22, 22, 23, 23, 24, 24, 25, 25, 26, 26, 27, 27, 28, 28], "right_children": [2, 4, 6, 8, 10, 12, 14, -1, 16, 18, 20, 22, 24, 26, 28, 30, 32, 34, 36, 38, 40, 42, 44, 46, 48, 50, 52, 54, 56, -1, -1, -1, -1, -1, -1, -1, -1, -1, -1, -1, -1, -1, -1, -1, -1, -1, -1, -1, -1, -1, -1, -1, -1, -1, -1, -1, -1], "split_conditions": [1.0, 180.50146, 2.0, 1.0, 1.0, 2.0, 8.0, 0.061740316, 1.0, 10.0, 2.0, 180.50146, 2.0, 120.73138, 217.65613, 2.0, 204.0, 6.740632, 61.0, 338.57208, 32.991608, 96.73782, 16.0, 2.0, 1420.2964, 90.53121, 21.0, 1.0, 4.0, 0.017708652, 0.034958817, 0.058571305, 0.034163058, -0.009645458, -0.046422273, 0.026554143, -0.0065008188, 0.049987536, 0.015085499, 0.047023218, 0.026790965, -0.038935836, -0.0067938506, -0.050584614, -0.030593311, -0.021679634, 0.017088054, 0.05009975, -0.019232625, -0.018781722, 0.029961962, -0.033727027, -0.007034056, 0.04999314, 0.014352068, -0.017938701, 0.029747063], "split_indices": [17, 2, 9, 15, 18, 18, 15, 0, 18, 4, 18, 2, 26, 2, 2, 9, 4, 1, 4, 2, 1, 2, 4, 6, 24, 2, 4, 27, 6, 0, 0, 0, 0, 0, 0, 0, 0, 0, 0, 0, 0, 0, 0, 0, 0, 0, 0, 0, 0, 0, 0, 0, 0, 0, 0, 0, 0], "split_type": [0, 0, 0, 0, 0, 0, 0, 0, 0, 0, 0, 0, 0, 0, 0, 0, 0, 0, 0, 0, 0, 0, 0, 0, 0, 0, 0, 0, 0, 0, 0, 0, 0, 0, 0, 0, 0, 0, 0, 0, 0, 0, 0, 0, 0, 0, 0, 0, 0, 0, 0, 0, 0, 0, 0, 0, 0], "sum_hessian": [7008.875, 4511.9194, 2496.9553, 1096.4532, 3415.4663, 1638.4368, 858.51855, 359.6168, 736.8365, 2696.7869, 718.67926, 1577.0441, 61.392685, 658.50885, 200.00972, 600.5316, 136.30486, 929.3207, 1767.4663, 258.32977, 460.3495, 364.2789, 1212.7651, 14.302747, 47.08994, 131.20953, 527.2993, 69.79288, 130.21684, 234.1259, 366.40573, 121.49912, 14.805734, 608.8987, 320.422, 444.37503, 1323.0913, 36.500793, 221.82898, 288.55783, 171.79166, 83.82481, 280.45407, 483.45743, 729.30774, 9.279402, 5.023345, 40.35852, 6.73142, 18.4906, 112.71894, 223.43674, 303.86255, 63.307552, 6.4853225, 56.4451, 73.77174], "tree_param": {"num_deleted": "0", "num_feature": "30", "num_nodes": "57", "size_leaf_vector": "1"}}, {"base_weights": [0.013941272, 0.23031227, -0.3796359, 0.830855, 0.041706923, -0.4316344, 0.6910543, 0.061032016, 0.6542195, -0.108644746, 0.6251377, -0.58592856, -0.13297422, 0.98052186, 0.43740466, 0.5583621, 1.1026927, -0.42911756, 0.056027383, 0.3667645, 0.7754156, -0.507769, -1.0762147, -0.20722108, 0.62571716, 0.67499614, 0.058354992, 0.11581058, 0.8191629, 0.03529604, 0.017421847, 0.05711617, 0.029978624, -0.028934767, 0.021246858, 0.008714586, -0.038248964, 0.013318791, 0.049270634, 0.041295625, 0.0024638788, -0.031386714, 0.03189146, -0.057391267, -0.026008947, 0.020120835, -0.016532168, 0.011645837, 0.039924793, 0.051074315, 0.014816093, 0.024411337, -0.04846628, 0.051466372, -0.0026901956], "categories": [], "categories_nodes": [], "categories_segments": [], "categories_sizes": [], "default_left": [0, 0, 0, 0, 0, 0, 0, 0, 0, 0, 0, 0, 0, 0, 0, 0, 0, 0, 0, 0, 0, 0, 0, 0, 0, 0, 0, 0, 0, 0, 0, 0, 0, 0, 0, 0, 0, 0, 0, 0, 0, 0, 0, 0, 0, 0, 0, 0, 0, 0, 0, 0, 0, 0, 0], "id": 20, "left_children": [1, 3, 5, 7, 9, 11, 13, -1, 15, 17, 19, 21, 23, 25, 27, 29, 31, 33, 35, 37, 39, 41, 43, 45, 47, 49, -1, 51, 53, -1, -1, -1, -1, -1, -1, -1, -1, -1, -1, -1, -1, -1, -1, -1, -1, -1, -1, -1, -1, -1, -1, -1, -1, -1, -1], "loss_changes": [591.3297, 507.46027, 137.43817, 72.9259, 299.26056, 108.20358, 7.976082, 0.0, 31.154846, 143.1845, 26.856812, 58.81433, 45.291027, 2.213848, 7.6171684, 18.67781, 1.8895874, 117.88934, 174.21225, 15.819927, 16.131989, 184.27908, 7.8482666, 55.1363, 4.6810093, 2.6279411, 0.0, 14.722384, 5.2946186, 0.0, 0.0, 0.0, 0.0, 0.0, 0.0, 0.0, 0.0, 0.0, 0.0, 0.0, 0.0, 0.0, 0.0, 0.0, 0.0, 0.0, 0.0, 0.0, 0.0, 0.0, 0.0, 0.0, 0.0, 0.0, 0.0], "parents": [2147483647, 0, 0, 1, 1, 2, 2, 3, 3, 4, 4, 5, 5, 6, 6, 8, 8, 9, 9, 10, 10, 11, 11, 12, 12, 13, 13, 14, 14, 15, 15, 16, 16, 17, 17, 18, 18, 19, 19, 20, 20, 21, 21, 22, 22, 23, 23, 24, 24, 25, 25, 27, 27, 28, 28], "right_children": [2, 4, 6, 8, 10, 12, 14, -1, 16, 18, 20, 22, 24, 26, 28, 30, 32, 34, 36, 38, 40, 42, 44, 46, 48, 50, -1, 52, 54, -1, -1, -1, -1, -1, -1, -1, -1, -1, -1, -1, -1, -1, -1, -1, -1, -1, -1, -1, -1, -1, -1, -1, -1, -1, -1], "split_conditions": [1.0, 180.50146, 2.0, 1.0, 1.0, 2.0, 490.29727, 0.061032016, 1.0, 10.0, 2.0, 833.2936, 21.0, 3.0, 4.0, 124.07217, 199.0, 8.0, 781.48486, 15.0, 2.0, 730.5307, 1.0, 118.084755, 8.0, 4.0, 0.058354992, 74.0, 1e-06, 0.03529604, 0.017421847, 0.05711617, 0.029978624, -0.028934767, 0.021246858, 0.008714586, -0.038248964, 0.013318791, 0.049270634, 0.041295625, 0.0024638788, -0.031386714, 0.03189146, -0.057391267, -0.026008947, 0.020120835, -0.016532168, 0.011645837, 0.039924793, 0.051074315, 0.014816093, 0.024411337, -0.04846628, 0.051466372, -0.0026901956], "split_indices": [17, 2, 18, 15, 18, 9, 2, 0, 18, 4, 18, 2, 15, 18, 14, 2, 4, 15, 2, 9, 20, 2, 14, 2, 7, 10, 0, 4, 24, 0, 0, 0, 0, 0, 0, 0, 0, 0, 0, 0, 0, 0, 0, 0, 0, 0, 0, 0, 0, 0, 0, 0, 0, 0, 0], "split_type": [0, 0, 0, 0, 0, 0, 0, 0, 0, 0, 0, 0, 0, 0, 0, 0, 0, 0, 0, 0, 0, 0, 0, 0, 0, 0, 0, 0, 0, 0, 0, 0, 0, 0, 0, 0, 0, 0, 0, 0, 0, 0, 0, 0, 0, 0, 0, 0, 0, 0, 0, 0, 0, 0, 0], "sum_hessian": [6941.83, 4479.576, 2462.2542, 1069.799, 3409.777, 2348.7815, 113.47265, 331.7682, 738.0307, 2711.7625, 698.01465, 1548.0593, 800.7222, 51.656292, 61.816357, 609.9121, 128.11856, 919.90497, 1791.8575, 257.95407, 440.06058, 1336.9615, 211.09778, 730.00916, 70.71308, 21.33595, 30.32034, 34.25946, 27.556894, 356.77115, 253.14099, 117.585884, 10.532678, 783.07996, 136.82498, 1566.9319, 224.92563, 223.17055, 34.783535, 411.31934, 28.74125, 1210.6376, 126.32405, 186.06992, 25.027866, 122.52804, 607.4811, 22.319433, 48.393646, 10.255003, 11.080948, 25.915426, 8.344035, 22.065556, 5.4913383], "tree_param": {"num_deleted": "0", "num_feature": "30", "num_nodes": "55", "size_leaf_vector": "1"}}, {"base_weights": [-0.001833635, 0.21812707, -0.40239802, 0.7956017, 0.036728114, -0.4824666, 0.29816103, 0.06027927, 0.60529286, -0.109718144, 0.59702206, -0.5317871, 0.1908957, 0.8319771, 0.015689855, 0.50216395, 1.0945865, -0.37691516, 0.034305993, 0.7085878, 0.25376755, -0.4631556, -1.1505442, -0.08948226, 0.76531637, 0.9267725, -0.014556642, -0.1462573, 0.77905995, 0.012188608, 0.033296768, 0.055898357, 0.02238666, -0.007395126, -0.04124738, 0.017093645, -0.010276904, 0.026636412, 0.044244826, 0.0009861862, 0.042300038, -0.025991589, 0.03353206, -0.059894513, -0.026316449, 0.007606679, -0.079321645, 0.043833286, -0.006058862, 0.055449095, 0.032830786, -0.021394541, 0.018936142, 0.05110584, -0.0091838455], "categories": [], "categories_nodes": [], "categories_segments": [], "categories_sizes": [], "default_left": [0, 0, 0, 0, 0, 0, 0, 0, 0, 0, 0, 0, 0, 0, 0, 0, 0, 0, 0, 0, 0, 0, 0, 0, 0, 0, 0, 0, 0, 0, 0, 0, 0, 0, 0, 0, 0, 0, 0, 0, 0, 0, 0, 0, 0, 0, 0, 0, 0, 0, 0, 0, 0, 0, 0], "id": 21, "left_children": [1, 3, 5, 7, 9, 11, 13, -1, 15, 17, 19, 21, 23, 25, 27, 29, 31, 33, 35, 37, 39, 41, 43, 45, 47, 49, -1, 51, 53, -1, -1, -1, -1, -1, -1, -1, -1, -1, -1, -1, -1, -1, -1, -1, -1, -1, -1, -1, -1, -1, -1, -1, -1, -1, -1], "loss_changes": [605.8659, 464.95724, 136.86996, 82.05371, 277.31137, 72.76187, 37.779045, 0.0, 36.117188, 103.130066, 26.63858, 86.048035, 24.234756, 9.501457, 20.502409, 25.312637, 1.3997192, 96.17909, 128.57442, 15.898376, 24.009666, 118.388306, 5.365753, 37.0351, 4.9748077, 3.2196884, 0.0, 20.40282, 6.9789314, 0.0, 0.0, 0.0, 0.0, 0.0, 0.0, 0.0, 0.0, 0.0, 0.0, 0.0, 0.0, 0.0, 0.0, 0.0, 0.0, 0.0, 0.0, 0.0, 0.0, 0.0, 0.0, 0.0, 0.0, 0.0, 0.0], "parents": [2147483647, 0, 0, 1, 1, 2, 2, 3, 3, 4, 4, 5, 5, 6, 6, 8, 8, 9, 9, 10, 10, 11, 11, 12, 12, 13, 13, 14, 14, 15, 15, 16, 16, 17, 17, 18, 18, 19, 19, 20, 20, 21, 21, 22, 22, 23, 23, 24, 24, 25, 25, 27, 27, 28, 28], "right_children": [2, 4, 6, 8, 10, 12, 14, -1, 16, 18, 20, 22, 24, 26, 28, 30, 32, 34, 36, 38, 40, 42, 44, 46, 48, 50, -1, 52, 54, -1, -1, -1, -1, -1, -1, -1, -1, -1, -1, -1, -1, -1, -1, -1, -1, -1, -1, -1, -1, -1, -1, -1, -1, -1, -1], "split_conditions": [1.0, 180.50146, 6.0, 1.0, 1.0, 1.0, 206.82922, 0.06027927, 1.0, 11.0, 0.48387095, 772.6579, 8.0, 1.0, 1.0, 2.0, 682.0, 237.2561, 160.0, 1.0, 14.0, 746.97845, 1.0, 89.0, 1e-06, 85.0, -0.014556642, 49.0, 688.1258, 0.012188608, 0.033296768, 0.055898357, 0.02238666, -0.007395126, -0.04124738, 0.017093645, -0.010276904, 0.026636412, 0.044244826, 0.0009861862, 0.042300038, -0.025991589, 0.03353206, -0.059894513, -0.026316449, 0.007606679, -0.079321645, 0.043833286, -0.006058862, 0.055449095, 0.032830786, -0.021394541, 0.018936142, 0.05110584, -0.0091838455], "split_indices": [17, 2, 9, 9, 18, 18, 2, 0, 18, 4, 17, 2, 6, 26, 11, 9, 4, 0, 4, 6, 9, 2, 22, 4, 24, 4, 0, 6, 2, 0, 0, 0, 0, 0, 0, 0, 0, 0, 0, 0, 0, 0, 0, 0, 0, 0, 0, 0, 0, 0, 0, 0, 0, 0, 0], "split_type": [0, 0, 0, 0, 0, 0, 0, 0, 0, 0, 0, 0, 0, 0, 0, 0, 0, 0, 0, 0, 0, 0, 0, 0, 0, 0, 0, 0, 0, 0, 0, 0, 0, 0, 0, 0, 0, 0, 0, 0, 0, 0, 0, 0, 0, 0, 0, 0, 0, 0, 0, 0, 0, 0, 0], "sum_hessian": [6874.371, 4437.8716, 2436.4995, 1060.0067, 3377.8647, 2186.8684, 249.63123, 334.35928, 725.6474, 2678.5625, 699.30237, 2037.8185, 149.04993, 85.71017, 163.92105, 601.00024, 124.64716, 937.5606, 1741.0018, 526.9627, 172.33966, 1835.9288, 201.88965, 100.72816, 48.321762, 79.20015, 6.510018, 135.89885, 28.022211, 234.11375, 366.8865, 119.59603, 5.05113, 621.3079, 316.25266, 762.6207, 978.38116, 265.83066, 261.13205, 124.264885, 48.07477, 1749.0394, 86.88942, 186.8019, 15.087759, 87.50307, 13.225093, 42.939384, 5.38238, 45.444664, 33.755486, 88.5694, 47.32945, 22.324411, 5.697799], "tree_param": {"num_deleted": "0", "num_feature": "30", "num_nodes": "55", "size_leaf_vector": "1"}}, {"base_weights": [-0.009046316, 0.27282926, -0.30166394, 0.84248126, 0.081174426, -0.4526849, 0.35710555, 0.059761353, 0.6325883, -0.13223916, 0.56830335, -0.051325615, -0.59247965, 0.4220015, -0.5597429, 0.7344178, 0.15560563, -0.31414148, 0.6321901, 0.91282713, 0.044066925, -0.24766658, 0.18873319, -0.81753963, -0.36866945, 0.29618987, 0.8644933, -0.9703102, 0.4753145, 0.03231157, 0.05604417, 0.04587217, -0.010723288, -0.034099396, -0.0052260295, 0.040487986, 0.00992611, 0.03026016, 0.06827723, -0.061830085, 0.020020628, -0.019063976, 0.00661616, 0.013789794, -0.043858454, -0.037367906, -0.06782683, -0.021309106, 0.028043488, 0.006603026, 0.031657044, 0.04609455, 0.004006795, -0.0061473562, -0.066830516, 0.0456775, -0.0064913346], "categories": [], "categories_nodes": [], "categories_segments": [], "categories_sizes": [], "default_left": [0, 0, 0, 0, 0, 0, 0, 0, 0, 0, 0, 0, 0, 0, 0, 0, 0, 0, 0, 0, 0, 0, 0, 0, 0, 0, 0, 0, 0, 0, 0, 0, 0, 0, 0, 0, 0, 0, 0, 0, 0, 0, 0, 0, 0, 0, 0, 0, 0, 0, 0, 0, 0, 0, 0, 0, 0], "id": 22, "left_children": [1, 3, 5, 7, 9, 11, 13, -1, 15, 17, 19, 21, 23, 25, 27, 29, 31, 33, 35, 37, 39, 41, 43, 45, 47, 49, 51, 53, 55, -1, -1, -1, -1, -1, -1, -1, -1, -1, -1, -1, -1, -1, -1, -1, -1, -1, -1, -1, -1, -1, -1, -1, -1, -1, -1, -1, -1], "loss_changes": [560.83405, 378.04623, 332.06964, 63.788696, 269.59787, 152.27057, 37.288643, 0.0, 26.535538, 250.98836, 142.64113, 33.148766, 101.101074, 32.151962, 18.137081, 14.676224, 27.769077, 112.31888, 26.56137, 65.55539, 143.94574, 19.687006, 29.617134, 36.924866, 54.297302, 25.06762, 5.704628, 9.181461, 3.4293504, 0.0, 0.0, 0.0, 0.0, 0.0, 0.0, 0.0, 0.0, 0.0, 0.0, 0.0, 0.0, 0.0, 0.0, 0.0, 0.0, 0.0, 0.0, 0.0, 0.0, 0.0, 0.0, 0.0, 0.0, 0.0, 0.0, 0.0, 0.0], "parents": [2147483647, 0, 0, 1, 1, 2, 2, 3, 3, 4, 4, 5, 5, 6, 6, 8, 8, 9, 9, 10, 10, 11, 11, 12, 12, 13, 13, 14, 14, 15, 15, 16, 16, 17, 17, 18, 18, 19, 19, 20, 20, 21, 21, 22, 22, 23, 23, 24, 24, 25, 25, 26, 26, 27, 27, 28, 28], "right_children": [2, 4, 6, 8, 10, 12, 14, -1, 16, 18, 20, 22, 24, 26, 28, 30, 32, 34, 36, 38, 40, 42, 44, 46, 48, 50, 52, 54, 56, -1, -1, -1, -1, -1, -1, -1, -1, -1, -1, -1, -1, -1, -1, -1, -1, -1, -1, -1, -1, -1, -1, -1, -1, -1, -1, -1, -1], "split_conditions": [0.5, 180.50146, 6.0, 1.0, 707.8879, 203.11711, 762.8885, 0.059761353, 1.0, 4.0, 909.8993, 2.0, 1.0, 1.0, 32.0, 1.0, 104.21253, 6.0, 314.0, 755.4332, 1.0, 1.0, 85.0, 1077.2859, 2.0, 46.0, 697.62823, 8.0, 61.0, 0.03231157, 0.05604417, 0.04587217, -0.010723288, -0.034099396, -0.0052260295, 0.040487986, 0.00992611, 0.03026016, 0.06827723, -0.061830085, 0.020020628, -0.019063976, 0.00661616, 0.013789794, -0.043858454, -0.037367906, -0.06782683, -0.021309106, 0.028043488, 0.006603026, 0.031657044, 0.04609455, 0.004006795, -0.0061473562, -0.066830516, 0.0456775, -0.0064913346], "split_indices": [17, 2, 9, 9, 2, 2, 2, 0, 27, 15, 0, 15, 7, 19, 9, 19, 2, 4, 4, 0, 7, 5, 7, 0, 14, 6, 0, 16, 15, 0, 0, 0, 0, 0, 0, 0, 0, 0, 0, 0, 0, 0, 0, 0, 0, 0, 0, 0, 0, 0, 0, 0, 0, 0, 0, 0, 0], "split_type": [0, 0, 0, 0, 0, 0, 0, 0, 0, 0, 0, 0, 0, 0, 0, 0, 0, 0, 0, 0, 0, 0, 0, 0, 0, 0, 0, 0, 0, 0, 0, 0, 0, 0, 0, 0, 0, 0, 0, 0, 0, 0, 0, 0, 0, 0, 0, 0, 0, 0, 0, 0, 0, 0, 0, 0, 0], "sum_hessian": [6797.493, 3462.3318, 3335.1614, 870.76825, 2591.5635, 2713.4287, 621.73267, 323.0897, 547.6786, 1802.5751, 788.98846, 701.30536, 2012.1234, 581.13855, 40.59415, 450.88162, 96.796936, 1456.5627, 346.01224, 475.65247, 313.336, 385.7631, 315.5423, 1001.93787, 1010.18555, 453.78525, 127.35328, 29.10992, 11.484228, 369.28723, 81.5944, 31.163637, 65.6333, 527.915, 928.6478, 244.8775, 101.13474, 284.6013, 191.05118, 67.669334, 245.66669, 285.40494, 100.35815, 292.40033, 23.141941, 888.61945, 113.31842, 951.8349, 58.350643, 306.08347, 147.7018, 118.5059, 8.847375, 9.188888, 19.921034, 6.365074, 5.1191535], "tree_param": {"num_deleted": "0", "num_feature": "30", "num_nodes": "57", "size_leaf_vector": "1"}}, {"base_weights": [0.008596042, 0.47437507, -0.13939334, 0.7503712, 0.021023797, -0.25832725, 0.4865374, 1.1398544, 0.5469187, -0.07011571, 0.8728531, -0.033501945, -0.4751279, 0.2919345, 0.78588325, 1.1662393, 0.6407734, 0.4478284, 1.0523947, -0.52274406, 0.045853585, 0.98370475, 0.014591791, -0.20216478, 0.52807355, -0.63718355, -0.07764915, 0.4749707, -0.9630297, 0.6403525, 1.1156116, 0.044798095, 0.05918923, 0.0015243905, 0.055990733, 0.026201248, 0.006668297, 0.053895332, 0.024267945, -0.04186758, -0.0023523741, -0.003799069, 0.018564021, 0.037690416, 0.06315973, -0.026871776, 0.00026540668, 0.050034523, -0.018511698, -0.02740944, -0.051559456, 0.0047153155, -0.024419725, 0.007950684, 0.034466684, 0.011919091, -0.10316032, 0.05120163, 0.026684517, 0.05759303, 0.018931638], "categories": [], "categories_nodes": [], "categories_segments": [], "categories_sizes": [], "default_left": [0, 0, 0, 0, 0, 0, 0, 0, 0, 0, 0, 0, 0, 0, 0, 0, 0, 0, 0, 0, 0, 0, 0, 0, 0, 0, 0, 0, 0, 0, 0, 0, 0, 0, 0, 0, 0, 0, 0, 0, 0, 0, 0, 0, 0, 0, 0, 0, 0, 0, 0, 0, 0, 0, 0, 0, 0, 0, 0, 0, 0], "id": 23, "left_children": [1, 3, 5, 7, 9, 11, 13, 15, 17, 19, 21, 23, 25, 27, 29, 31, 33, 35, 37, 39, 41, 43, -1, 45, 47, 49, 51, 53, 55, 57, 59, -1, -1, -1, -1, -1, -1, -1, -1, -1, -1, -1, -1, -1, -1, -1, -1, -1, -1, -1, -1, -1, -1, -1, -1, -1, -1, -1, -1, -1, -1], "loss_changes": [467.10583, 204.42499, 382.96448, 79.85321, 48.142876, 210.6549, 47.624573, 3.8293762, 33.039185, 29.439613, 3.5730362, 201.17903, 141.67737, 115.17793, 14.7873535, 0.49899292, 5.716687, 13.375038, 1.052414, 17.077967, 17.751717, 2.2546349, 0.0, 113.61312, 208.65594, 54.23578, 45.135563, 29.456184, 84.95274, 8.721779, 2.1705627, 0.0, 0.0, 0.0, 0.0, 0.0, 0.0, 0.0, 0.0, 0.0, 0.0, 0.0, 0.0, 0.0, 0.0, 0.0, 0.0, 0.0, 0.0, 0.0, 0.0, 0.0, 0.0, 0.0, 0.0, 0.0, 0.0, 0.0, 0.0, 0.0, 0.0], "parents": [2147483647, 0, 0, 1, 1, 2, 2, 3, 3, 4, 4, 5, 5, 6, 6, 7, 7, 8, 8, 9, 9, 10, 10, 11, 11, 12, 12, 13, 13, 14, 14, 15, 15, 16, 16, 17, 17, 18, 18, 19, 19, 20, 20, 21, 21, 23, 23, 24, 24, 25, 25, 26, 26, 27, 27, 28, 28, 29, 29, 30, 30], "right_children": [2, 4, 6, 8, 10, 12, 14, 16, 18, 20, 22, 24, 26, 28, 30, 32, 34, 36, 38, 40, 42, 44, -1, 46, 48, 50, 52, 54, 56, 58, 60, -1, -1, -1, -1, -1, -1, -1, -1, -1, -1, -1, -1, -1, -1, -1, -1, -1, -1, -1, -1, -1, -1, -1, -1, -1, -1, -1, -1, -1, -1], "split_conditions": [180.50146, 1.0, 1.0, 87.06957, 1.0, 0.48387095, 1.0, 0.16666667, 1.0, 96.73782, 1.5, 707.8879, 17.0, 1135.7561, 6.0, 1.0, 0.52380955, 1.0, 86.0, 2.0, 3.0, 2.0, 0.014591791, 9.0, 801.734, 762.8885, 154.0, 2.0, 41.0, 64.0, 2.0, 0.044798095, 0.05918923, 0.0015243905, 0.055990733, 0.026201248, 0.006668297, 0.053895332, 0.024267945, -0.04186758, -0.0023523741, -0.003799069, 0.018564021, 0.037690416, 0.06315973, -0.026871776, 0.00026540668, 0.050034523, -0.018511698, -0.02740944, -0.051559456, 0.0047153155, -0.024419725, 0.007950684, 0.034466684, 0.011919091, -0.10316032, 0.05120163, 0.026684517, 0.05759303, 0.018931638], "split_indices": [2, 17, 18, 2, 18, 17, 5, 17, 18, 2, 17, 2, 7, 0, 18, 3, 17, 27, 3, 16, 16, 11, 0, 4, 2, 2, 3, 18, 4, 4, 20, 0, 0, 0, 0, 0, 0, 0, 0, 0, 0, 0, 0, 0, 0, 0, 0, 0, 0, 0, 0, 0, 0, 0, 0, 0, 0, 0, 0, 0, 0], "split_type": [0, 0, 0, 0, 0, 0, 0, 0, 0, 0, 0, 0, 0, 0, 0, 0, 0, 0, 0, 0, 0, 0, 0, 0, 0, 0, 0, 0, 0, 0, 0, 0, 0, 0, 0, 0, 0, 0, 0, 0, 0, 0, 0, 0, 0, 0, 0, 0, 0, 0, 0, 0, 0, 0, 0, 0, 0, 0, 0, 0, 0], "sum_hessian": [6774.531, 1632.916, 5141.6147, 1014.58856, 618.3275, 4321.137, 820.47754, 346.55392, 668.0346, 559.3941, 58.93339, 2121.8762, 2199.2607, 498.4279, 322.04965, 327.88303, 18.670908, 560.1185, 107.91608, 113.37678, 446.01733, 48.90902, 10.024372, 1632.2795, 489.59668, 1561.8698, 637.3911, 435.52777, 62.90009, 225.47485, 96.5748, 23.16124, 304.72177, 8.678445, 9.992463, 450.33316, 109.785385, 102.407646, 5.5084367, 67.78567, 45.59111, 325.07907, 120.938255, 28.863888, 20.04513, 623.3584, 1008.9212, 320.73685, 168.85985, 1276.0398, 285.82996, 449.83957, 187.55156, 176.75066, 258.77713, 30.441158, 32.45893, 47.175743, 178.29912, 91.5108, 5.063993], "tree_param": {"num_deleted": "0", "num_feature": "30", "num_nodes": "61", "size_leaf_vector": "1"}}, {"base_weights": [0.017824959, 0.27479744, -0.25110486, 0.9394548, 0.14861658, -0.40262365, 0.33399725, 0.058146704, 0.6726319, 0.012924888, 0.70821136, -0.058111988, -0.5123113, 0.4499652, -0.36758766, 0.51672244, 0.9060786, -0.10845367, 0.47410387, 1.0550617, 0.59935623, -0.12008061, 0.6527314, -0.6281108, -0.15527919, 0.30857632, 0.7709321, -1.2424668, 0.32362947, 0.020807363, 0.042990368, 0.049985155, 0.027256537, -0.010906178, 0.030006347, 0.047248088, -0.020718666, 0.03995112, 0.056622066, 0.04035751, 0.013817682, -0.0023642334, -0.031107426, 0.04286022, -0.004512911, -0.032900393, 0.017869677, 0.0008301477, -0.038830023, 0.0078560645, 0.03625124, 0.043743763, 0.028164987, -0.06897933, -0.022966009, -0.0104599185, 0.056916315], "categories": [], "categories_nodes": [], "categories_segments": [], "categories_sizes": [], "default_left": [0, 0, 0, 0, 0, 0, 0, 0, 0, 0, 0, 0, 0, 0, 0, 0, 0, 0, 0, 0, 0, 0, 0, 0, 0, 0, 0, 0, 0, 0, 0, 0, 0, 0, 0, 0, 0, 0, 0, 0, 0, 0, 0, 0, 0, 0, 0, 0, 0, 0, 0, 0, 0, 0, 0, 0, 0], "id": 24, "left_children": [1, 3, 5, 7, 9, 11, 13, -1, 15, 17, 19, 21, 23, 25, 27, 29, 31, 33, 35, 37, 39, 41, 43, 45, 47, 49, 51, 53, 55, -1, -1, -1, -1, -1, -1, -1, -1, -1, -1, -1, -1, -1, -1, -1, -1, -1, -1, -1, -1, -1, -1, -1, -1, -1, -1, -1, -1], "loss_changes": [466.43402, 289.31848, 292.51532, 32.043335, 220.33893, 98.97934, 55.40383, 0.0, 8.750549, 130.847, 20.749634, 28.000217, 82.06183, 26.222603, 58.973095, 4.962654, 2.8376312, 143.93788, 204.13654, 1.7492065, 28.862762, 21.310694, 7.822712, 44.436523, 52.129253, 25.521282, 3.3409348, 3.9790115, 24.069798, 0.0, 0.0, 0.0, 0.0, 0.0, 0.0, 0.0, 0.0, 0.0, 0.0, 0.0, 0.0, 0.0, 0.0, 0.0, 0.0, 0.0, 0.0, 0.0, 0.0, 0.0, 0.0, 0.0, 0.0, 0.0, 0.0, 0.0, 0.0], "parents": [2147483647, 0, 0, 1, 1, 2, 2, 3, 3, 4, 4, 5, 5, 6, 6, 8, 8, 9, 9, 10, 10, 11, 11, 12, 12, 13, 13, 14, 14, 15, 15, 16, 16, 17, 17, 18, 18, 19, 19, 20, 20, 21, 21, 22, 22, 23, 23, 24, 24, 25, 25, 26, 26, 27, 27, 28, 28], "right_children": [2, 4, 6, 8, 10, 12, 14, -1, 16, 18, 20, 22, 24, 26, 28, 30, 32, 34, 36, 38, 40, 42, 44, 46, 48, 50, 52, 54, 56, -1, -1, -1, -1, -1, -1, -1, -1, -1, -1, -1, -1, -1, -1, -1, -1, -1, -1, -1, -1, -1, -1, -1, -1, -1, -1, -1, -1], "split_conditions": [0.5, 113.15061, 7.0, 85.23184, 1.0, 173.54332, 33.282616, 0.058146704, 2.0, 707.8879, 414.4029, 1.0, 18.0, 47.0, 2.0, 3.0, 0.2857143, 5.0, 781.48486, 2.0, 1.0, 14.41513, 1.25, 2.0, 16.0, 1.0, 154.0, 1.0, 3.0, 0.020807363, 0.042990368, 0.049985155, 0.027256537, -0.010906178, 0.030006347, 0.047248088, -0.020718666, 0.03995112, 0.056622066, 0.04035751, 0.013817682, -0.0023642334, -0.031107426, 0.04286022, -0.004512911, -0.032900393, 0.017869677, 0.0008301477, -0.038830023, 0.0078560645, 0.03625124, 0.043743763, 0.028164987, -0.06897933, -0.022966009, -0.0104599185, 0.056916315], "split_indices": [17, 2, 15, 2, 18, 2, 1, 0, 15, 2, 2, 18, 7, 6, 5, 3, 17, 15, 2, 15, 11, 1, 17, 14, 5, 18, 3, 5, 14, 0, 0, 0, 0, 0, 0, 0, 0, 0, 0, 0, 0, 0, 0, 0, 0, 0, 0, 0, 0, 0, 0, 0, 0, 0, 0, 0, 0], "split_type": [0, 0, 0, 0, 0, 0, 0, 0, 0, 0, 0, 0, 0, 0, 0, 0, 0, 0, 0, 0, 0, 0, 0, 0, 0, 0, 0, 0, 0, 0, 0, 0, 0, 0, 0, 0, 0, 0, 0, 0, 0, 0, 0, 0, 0, 0, 0, 0, 0, 0, 0, 0, 0, 0, 0, 0, 0], "sum_hessian": [6747.3936, 3450.3928, 3297.0007, 549.4932, 2900.8997, 2619.074, 677.9269, 297.20706, 252.28616, 2335.5852, 565.3144, 632.8671, 1986.2068, 582.0723, 95.85456, 153.19017, 99.09599, 1849.5607, 486.02454, 132.96118, 432.3532, 582.8845, 49.982582, 1499.1986, 487.00815, 405.43555, 176.63675, 41.954678, 53.899883, 120.17413, 33.01604, 77.28082, 21.815166, 1602.264, 247.2967, 317.62973, 168.3948, 33.486042, 99.47514, 262.1853, 170.16791, 510.02853, 72.85599, 39.075233, 10.907349, 1455.3794, 43.819237, 382.23895, 104.76921, 298.3193, 107.116234, 115.56832, 61.068428, 35.055313, 6.899366, 33.03655, 20.863337], "tree_param": {"num_deleted": "0", "num_feature": "30", "num_nodes": "57", "size_leaf_vector": "1"}}, {"base_weights": [0.01587572, 0.4652145, -0.12426971, 0.7316274, 0.03629263, -0.23673134, 0.46935856, 0.05799259, 0.55978286, -0.042071894, 0.8140312, -0.5097367, -0.09615963, 0.6491344, 0.18350878, 0.477904, 1.0146115, -0.4951716, 0.06904207, 0.5530153, 1.0752064, -0.6304183, 0.19744386, -0.00631201, -0.8403729, 0.4779202, 0.90893984, -0.032114763, 0.61522543, 0.028049542, 0.005915977, 0.05294105, 0.015195611, -0.018667163, -0.06976415, 0.014847827, -0.0035892413, 0.010654184, 0.05066069, 0.06169181, 0.030666698, -0.03560426, 0.018368965, 0.027296418, -0.0137670785, -0.0071972846, 0.051374316, -0.05959648, -0.017592594, 0.035711173, -0.023645943, 0.047994025, 0.0053709038, 0.008390596, -0.06869569, 0.036365964, 0.0007311304], "categories": [], "categories_nodes": [], "categories_segments": [], "categories_sizes": [], "default_left": [0, 0, 0, 0, 0, 0, 0, 0, 0, 0, 0, 0, 0, 0, 0, 0, 0, 0, 0, 0, 0, 0, 0, 0, 0, 0, 0, 0, 0, 0, 0, 0, 0, 0, 0, 0, 0, 0, 0, 0, 0, 0, 0, 0, 0, 0, 0, 0, 0, 0, 0, 0, 0, 0, 0, 0, 0], "id": 25, "left_children": [1, 3, 5, 7, 9, 11, 13, -1, 15, 17, 19, 21, 23, 25, 27, 29, 31, 33, 35, 37, 39, 41, 43, 45, 47, 49, 51, 53, 55, -1, -1, -1, -1, -1, -1, -1, -1, -1, -1, -1, -1, -1, -1, -1, -1, -1, -1, -1, -1, -1, -1, -1, -1, -1, -1, -1, -1], "loss_changes": [419.50952, 180.95197, 339.1248, 71.239685, 37.08189, 163.81729, 41.46158, 0.0, 25.549469, 27.884146, 3.201889, 123.96524, 188.54582, 21.643967, 29.23072, 17.689987, 3.0011368, 11.438757, 14.307855, 4.4635677, 1.2051792, 101.28839, 35.127384, 358.2932, 51.748306, 68.03287, 7.9017334, 56.625885, 7.0296326, 0.0, 0.0, 0.0, 0.0, 0.0, 0.0, 0.0, 0.0, 0.0, 0.0, 0.0, 0.0, 0.0, 0.0, 0.0, 0.0, 0.0, 0.0, 0.0, 0.0, 0.0, 0.0, 0.0, 0.0, 0.0, 0.0, 0.0, 0.0], "parents": [2147483647, 0, 0, 1, 1, 2, 2, 3, 3, 4, 4, 5, 5, 6, 6, 8, 8, 9, 9, 10, 10, 11, 11, 12, 12, 13, 13, 14, 14, 15, 15, 16, 16, 17, 17, 18, 18, 19, 19, 20, 20, 21, 21, 22, 22, 23, 23, 24, 24, 25, 25, 26, 26, 27, 27, 28, 28], "right_children": [2, 4, 6, 8, 10, 12, 14, -1, 16, 18, 20, 22, 24, 26, 28, 30, 32, 34, 36, 38, 40, 42, 44, 46, 48, 50, 52, 54, 56, -1, -1, -1, -1, -1, -1, -1, -1, -1, -1, -1, -1, -1, -1, -1, -1, -1, -1, -1, -1, -1, -1, -1, -1, -1, -1, -1, -1], "split_conditions": [180.50146, 1.0, 1.0, 1.0, 1.0, 11.0, 0.48387095, 0.05799259, 1.0, 96.73782, 2.0, 5.0, 989.8585, 1.0, 19.0, 1.0, 25.0, 96.07105, 110.4497, 15.0, 1.3076923, 4.0, 577.25885, 746.97845, 1.0, 51.0, 8.0, 125.0, 33.0, 0.028049542, 0.005915977, 0.05294105, 0.015195611, -0.018667163, -0.06976415, 0.014847827, -0.0035892413, 0.010654184, 0.05066069, 0.06169181, 0.030666698, -0.03560426, 0.018368965, 0.027296418, -0.0137670785, -0.0071972846, 0.051374316, -0.05959648, -0.017592594, 0.035711173, -0.023645943, 0.047994025, 0.0053709038, 0.008390596, -0.06869569, 0.036365964, 0.0007311304], "split_indices": [2, 17, 19, 9, 19, 4, 17, 0, 19, 2, 11, 9, 2, 5, 7, 27, 5, 2, 2, 7, 17, 26, 2, 2, 5, 4, 13, 4, 26, 0, 0, 0, 0, 0, 0, 0, 0, 0, 0, 0, 0, 0, 0, 0, 0, 0, 0, 0, 0, 0, 0, 0, 0, 0, 0, 0, 0], "split_type": [0, 0, 0, 0, 0, 0, 0, 0, 0, 0, 0, 0, 0, 0, 0, 0, 0, 0, 0, 0, 0, 0, 0, 0, 0, 0, 0, 0, 0, 0, 0, 0, 0, 0, 0, 0, 0, 0, 0, 0, 0, 0, 0, 0, 0, 0, 0, 0, 0, 0, 0, 0, 0, 0, 0, 0, 0], "sum_hessian": [6659.8413, 1582.7756, 5077.066, 975.91034, 606.86536, 4268.9277, 808.1381, 277.82956, 698.08075, 552.17444, 54.6909, 1450.0833, 2818.8445, 495.3396, 312.7985, 593.3211, 104.75969, 108.06232, 444.11215, 28.912975, 25.777924, 1238.7902, 211.2931, 2516.0896, 302.75476, 300.28714, 195.05246, 209.22525, 103.57323, 481.50317, 111.817894, 98.16354, 6.596151, 96.42601, 11.636301, 169.18852, 274.92365, 17.470896, 11.44208, 17.943771, 7.8341527, 1145.3342, 93.455956, 121.54732, 89.74579, 2221.2292, 294.86035, 175.2203, 127.53447, 240.71365, 59.573494, 183.21094, 11.841532, 182.85498, 26.37027, 87.10531, 16.467922], "tree_param": {"num_deleted": "0", "num_feature": "30", "num_nodes": "57", "size_leaf_vector": "1"}}, {"base_weights": [-0.00027749236, 1.1803318, -0.053906295, 0.057674002, 0.076444484, -0.16152942, 0.54344755, -0.2421609, 0.26826063, 0.8619337, 0.38517815, -0.042605776, -0.40953034, 0.40492794, -0.2523471, 0.8764443, 0.00017566326, 0.17336181, 0.7252394, -0.00993922, 0.032376055, -0.005916505, -0.025560275, 0.014204166, 0.033820435, -0.026079996, 0.011481962, 0.040237725, 0.052529406, 0.023460748, -0.039829146, 0.029372284, 0.053674024], "categories": [], "categories_nodes": [], "categories_segments": [], "categories_sizes": [], "default_left": [0, 0, 0, 0, 0, 0, 0, 0, 0, 0, 0, 0, 0, 0, 0, 0, 0, 0, 0, 0, 0, 0, 0, 0, 0, 0, 0, 0, 0, 0, 0, 0, 0], "id": 26, "left_children": [1, 3, 5, -1, -1, 7, 9, 11, 13, 15, 17, 19, 21, 23, 25, 27, -1, 29, 31, -1, -1, -1, -1, -1, -1, -1, -1, -1, -1, -1, -1, -1, -1], "loss_changes": [417.35165, 0.91711426, 405.44885, 0.0, 0.0, 185.24113, 48.1998, 150.27643, 60.194527, 3.9681396, 46.3332, 221.4831, 72.39557, 21.767357, 22.990356, 3.0685425, 0.0, 114.799515, 11.233276, 0.0, 0.0, 0.0, 0.0, 0.0, 0.0, 0.0, 0.0, 0.0, 0.0, 0.0, 0.0, 0.0, 0.0], "parents": [2147483647, 0, 0, 1, 1, 2, 2, 5, 5, 6, 6, 7, 7, 8, 8, 9, 9, 10, 10, 11, 11, 12, 12, 13, 13, 14, 14, 15, 15, 17, 17, 18, 18], "right_children": [2, 4, 6, -1, -1, 8, 10, 12, 14, 16, 18, 20, 22, 24, 26, 28, -1, 30, 32, -1, -1, -1, -1, -1, -1, -1, -1, -1, -1, -1, -1, -1, -1], "split_conditions": [1.0, 169.31487, 1.0, 0.057674002, 0.076444484, 5.0, 445.49472, 1.0, 594.6832, 991.1901, 1.0, 707.8879, 203.11711, 18.0, 6.0, 3.0, 0.00017566326, 43.0, 6.0, -0.00993922, 0.032376055, -0.005916505, -0.025560275, 0.014204166, 0.033820435, -0.026079996, 0.011481962, 0.040237725, 0.052529406, 0.023460748, -0.039829146, 0.029372284, 0.053674024], "split_indices": [15, 2, 19, 0, 0, 9, 2, 16, 2, 0, 5, 2, 2, 15, 6, 11, 0, 4, 14, 0, 0, 0, 0, 0, 0, 0, 0, 0, 0, 0, 0, 0, 0], "split_type": [0, 0, 0, 0, 0, 0, 0, 0, 0, 0, 0, 0, 0, 0, 0, 0, 0, 0, 0, 0, 0, 0, 0, 0, 0, 0, 0, 0, 0, 0, 0, 0, 0], "sum_hessian": [6589.701, 285.4158, 6304.2856, 269.00208, 16.413748, 5342.4795, 961.80597, 4498.8936, 843.58594, 317.81656, 643.9894, 2052.7031, 2446.1904, 668.355, 175.23099, 312.5129, 5.303653, 397.7499, 246.2395, 1674.4745, 378.2287, 633.62805, 1812.5623, 463.90338, 204.45158, 112.37345, 62.85754, 225.36018, 87.152725, 305.17996, 92.56993, 178.35431, 67.8852], "tree_param": {"num_deleted": "0", "num_feature": "30", "num_nodes": "33", "size_leaf_vector": "1"}}, {"base_weights": [0.008845078, 1.1669097, -0.043951556, 0.05725351, 0.073958606, -0.1414755, 0.51162666, -0.21714166, 0.33685678, 0.8314703, 0.34739336, -0.004091354, -0.4227382, 0.40846583, -0.6252179, 0.8591885, -0.022868408, 0.026350338, 0.5347078, -0.00647354, 0.024724877, -0.004808079, -0.027116416, 0.009771259, 0.029412806, -0.03900535, 0.008720801, 0.04903443, 0.031991012, -0.009474352, 0.03035532, 0.018514073, 0.040003974], "categories": [], "categories_nodes": [], "categories_segments": [], "categories_sizes": [], "default_left": [0, 0, 0, 0, 0, 0, 0, 0, 0, 0, 0, 0, 0, 0, 0, 0, 0, 0, 0, 0, 0, 0, 0, 0, 0, 0, 0, 0, 0, 0, 0, 0, 0], "id": 27, "left_children": [1, 3, 5, -1, -1, 7, 9, 11, 13, 15, 17, 19, 21, 23, 25, 27, -1, 29, 31, -1, -1, -1, -1, -1, -1, -1, -1, -1, -1, -1, -1, -1, -1], "loss_changes": [402.70657, 0.2647705, 341.3876, 0.0, 0.0, 194.05371, 49.134064, 202.72124, 50.713272, 11.7708435, 37.473328, 142.21007, 91.933044, 26.017944, 6.4691257, 7.691925, 0.0, 29.038996, 16.879417, 0.0, 0.0, 0.0, 0.0, 0.0, 0.0, 0.0, 0.0, 0.0, 0.0, 0.0, 0.0, 0.0, 0.0], "parents": [2147483647, 0, 0, 1, 1, 2, 2, 5, 5, 6, 6, 7, 7, 8, 8, 9, 9, 10, 10, 11, 11, 12, 12, 13, 13, 14, 14, 15, 15, 17, 17, 18, 18], "right_children": [2, 4, 6, -1, -1, 8, 10, 12, 14, 16, 18, 20, 22, 24, 26, 28, -1, 30, 32, -1, -1, -1, -1, -1, -1, -1, -1, -1, -1, -1, -1, -1, -1], "split_conditions": [1.0, 169.31487, 1.0, 0.05725351, 0.073958606, 6.0, 460.53552, 0.48387095, 758.2178, 15.0, 2.0, 707.8879, 203.11711, 6.0, 48.0, 0.6666667, -0.022868408, 4.0, 1.0, -0.00647354, 0.024724877, -0.004808079, -0.027116416, 0.009771259, 