{"learner": {"attributes": {"best_iteration": "66", "best_score": "0.7404326032159877"}, "feature_names": [], "feature_types": [], "gradient_booster": {"model": {"cats": {"enc": [], "feature_segments": [], "sorted_idx": []}, "gbtree_model_param": {"num_parallel_tree": "1", "num_trees": "107"}, "iteration_indptr": [0, 1, 2, 3, 4, 5, 6, 7, 8, 9, 10, 11, 12, 13, 14, 15, 16, 17, 18, 19, 20, 21, 22, 23, 24, 25, 26, 27, 28, 29, 30, 31, 32, 33, 34, 35, 36, 37, 38, 39, 40, 41, 42, 43, 44, 45, 46, 47, 48, 49, 50, 51, 52, 53, 54, 55, 56, 57, 58, 59, 60, 61, 62, 63, 64, 65, 66, 67, 68, 69, 70, 71, 72, 73, 74, 75, 76, 77, 78, 79, 80, 81, 82, 83, 84, 85, 86, 87, 88, 89, 90, 91, 92, 93, 94, 95, 96, 97, 98, 99, 100, 101, 102, 103, 104, 105, 106, 107], "tree_info": [0, 0, 0, 0, 0, 0, 0, 0, 0, 0, 0, 0, 0, 0, 0, 0, 0, 0, 0, 0, 0, 0, 0, 0, 0, 0, 0, 0, 0, 0, 0, 0, 0, 0, 0, 0, 0, 0, 0, 0, 0, 0, 0, 0, 0, 0, 0, 0, 0, 0, 0, 0, 0, 0, 0, 0, 0, 0, 0, 0, 0, 0, 0, 0, 0, 0, 0, 0, 0, 0, 0, 0, 0, 0, 0, 0, 0, 0, 0, 0, 0, 0, 0, 0, 0, 0, 0, 0, 0, 0, 0, 0, 0, 0, 0, 0, 0, 0, 0, 0, 0, 0, 0, 0, 0, 0, 0], "trees": [{"base_weights": [0.0010072419, 0.5316808, -0.93544364, 1.5159007, 0.13457231, -1.1254321, 0.93237156, 0.09980646, 1.1544565, -0.31670216, 1.4179983, -1.1933165, 0.48131377, 0.49415722, 1.5892004, 0.93283343, 0.09435487, -0.19362766, -1.1317056, 1.1316183, 1.5646101, -0.64340377, -1.3814511, -0.17472935, 1.0386564, 1.1394111, -0.16145763, 1.6472323, 0.029981708, 0.03476001, 0.060183194, -0.01649337, 0.061819714, -0.029935768, -0.06470572, 0.08093939, 0.048416294, 0.08126142, 0.03159458, -0.039502073, 0.0047470364, -0.08170457, -0.059843894, -0.025682082, 0.038346548, 0.035447918, 0.071381204, 0.020506276, 0.06849418, 0.002419789, -0.050856084, 0.06478532, 0.0928761], "categories": [], "categories_nodes": [], "categories_segments": [], "categories_sizes": [], "default_left": [0, 0, 0, 0, 0, 0, 0, 0, 0, 0, 0, 0, 0, 0, 0, 0, 0, 0, 0, 0, 0, 0, 0, 0, 0, 0, 0, 0, 0, 0, 0, 0, 0, 0, 0, 0, 0, 0, 0, 0, 0, 0, 0, 0, 0, 0, 0, 0, 0, 0, 0, 0, 0], "id": 0, "left_children": [1, 3, 5, 7, 9, 11, 13, -1, 15, 17, 19, 21, 23, 25, 27, 29, -1, 31, 33, 35, 37, 39, 41, 43, 45, 47, 49, 51, -1, -1, -1, -1, -1, -1, -1, -1, -1, -1, -1, -1, -1, -1, -1, -1, -1, -1, -1, -1, -1, -1, -1, -1, -1], "loss_changes": [3267.3513, 1640.0177, 844.9768, 207.09131, 1732.9257, 236.06958, 62.57048, 0.0, 110.385376, 221.85097, 30.909668, 213.45752, 32.44349, 56.651115, 4.0448, 33.41794, 0.0, 375.38245, 24.350525, 19.685638, 27.931885, 57.457504, 69.98706, 13.601375, 5.1242104, 10.766052, 12.0951605, 3.6701202, 0.0, 0.0, 0.0, 0.0, 0.0, 0.0, 0.0, 0.0, 0.0, 0.0, 0.0, 0.0, 0.0, 0.0, 0.0, 0.0, 0.0, 0.0, 0.0, 0.0, 0.0, 0.0, 0.0, 0.0, 0.0], "parents": [2147483647, 0, 0, 1, 1, 2, 2, 3, 3, 4, 4, 5, 5, 6, 6, 8, 8, 9, 9, 10, 10, 11, 11, 12, 12, 13, 13, 14, 14, 15, 15, 17, 17, 18, 18, 19, 19, 20, 20, 21, 21, 22, 22, 23, 23, 24, 24, 25, 25, 26, 26, 27, 27], "right_children": [2, 4, 6, 8, 10, 12, 14, -1, 16, 18, 20, 22, 24, 26, 28, 30, -1, 32, 34, 36, 38, 40, 42, 44, 46, 48, 50, 52, -1, -1, -1, -1, -1, -1, -1, -1, -1, -1, -1, -1, -1, -1, -1, -1, -1, -1, -1, -1, -1, -1, -1, -1, -1], "split_conditions": [1.0, 179.42285, 1.0, 1.0, 1.0, 15.0, 3.0, 0.09980646, 1.0, 777.4669, 2.0, 182.47194, 34.0, 481.11176, 1437.4119, 3.0, 0.09435487, 746.29895, 989.44916, 446.3388, 2.0, 3.0, 6.0, 49.0, 49.0, 2.0, 1.5, 6.0, 0.029981708, 0.03476001, 0.060183194, -0.01649337, 0.061819714, -0.029935768, -0.06470572, 0.08093939, 0.048416294, 0.08126142, 0.03159458, -0.039502073, 0.0047470364, -0.08170457, -0.059843894, -0.025682082, 0.038346548, 0.035447918, 0.071381204, 0.020506276, 0.06849418, 0.002419789, -0.050856084, 0.06478532, 0.0928761], "split_indices": [17, 2, 18, 15, 18, 10, 18, 0, 18, 2, 18, 2, 6, 2, 2, 15, 0, 2, 0, 2, 20, 15, 3, 10, 10, 15, 17, 15, 0, 0, 0, 0, 0, 0, 0, 0, 0, 0, 0, 0, 0, 0, 0, 0, 0, 0, 0, 0, 0, 0, 0, 0, 0], "split_type": [0, 0, 0, 0, 0, 0, 0, 0, 0, 0, 0, 0, 0, 0, 0, 0, 0, 0, 0, 0, 0, 0, 0, 0, 0, 0, 0, 0, 0, 0, 0, 0, 0, 0, 0, 0, 0, 0, 0, 0, 0, 0, 0, 0, 0, 0, 0, 0, 0, 0, 0, 0, 0], "sum_hessian": [6572.8105, 4195.6353, 2377.1755, 1205.3641, 2990.2712, 2158.0615, 219.11403, 515.6841, 689.68, 2212.9229, 777.34827, 2070.8271, 87.23416, 132.48007, 86.63396, 531.25055, 158.42946, 1923.6658, 289.25717, 266.16364, 511.1846, 528.9985, 1541.8287, 40.38446, 46.849697, 66.39571, 66.08436, 81.20706, 5.4268923, 284.8676, 246.38295, 1757.0399, 166.62578, 68.649796, 220.60736, 64.58028, 201.58334, 479.29248, 31.89213, 441.28732, 87.71115, 647.58026, 894.2485, 30.030676, 10.353785, 26.88446, 19.965237, 16.611454, 49.78426, 53.82669, 12.257669, 33.07669, 48.130375], "tree_param": {"num_deleted": "0", "num_feature": "30", "num_nodes": "53", "size_leaf_vector": "1"}}, {"base_weights": [-0.005726703, 0.50024843, -0.8977621, 0.09521543, 0.30197793, -1.0752352, 0.9214712, -0.07085917, 1.4088771, -1.1526178, 0.6350658, 0.38481483, 1.3122069, -0.250215, 0.7051663, 1.4996004, 1.1095706, -1.0634373, -1.7965816, -0.02769195, 1.1055145, -0.111760154, 0.9605893, 1.3948911, 0.5415683, -0.0073498273, -0.04251787, 0.039006285, -0.09095616, 0.076391965, 0.04598948, 0.042972427, 0.07231208, -0.060862478, -0.04027884, -0.091568515, -0.06804075, -0.028129885, 0.051672887, 0.029682744, 0.06673839, -0.025474215, 0.04278671, 0.03179563, 0.06363299, 0.05214004, 0.07785113, -0.0029163845, 0.064113185], "categories": [], "categories_nodes": [], "categories_segments": [], "categories_sizes": [], "default_left": [0, 0, 0, 0, 0, 0, 0, 0, 0, 0, 0, 0, 0, 0, 0, 0, 0, 0, 0, 0, 0, 0, 0, 0, 0, 0, 0, 0, 0, 0, 0, 0, 0, 0, 0, 0, 0, 0, 0, 0, 0, 0, 0, 0, 0, 0, 0, 0, 0], "id": 1, "left_children": [1, 3, 5, -1, 7, 9, 11, 13, 15, 17, 19, 21, 23, 25, 27, 29, 31, 33, 35, 37, 39, 41, 43, 45, 47, -1, -1, -1, -1, -1, -1, -1, -1, -1, -1, -1, -1, -1, -1, -1, -1, -1, -1, -1, -1, -1, -1, -1, -1], "loss_changes": [2973.7903, 1169.7737, 770.8983, 0.0, 1520.9006, 288.33887, 44.05217, 383.98114, 23.549805, 117.50781, 29.561043, 26.109245, 7.053238, 138.66968, 99.42285, 10.215088, 17.268616, 71.558105, 1.3203125, 23.453403, 5.7105103, 19.570127, 3.4682312, 4.657852, 6.07741, 0.0, 0.0, 0.0, 0.0, 0.0, 0.0, 0.0, 0.0, 0.0, 0.0, 0.0, 0.0, 0.0, 0.0, 0.0, 0.0, 0.0, 0.0, 0.0, 0.0, 0.0, 0.0, 0.0, 0.0], "parents": [2147483647, 0, 0, 1, 1, 2, 2, 4, 4, 5, 5, 6, 6, 7, 7, 8, 8, 9, 9, 10, 10, 11, 11, 12, 12, 13, 13, 14, 14, 15, 15, 16, 16, 17, 17, 18, 18, 19, 19, 20, 20, 21, 21, 22, 22, 23, 23, 24, 24], "right_children": [2, 4, 6, -1, 8, 10, 12, 14, 16, 18, 20, 22, 24, 26, 28, 30, 32, 34, 36, 38, 40, 42, 44, 46, 48, -1, -1, -1, -1, -1, -1, -1, -1, -1, -1, -1, -1, -1, -1, -1, -1, -1, -1, -1, -1, -1, -1, -1, -1], "split_conditions": [1.0, 1.0, 1.0, 0.09521543, 1.0, 15.0, 2.0, 5.0, 0.5, 1.0, 24.0, 2.0, 0.189804, 1.0, 1.0, 2.0, 5.0, 5.0, 1.0, 42.0, 21.0, 17.0, 6.0, 3.0, 1.1666666, -0.0073498273, -0.04251787, 0.039006285, -0.09095616, 0.076391965, 0.04598948, 0.042972427, 0.07231208, -0.060862478, -0.04027884, -0.091568515, -0.06804075, -0.028129885, 0.051672887, 0.029682744, 0.06673839, -0.025474215, 0.04278671, 0.03179563, 0.06363299, 0.05214004, 0.07785113, -0.0029163845, 0.064113185], "split_indices": [17, 15, 18, 0, 18, 10, 18, 9, 17, 12, 6, 9, 24, 12, 13, 20, 9, 7, 22, 10, 15, 7, 9, 18, 17, 0, 0, 0, 0, 0, 0, 0, 0, 0, 0, 0, 0, 0, 0, 0, 0, 0, 0, 0, 0, 0, 0, 0, 0], "split_type": [0, 0, 0, 0, 0, 0, 0, 0, 0, 0, 0, 0, 0, 0, 0, 0, 0, 0, 0, 0, 0, 0, 0, 0, 0, 0, 0, 0, 0, 0, 0, 0, 0, 0, 0, 0, 0, 0, 0, 0, 0, 0, 0, 0, 0, 0, 0, 0, 0], "sum_hessian": [6586.6953, 4203.085, 2383.61, 519.0201, 3684.065, 2172.1204, 211.48967, 2756.5212, 927.54364, 2078.409, 93.71151, 89.942665, 121.547, 2239.584, 516.9374, 708.71405, 218.82959, 1827.918, 250.491, 39.294884, 54.416626, 48.72545, 41.21722, 109.03793, 12.509063, 1911.9865, 327.5974, 502.7005, 14.236861, 674.24097, 34.473057, 127.591255, 91.23834, 1142.6277, 685.2903, 229.00612, 21.48488, 26.43787, 12.857014, 17.943419, 36.473206, 34.865925, 13.859523, 21.689392, 19.527828, 36.722317, 72.31561, 7.4204364, 5.088627], "tree_param": {"num_deleted": "0", "num_feature": "30", "num_nodes": "49", "size_leaf_vector": "1"}}, {"base_weights": [0.016154986, 0.49645075, -0.8368342, 0.23415937, 1.3726107, -0.9999362, 0.8278772, 0.09104316, -0.025963053, 1.5465493, 1.1892303, -1.2296742, -0.4752789, 0.43198287, 1.3839346, -0.17745008, 0.6554572, 0.08072236, 1.3573856, -0.17338373, 1.3857058, -1.1372354, -1.6757437, -0.6419882, 0.5213929, 0.6446434, -0.5904801, 1.1336527, 0.08437893, -0.0033356675, -0.04288632, 0.03604988, -0.076235406, 0.052872937, 0.07513406, 0.022471473, -0.09982493, 0.0721103, 0.029794067, -0.060906123, -0.033000264, -0.0866399, -0.05774307, -0.042554688, -0.012962063, -0.00086811197, 0.05371629, 0.017563779, 0.046133887, -0.073980264, 0.014549903, 0.040171277, 0.07764996], "categories": [], "categories_nodes": [], "categories_segments": [], "categories_sizes": [], "default_left": [0, 0, 0, 0, 0, 0, 0, 0, 0, 0, 0, 0, 0, 0, 0, 0, 0, 0, 0, 0, 0, 0, 0, 0, 0, 0, 0, 0, 0, 0, 0, 0, 0, 0, 0, 0, 0, 0, 0, 0, 0, 0, 0, 0, 0, 0, 0, 0, 0, 0, 0, 0, 0], "id": 2, "left_children": [1, 3, 5, 7, 9, 11, 13, -1, 15, 17, 19, 21, 23, 25, 27, 29, 31, -1, 33, 35, 37, 39, 41, 43, 45, 47, 49, 51, -1, -1, -1, -1, -1, -1, -1, -1, -1, -1, -1, -1, -1, -1, -1, -1, -1, -1, -1, -1, -1, -1, -1, -1, -1], "loss_changes": [2694.81, 966.7571, 644.1985, 1337.2537, 29.079346, 259.59302, 46.069366, 0.0, 287.55084, 4.1553955, 127.724976, 59.968994, 109.82675, 27.621529, 4.7523193, 171.61258, 73.49422, 0.0, 4.372406, 70.04396, 17.71759, 47.297485, 5.5911255, 44.99855, 28.313196, 8.174179, 17.74549, 5.8320312, 0.0, 0.0, 0.0, 0.0, 0.0, 0.0, 0.0, 0.0, 0.0, 0.0, 0.0, 0.0, 0.0, 0.0, 0.0, 0.0, 0.0, 0.0, 0.0, 0.0, 0.0, 0.0, 0.0, 0.0, 0.0], "parents": [2147483647, 0, 0, 1, 1, 2, 2, 3, 3, 4, 4, 5, 5, 6, 6, 8, 8, 9, 9, 10, 10, 11, 11, 12, 12, 13, 13, 14, 14, 15, 15, 16, 16, 18, 18, 19, 19, 20, 20, 21, 21, 22, 22, 23, 23, 24, 24, 25, 25, 26, 26, 27, 27], "right_children": [2, 4, 6, 8, 10, 12, 14, -1, 16, 18, 20, 22, 24, 26, 28, 30, 32, -1, 34, 36, 38, 40, 42, 44, 46, 48, 50, 52, -1, -1, -1, -1, -1, -1, -1, -1, -1, -1, -1, -1, -1, -1, -1, -1, -1, -1, -1, -1, -1, -1, -1, -1, -1], "split_conditions": [1.0, 1.0, 1.0, 1.0, 544.50903, 2.0, 3.0, 0.09104316, 5.0, 0.5, 1.0, 1.0, 15.0, 1079.9838, 6.0, 1.0, 1.0, 0.08072236, 3.0, 23.0, 2.0, 729.08704, 2.0, 12.0, 51.0, 2.0, 17.0, 1.0, 0.08437893, -0.0033356675, -0.04288632, 0.03604988, -0.076235406, 0.052872937, 0.07513406, 0.022471473, -0.09982493, 0.0721103, 0.029794067, -0.060906123, -0.033000264, -0.0866399, -0.05774307, -0.042554688, -0.012962063, -0.00086811197, 0.05371629, 0.017563779, 0.046133887, -0.073980264, 0.014549903, 0.040171277, 0.07764996], "split_indices": [17, 18, 18, 20, 0, 9, 18, 0, 9, 17, 7, 12, 10, 0, 9, 12, 12, 0, 10, 3, 20, 0, 20, 7, 6, 9, 7, 5, 0, 0, 0, 0, 0, 0, 0, 0, 0, 0, 0, 0, 0, 0, 0, 0, 0, 0, 0, 0, 0, 0, 0, 0, 0], "split_type": [0, 0, 0, 0, 0, 0, 0, 0, 0, 0, 0, 0, 0, 0, 0, 0, 0, 0, 0, 0, 0, 0, 0, 0, 0, 0, 0, 0, 0, 0, 0, 0, 0, 0, 0, 0, 0, 0, 0, 0, 0, 0, 0, 0, 0, 0, 0, 0, 0, 0, 0, 0, 0], "sum_hessian": [6575.7134, 4207.179, 2368.534, 3238.8494, 968.32996, 2157.5454, 210.98871, 455.34152, 2783.5078, 493.14355, 475.1864, 1499.5679, 657.9775, 124.281364, 86.70734, 2277.8557, 505.65216, 357.34454, 135.79901, 59.89751, 415.2889, 1245.0964, 254.4714, 563.99603, 93.981476, 103.1888, 21.092566, 50.124863, 36.582478, 1959.9149, 317.9408, 491.5446, 14.107569, 47.018597, 88.78041, 45.207268, 14.690242, 386.7936, 28.495289, 1063.3191, 181.77731, 227.25288, 27.218529, 363.94107, 200.05493, 48.0916, 45.88988, 51.311207, 51.87759, 10.162925, 10.929641, 29.673481, 20.451382], "tree_param": {"num_deleted": "0", "num_feature": "30", "num_nodes": "53", "size_leaf_vector": "1"}}, {"base_weights": [0.005563159, 0.4589406, -0.7852409, 0.08793296, 0.2818845, -0.9571618, 0.8813679, -0.053181745, 1.2914577, -1.1694702, -0.47378016, 0.553432, 1.3489176, -0.2411742, 0.58330786, 1.328581, 0.5231767, -1.074249, -1.6239197, -0.6627303, 0.34469467, 0.75854474, -0.63622767, 0.8638986, 1.5050188, -0.0074287243, -0.05085907, 0.031961408, -0.07491578, 0.055667657, 0.072353005, 0.058032226, -0.05412009, -0.057982247, -0.027643308, -0.08301327, -0.042968456, -0.040315893, -0.01445506, -0.016744692, 0.035613608, 0.01617423, 0.055707093, -0.07476232, 0.024178065, 0.019261038, 0.061870642, 0.0776251, 0.04249971], "categories": [], "categories_nodes": [], "categories_segments": [], "categories_sizes": [], "default_left": [0, 0, 0, 0, 0, 0, 0, 0, 0, 0, 0, 0, 0, 0, 0, 0, 0, 0, 0, 0, 0, 0, 0, 0, 0, 0, 0, 0, 0, 0, 0, 0, 0, 0, 0, 0, 0, 0, 0, 0, 0, 0, 0, 0, 0, 0, 0, 0, 0], "id": 3, "left_children": [1, 3, 5, -1, 7, 9, 11, 13, 15, 17, 19, 21, 23, 25, 27, 29, 31, 33, 35, 37, 39, 41, 43, 45, 47, -1, -1, -1, -1, -1, -1, -1, -1, -1, -1, -1, -1, -1, -1, -1, -1, -1, -1, -1, -1, -1, -1, -1, -1], "loss_changes": [2352.5225, 959.23535, 685.9276, 0.0, 1242.1036, 221.92969, 33.614502, 330.11514, 25.400879, 63.408936, 102.80464, 33.037468, 5.6418915, 152.87952, 74.186356, 20.628784, 46.10961, 54.914185, 5.7667847, 28.694992, 31.478756, 17.314812, 20.118645, 3.934578, 0.79592896, 0.0, 0.0, 0.0, 0.0, 0.0, 0.0, 0.0, 0.0, 0.0, 0.0, 0.0, 0.0, 0.0, 0.0, 0.0, 0.0, 0.0, 0.0, 0.0, 0.0, 0.0, 0.0, 0.0, 0.0], "parents": [2147483647, 0, 0, 1, 1, 2, 2, 4, 4, 5, 5, 6, 6, 7, 7, 8, 8, 9, 9, 10, 10, 11, 11, 12, 12, 13, 13, 14, 14, 15, 15, 16, 16, 17, 17, 18, 18, 19, 19, 20, 20, 21, 21, 22, 22, 23, 23, 24, 24], "right_children": [2, 4, 6, -1, 8, 10, 12, 14, 16, 18, 20, 22, 24, 26, 28, 30, 32, 34, 36, 38, 40, 42, 44, 46, 48, -1, -1, -1, -1, -1, -1, -1, -1, -1, -1, -1, -1, -1, -1, -1, -1, -1, -1, -1, -1, -1, -1, -1, -1], "split_conditions": [1.0, 1.0, 1.0, 0.08793296, 1.0, 2.0, 3.0, 4.0, 2.0, 1.0, 8.0, 9.0, 3.0, 34.38634, 1.0, 2.0, 2.0, 24.302902, 3.0, 19.0, 8.0, 2.0, 277.0, 2.0, 1e-06, -0.0074287243, -0.05085907, 0.031961408, -0.07491578, 0.055667657, 0.072353005, 0.058032226, -0.05412009, -0.057982247, -0.027643308, -0.08301327, -0.042968456, -0.040315893, -0.01445506, -0.016744692, 0.035613608, 0.01617423, 0.055707093, -0.07476232, 0.024178065, 0.019261038, 0.061870642, 0.0776251, 0.04249971], "split_indices": [17, 15, 18, 0, 18, 9, 18, 9, 20, 12, 15, 26, 15, 1, 12, 18, 9, 1, 17, 7, 7, 9, 3, 6, 24, 0, 0, 0, 0, 0, 0, 0, 0, 0, 0, 0, 0, 0, 0, 0, 0, 0, 0, 0, 0, 0, 0, 0, 0], "split_type": [0, 0, 0, 0, 0, 0, 0, 0, 0, 0, 0, 0, 0, 0, 0, 0, 0, 0, 0, 0, 0, 0, 0, 0, 0, 0, 0, 0, 0, 0, 0, 0, 0, 0, 0, 0, 0, 0, 0, 0, 0, 0, 0, 0, 0, 0, 0, 0, 0], "sum_hessian": [6559.523, 4169.5117, 2390.0112, 498.82758, 3670.684, 2166.9072, 223.10402, 2756.7097, 913.9743, 1504.6315, 662.27576, 132.41371, 90.690315, 2128.6243, 628.08563, 871.15106, 42.823284, 1246.7607, 257.8707, 538.2156, 124.06021, 113.25028, 19.163431, 23.672422, 67.01789, 1902.762, 225.86217, 612.3291, 15.756536, 312.98428, 558.16675, 30.851383, 11.971902, 1070.2441, 176.5166, 245.04984, 12.820845, 387.9618, 150.25378, 43.578976, 80.48123, 51.793053, 61.45723, 10.65467, 8.508762, 11.265914, 12.406508, 61.21055, 5.807342], "tree_param": {"num_deleted": "0", "num_feature": "30", "num_nodes": "49", "size_leaf_vector": "1"}}, {"base_weights": [0.0013575612, 0.43462917, -0.758349, 1.3167838, 0.07860603, -0.9137634, 0.78348327, 0.08449016, 1.0435007, -0.28867757, 1.1549937, -1.1084418, -0.4645716, 1.2514088, 0.33019584, 0.87324, 1.6049416, -0.18213323, -1.0757705, 0.8527329, 1.3053043, -0.7177043, -1.2272847, -0.5805116, 0.7676747, 0.9965913, 0.07997633, -0.14571269, 1.0418872, 0.049375523, 0.01805787, 0.08126265, 0.051839024, -0.017459778, 0.03456077, -0.06493532, -0.03552809, 0.068032466, 0.033550624, 0.06761926, 0.027237773, -0.06514714, -0.026661923, -0.057024997, -0.082068376, 0.014624612, -0.036812767, 0.0031499106, 0.054399308, 0.059608657, 0.030050514, 0.011826204, -0.050126113, 0.010313037, 0.067030795], "categories": [], "categories_nodes": [], "categories_segments": [], "categories_sizes": [], "default_left": [0, 0, 0, 0, 0, 0, 0, 0, 0, 0, 0, 0, 0, 0, 0, 0, 0, 0, 0, 0, 0, 0, 0, 0, 0, 0, 0, 0, 0, 0, 0, 0, 0, 0, 0, 0, 0, 0, 0, 0, 0, 0, 0, 0, 0, 0, 0, 0, 0, 0, 0, 0, 0, 0, 0], "id": 4, "left_children": [1, 3, 5, 7, 9, 11, 13, -1, 15, 17, 19, 21, 23, 25, 27, 29, 31, 33, 35, 37, 39, 41, 43, 45, 47, 49, -1, 51, 53, -1, -1, -1, -1, -1, -1, -1, -1, -1, -1, -1, -1, -1, -1, -1, -1, -1, -1, -1, -1, -1, -1, -1, -1, -1, -1], "loss_changes": [2138.1882, 1299.0962, 566.0381, 119.483154, 1165.9121, 186.94275, 45.521988, 0.0, 64.46887, 184.21483, 32.974182, 68.53113, 93.29007, 7.826996, 37.870544, 30.711365, 0.15161133, 283.00952, 20.4068, 22.352737, 17.138428, 37.199722, 39.266235, 81.05325, 12.643166, 4.2329636, 0.0, 22.380922, 10.894093, 0.0, 0.0, 0.0, 0.0, 0.0, 0.0, 0.0, 0.0, 0.0, 0.0, 0.0, 0.0, 0.0, 0.0, 0.0, 0.0, 0.0, 0.0, 0.0, 0.0, 0.0, 0.0, 0.0, 0.0, 0.0, 0.0], "parents": [2147483647, 0, 0, 1, 1, 2, 2, 3, 3, 4, 4, 5, 5, 6, 6, 8, 8, 9, 9, 10, 10, 11, 11, 12, 12, 13, 13, 14, 14, 15, 15, 16, 16, 17, 17, 18, 18, 19, 19, 20, 20, 21, 21, 22, 22, 23, 23, 24, 24, 25, 25, 27, 27, 28, 28], "right_children": [2, 4, 6, 8, 10, 12, 14, -1, 16, 18, 20, 22, 24, 26, 28, 30, 32, 34, 36, 38, 40, 42, 44, 46, 48, 50, -1, 52, 54, -1, -1, -1, -1, -1, -1, -1, -1, -1, -1, -1, -1, -1, -1, -1, -1, -1, -1, -1, -1, -1, -1, -1, -1, -1, -1], "split_conditions": [1.0, 179.42285, 1.0, 1.0, 1.0, 2.0, 484.9843, 0.08449016, 1.0, 955.7521, 2.0, 182.47194, 17.0, 3.0, 3.0, 1.0, 33.0, 714.3347, 1.0, 455.0181, 2.0, 96.95293, 1059.4452, 110.81487, 1.0, 179.42285, 0.07997633, 1132.0731, 3.0, 0.049375523, 0.01805787, 0.08126265, 0.051839024, -0.017459778, 0.03456077, -0.06493532, -0.03552809, 0.068032466, 0.033550624, 0.06761926, 0.027237773, -0.06514714, -0.026661923, -0.057024997, -0.082068376, 0.014624612, -0.036812767, 0.0031499106, 0.054399308, 0.059608657, 0.030050514, 0.011826204, -0.050126113, 0.010313037, 0.067030795], "split_indices": [17, 2, 18, 9, 18, 9, 2, 0, 18, 2, 18, 2, 15, 18, 18, 27, 5, 2, 5, 2, 20, 2, 2, 2, 5, 2, 0, 2, 15, 0, 0, 0, 0, 0, 0, 0, 0, 0, 0, 0, 0, 0, 0, 0, 0, 0, 0, 0, 0, 0, 0, 0, 0, 0, 0], "split_type": [0, 0, 0, 0, 0, 0, 0, 0, 0, 0, 0, 0, 0, 0, 0, 0, 0, 0, 0, 0, 0, 0, 0, 0, 0, 0, 0, 0, 0, 0, 0, 0, 0, 0, 0, 0, 0, 0, 0, 0, 0, 0, 0, 0, 0, 0, 0, 0, 0, 0, 0, 0, 0, 0, 0], "sum_hessian": [6493.9062, 4135.6904, 2358.2158, 1188.3921, 2947.298, 2142.6475, 215.56834, 500.30908, 688.083, 2198.0232, 749.2749, 1493.7799, 648.86755, 105.20509, 110.36325, 529.93274, 158.15022, 1937.0475, 260.9758, 251.06993, 498.20496, 350.0165, 1143.7634, 593.5503, 55.31729, 62.972717, 42.232376, 66.61381, 43.749443, 432.494, 97.43878, 150.89528, 7.254935, 1626.513, 310.5345, 160.46587, 100.50992, 64.44786, 186.62207, 468.42926, 29.775702, 82.43114, 267.5854, 948.68884, 195.07458, 89.725555, 503.82474, 17.660767, 37.656525, 40.791164, 22.181551, 46.56455, 20.04926, 11.966448, 31.782995], "tree_param": {"num_deleted": "0", "num_feature": "30", "num_nodes": "55", "size_leaf_vector": "1"}}, {"base_weights": [0.0016441803, 0.41268942, -0.71565455, 1.2576858, 0.07634967, -0.86697644, 0.76722103, 0.08177434, 0.98053604, -0.27300858, 1.0987536, -1.0171895, -0.4576385, 1.2967454, 0.43645313, 0.81685764, 1.5662191, -0.75367093, -0.022306252, 0.9205675, 1.3325675, -0.53223675, -1.1865157, -0.33655974, -1.4924693, 1.0130743, 0.07794545, 0.12133281, 1.172614, 0.045849394, 0.020181514, 0.079437315, 0.045723796, -0.019412063, -0.07138612, 0.008431434, -0.05407849, 0.05899322, -0.020871265, 0.07087362, 0.054405358, -0.034550544, 0.016889514, -0.055642318, -0.07983846, -0.022371795, 0.04319829, -0.08001658, -0.038502574, -0.016083326, 0.06228148, -0.0070912205, 0.05096084, 0.06395834, 0.019361747], "categories": [], "categories_nodes": [], "categories_segments": [], "categories_sizes": [], "default_left": [0, 0, 0, 0, 0, 0, 0, 0, 0, 0, 0, 0, 0, 0, 0, 0, 0, 0, 0, 0, 0, 0, 0, 0, 0, 0, 0, 0, 0, 0, 0, 0, 0, 0, 0, 0, 0, 0, 0, 0, 0, 0, 0, 0, 0, 0, 0, 0, 0, 0, 0, 0, 0, 0, 0], "id": 5, "left_children": [1, 3, 5, 7, 9, 11, 13, -1, 15, 17, 19, 21, 23, 25, 27, 29, 31, 33, 35, 37, 39, 41, 43, 45, 47, 49, -1, 51, 53, -1, -1, -1, -1, -1, -1, -1, -1, -1, -1, -1, -1, -1, -1, -1, -1, -1, -1, -1, -1, -1, -1, -1, -1, -1, -1], "loss_changes": [1921.4547, 1177.325, 533.3805, 121.893555, 1059.1383, 132.02173, 38.03003, 0.0, 64.18109, 266.3228, 30.23529, 128.73547, 72.20056, 4.6838074, 31.671976, 21.79898, 0.7209778, 186.05832, 294.17798, 150.29953, 5.1901855, 56.805374, 33.490356, 69.70479, 3.4810486, 13.842743, 0.0, 23.099537, 2.935131, 0.0, 0.0, 0.0, 0.0, 0.0, 0.0, 0.0, 0.0, 0.0, 0.0, 0.0, 0.0, 0.0, 0.0, 0.0, 0.0, 0.0, 0.0, 0.0, 0.0, 0.0, 0.0, 0.0, 0.0, 0.0, 0.0], "parents": [2147483647, 0, 0, 1, 1, 2, 2, 3, 3, 4, 4, 5, 5, 6, 6, 8, 8, 9, 9, 10, 10, 11, 11, 12, 12, 13, 13, 14, 14, 15, 15, 16, 16, 17, 17, 18, 18, 19, 19, 20, 20, 21, 21, 22, 22, 23, 23, 24, 24, 25, 25, 27, 27, 28, 28], "right_children": [2, 4, 6, 8, 10, 12, 14, -1, 16, 18, 20, 22, 24, 26, 28, 30, 32, 34, 36, 38, 40, 42, 44, 46, 48, 50, -1, 52, 54, -1, -1, -1, -1, -1, -1, -1, -1, -1, -1, -1, -1, -1, -1, -1, -1, -1, -1, -1, -1, -1, -1, -1, -1, -1, -1], "split_conditions": [1.0, 179.42285, 1.0, 1.0, 1.0, 13.0, 220.10854, 0.08177434, 1.0, 9.0, 1.0, 182.47194, 1179.3698, 9.0, 4.0, 1.0, 31.0, 206.76888, 777.4669, 51.0, 0.42857143, 3.0, 826.7279, 17.0, 2.0, 2.0, 0.07794545, 17.0, 1293.7798, 0.045849394, 0.020181514, 0.079437315, 0.045723796, -0.019412063, -0.07138612, 0.008431434, -0.05407849, 0.05899322, -0.020871265, 0.07087362, 0.054405358, -0.034550544, 0.016889514, -0.055642318, -0.07983846, -0.022371795, 0.04319829, -0.08001658, -0.038502574, -0.016083326, 0.06228148, -0.0070912205, 0.05096084, 0.06395834, 0.019361747], "split_indices": [17, 2, 18, 15, 18, 7, 2, 0, 18, 4, 5, 2, 0, 4, 18, 27, 5, 0, 2, 4, 17, 15, 2, 15, 17, 15, 0, 16, 24, 0, 0, 0, 0, 0, 0, 0, 0, 0, 0, 0, 0, 0, 0, 0, 0, 0, 0, 0, 0, 0, 0, 0, 0, 0, 0], "split_type": [0, 0, 0, 0, 0, 0, 0, 0, 0, 0, 0, 0, 0, 0, 0, 0, 0, 0, 0, 0, 0, 0, 0, 0, 0, 0, 0, 0, 0, 0, 0, 0, 0, 0, 0, 0, 0, 0, 0, 0, 0, 0, 0, 0, 0, 0, 0, 0, 0, 0, 0, 0, 0, 0, 0], "sum_hessian": [6514.8896, 4141.8457, 2373.0437, 1178.4503, 2963.3953, 2153.6838, 219.36006, 496.60056, 681.8498, 2209.2288, 754.16656, 1574.4348, 579.24884, 83.2174, 136.14265, 534.7892, 147.06061, 756.60724, 1452.6215, 430.79852, 323.36804, 408.53296, 1165.9019, 519.7604, 59.488518, 42.3055, 40.911903, 96.14972, 39.99294, 429.49744, 105.29174, 140.75769, 6.3029113, 491.64383, 264.9634, 1231.4841, 221.13733, 360.96362, 69.83491, 236.44775, 86.9203, 345.6584, 62.874557, 991.56006, 174.34183, 476.39, 43.370335, 50.70294, 8.785573, 6.2204294, 36.08507, 75.00797, 21.141743, 34.661648, 5.331292], "tree_param": {"num_deleted": "0", "num_feature": "30", "num_nodes": "55", "size_leaf_vector": "1"}}, {"base_weights": [0.018094173, 0.41305158, -0.6833482, 1.2178915, 0.09665447, -0.82590014, 0.7464954, 0.07927108, 0.96253127, -0.23009364, 1.0701567, -1.0128595, -0.40163752, 0.40882698, 1.1966642, 0.824425, 1.4832132, -0.6403383, -0.0025223424, 0.77123123, 1.2108179, -0.5476328, -1.1597981, -0.6847674, 0.09744809, 1.117437, 0.09489185, 1.2858785, -0.008340858, 0.031624395, 0.052297622, 0.075472206, 0.049369007, -0.04440975, 0.01295574, 0.008711553, -0.049110603, 0.065436505, 0.029538197, 0.06281101, 0.033750147, -0.053635057, -0.019570615, -0.053469654, -0.07573463, -0.0074612643, -0.04996938, -0.0026993107, 0.047490053, 0.071090184, 0.0055681574, -0.019823484, 0.032699525, 0.050688982, 0.07311657], "categories": [], "categories_nodes": [], "categories_segments": [], "categories_sizes": [], "default_left": [0, 0, 0, 0, 0, 0, 0, 0, 0, 0, 0, 0, 0, 0, 0, 0, 0, 0, 0, 0, 0, 0, 0, 0, 0, 0, 0, 0, 0, 0, 0, 0, 0, 0, 0, 0, 0, 0, 0, 0, 0, 0, 0, 0, 0, 0, 0, 0, 0, 0, 0, 0, 0, 0, 0], "id": 6, "left_children": [1, 3, 5, 7, 9, 11, 13, -1, 15, 17, 19, 21, 23, 25, 27, 29, 31, 33, 35, 37, 39, 41, 43, 45, 47, 49, 51, 53, -1, -1, -1, -1, -1, -1, -1, -1, -1, -1, -1, -1, -1, -1, -1, -1, -1, -1, -1, -1, -1, -1, -1, -1, -1, -1, -1], "loss_changes": [1784.3804, 1049.2007, 473.5393, 107.596436, 941.45685, 166.98499, 31.565239, 0.0, 48.29303, 206.90219, 30.338867, 99.45593, 91.514946, 27.03644, 11.145508, 22.574554, 0.37078857, 176.51181, 247.18295, 22.579147, 11.413025, 28.563591, 34.05249, 69.44525, 30.399797, 11.283855, 23.787754, 2.5725708, 0.0, 0.0, 0.0, 0.0, 0.0, 0.0, 0.0, 0.0, 0.0, 0.0, 0.0, 0.0, 0.0, 0.0, 0.0, 0.0, 0.0, 0.0, 0.0, 0.0, 0.0, 0.0, 0.0, 0.0, 0.0, 0.0, 0.0], "parents": [2147483647, 0, 0, 1, 1, 2, 2, 3, 3, 4, 4, 5, 5, 6, 6, 8, 8, 9, 9, 10, 10, 11, 11, 12, 12, 13, 13, 14, 14, 15, 15, 16, 16, 17, 17, 18, 18, 19, 19, 20, 20, 21, 21, 22, 22, 23, 23, 24, 24, 25, 25, 26, 26, 27, 27], "right_children": [2, 4, 6, 8, 10, 12, 14, -1, 16, 18, 20, 22, 24, 26, 28, 30, 32, 34, 36, 38, 40, 42, 44, 46, 48, 50, 52, 54, -1, -1, -1, -1, -1, -1, -1, -1, -1, -1, -1, -1, -1, -1, -1, -1, -1, -1, -1, -1, -1, -1, -1, -1, -1, -1, -1], "split_conditions": [1.0, 179.42285, 1.0, 1.0, 1.0, 2.0, 5.0, 0.07927108, 1.0, 11.0, 2.0, 182.47194, 17.0, 136.65385, 1440.3181, 3.0, 163.0, 4.0, 770.2163, 446.3388, 1445.5945, 96.95293, 826.7279, 202.86769, 21.0, 1.0555556, 2.0, 3.0, -0.008340858, 0.031624395, 0.052297622, 0.075472206, 0.049369007, -0.04440975, 0.01295574, 0.008711553, -0.049110603, 0.065436505, 0.029538197, 0.06281101, 0.033750147, -0.053635057, -0.019570615, -0.053469654, -0.07573463, -0.0074612643, -0.04996938, -0.0026993107, 0.047490053, 0.071090184, 0.0055681574, -0.019823484, 0.032699525, 0.050688982, 0.07311657], "split_indices": [17, 2, 18, 15, 18, 9, 15, 0, 18, 4, 18, 2, 7, 2, 2, 9, 7, 15, 2, 2, 2, 2, 2, 2, 15, 17, 18, 18, 0, 0, 0, 0, 0, 0, 0, 0, 0, 0, 0, 0, 0, 0, 0, 0, 0, 0, 0, 0, 0, 0, 0, 0, 0, 0, 0], "split_type": [0, 0, 0, 0, 0, 0, 0, 0, 0, 0, 0, 0, 0, 0, 0, 0, 0, 0, 0, 0, 0, 0, 0, 0, 0, 0, 0, 0, 0, 0, 0, 0, 0, 0, 0, 0, 0, 0, 0, 0, 0, 0, 0, 0, 0, 0, 0, 0, 0, 0, 0, 0, 0, 0, 0], "sum_hessian": [6438.8613, 4119.6455, 2319.2158, 1161.7012, 2957.9443, 2109.3418, 209.8739, 474.11594, 687.58527, 2215.1956, 742.7488, 1463.1777, 646.1641, 121.0119, 88.862, 545.4838, 142.10144, 789.7297, 1425.466, 239.74298, 503.0058, 352.34286, 1110.8348, 412.04184, 234.12228, 36.366497, 84.6454, 83.458145, 5.4038534, 294.3267, 251.15714, 133.02007, 9.081369, 619.1319, 170.59773, 1208.291, 217.17497, 58.69011, 181.05287, 462.47366, 40.53212, 79.44753, 272.89532, 888.51074, 222.32413, 153.03018, 259.01166, 199.59726, 34.525024, 27.602667, 8.763831, 45.206623, 39.438778, 35.48456, 47.973587], "tree_param": {"num_deleted": "0", "num_feature": "30", "num_nodes": "55", "size_leaf_vector": "1"}}, {"base_weights": [-0.00023712228, 0.3926956, -0.6970836, 0.07753029, 0.23618467, -0.82376754, 0.6596644, -0.051918004, 1.1117213, -1.0113499, -0.40250984, 0.27960053, 1.2155842, -0.20065746, 0.5832841, 1.2797053, 0.9457898, -0.9289593, -1.4224223, -0.46978718, 1.0312883, 0.45986676, -0.47291338, 0.7922982, 1.3473302, -0.006093047, -0.042757627, 0.011620164, 0.044697948, 0.067436494, 0.05448837, -0.022517197, 0.057608206, -0.051245946, -0.017316377, -0.07419989, -0.043663654, -0.031781137, -0.007258759, 0.023771524, 0.06214264, 0.028076256, -0.05277356, -0.047389735, 0.034988325, 0.022996, 0.062010158, 0.07124615, 0.031670522], "categories": [], "categories_nodes": [], "categories_segments": [], "categories_sizes": [], "default_left": [0, 0, 0, 0, 0, 0, 0, 0, 0, 0, 0, 0, 0, 0, 0, 0, 0, 0, 0, 0, 0, 0, 0, 0, 0, 0, 0, 0, 0, 0, 0, 0, 0, 0, 0, 0, 0, 0, 0, 0, 0, 0, 0, 0, 0, 0, 0, 0, 0], "id": 7, "left_children": [1, 3, 5, -1, 7, 9, 11, 13, 15, 17, 19, 21, 23, 25, 27, 29, 31, 33, 35, 37, 39, 41, 43, 45, 47, -1, -1, -1, -1, -1, -1, -1, -1, -1, -1, -1, -1, -1, -1, -1, -1, -1, -1, -1, -1, -1, -1, -1, -1], "loss_changes": [1752.191, 741.1905, 397.11975, 0.0, 909.6127, 166.38245, 41.409576, 256.53842, 23.675537, 48.11792, 63.37461, 16.314087, 3.3903275, 113.34584, 55.953934, 4.3096313, 131.0343, 67.792725, 6.8817444, 33.46849, 2.8822765, 15.417418, 13.708202, 2.6158, 2.3954086, 0.0, 0.0, 0.0, 0.0, 0.0, 0.0, 0.0, 0.0, 0.0, 0.0, 0.0, 0.0, 0.0, 0.0, 0.0, 0.0, 0.0, 0.0, 0.0, 0.0, 0.0, 0.0, 0.0, 0.0], "parents": [2147483647, 0, 0, 1, 1, 2, 2, 4, 4, 5, 5, 6, 6, 7, 7, 8, 8, 9, 9, 10, 10, 11, 11, 12, 12, 13, 13, 14, 14, 15, 15, 16, 16, 17, 17, 18, 18, 19, 19, 20, 20, 21, 21, 22, 22, 23, 23, 24, 24], "right_children": [2, 4, 6, -1, 8, 10, 12, 14, 16, 18, 20, 22, 24, 26, 28, 30, 32, 34, 36, 38, 40, 42, 44, 46, 48, -1, -1, -1, -1, -1, -1, -1, -1, -1, -1, -1, -1, -1, -1, -1, -1, -1, -1, -1, -1, -1, -1, -1, -1], "split_conditions": [1.0, 1.0, 1.0, 0.07753029, 1.0, 2.0, 3.0, 5.0, 528.5486, 1.0, 50.0, 1050.9504, 3.0, 996.51965, 6.0, 0.5, 1.0, 730.45337, 2.0, 17.0, 5.0, 9.0, 7.0, 2.0, 1406.4243, -0.006093047, -0.042757627, 0.011620164, 0.044697948, 0.067436494, 0.05448837, -0.022517197, 0.057608206, -0.051245946, -0.017316377, -0.07419989, -0.043663654, -0.031781137, -0.007258759, 0.023771524, 0.06214264, 0.028076256, -0.05277356, -0.047389735, 0.034988325, 0.022996, 0.062010158, 0.07124615, 0.031670522], "split_indices": [17, 15, 18, 0, 18, 9, 18, 9, 0, 12, 10, 0, 15, 0, 6, 17, 7, 0, 20, 7, 7, 26, 5, 5, 0, 0, 0, 0, 0, 0, 0, 0, 0, 0, 0, 0, 0, 0, 0, 0, 0, 0, 0, 0, 0, 0, 0, 0, 0], "split_type": [0, 0, 0, 0, 0, 0, 0, 0, 0, 0, 0, 0, 0, 0, 0, 0, 0, 0, 0, 0, 0, 0, 0, 0, 0, 0, 0, 0, 0, 0, 0, 0, 0, 0, 0, 0, 0, 0, 0, 0, 0, 0, 0, 0, 0, 0, 0, 0, 0], "sum_hessian": [6397.2075, 4090.8982, 2306.3096, 486.0514, 3604.8467, 2109.7117, 196.59781, 2713.0393, 891.80756, 1458.7448, 650.9669, 117.66032, 78.93749, 2198.8408, 514.1983, 439.82742, 451.98016, 1217.9026, 240.84225, 622.43317, 28.533758, 95.23538, 22.424938, 20.401972, 58.53552, 1963.6211, 235.21976, 242.2949, 271.9034, 318.12006, 121.70736, 58.054695, 393.92545, 1045.0272, 172.87534, 215.02893, 25.81332, 411.33505, 211.09813, 8.761444, 19.772314, 89.83793, 5.3974504, 16.097828, 6.3271084, 12.874773, 7.5271983, 51.898945, 6.636574], "tree_param": {"num_deleted": "0", "num_feature": "30", "num_nodes": "49", "size_leaf_vector": "1"}}, {"base_weights": [0.014002063, -0.18534464, 1.0032412, 1.389609, -0.3393697, 1.3215584, 0.8781159, 0.074751854, -0.30336952, -0.46810317, 0.43967682, 0.06693851, 0.02512171, 0.47701022, 1.0802523, -0.8658222, 0.03595834, -0.0883512, -0.7432079, 0.62346077, -0.29880702, 0.22198121, 1.100536, 0.9198407, 1.3021129, -0.01253169, -0.077272266, 0.03779455, -0.0132922055, -0.015519504, -0.04447186, 0.022194838, 0.04973794, -0.030418027, 0.025654936, 0.018878682, -0.04706592, 0.061302096, 0.011016628, 0.058700323, -0.036709007, 0.02301711, 0.066153824], "categories": [], "categories_nodes": [], "categories_segments": [], "categories_sizes": [], "default_left": [0, 0, 0, 0, 0, 0, 0, 0, 0, 0, 0, 0, 0, 0, 0, 0, 0, 0, 0, 0, 0, 0, 0, 0, 0, 0, 0, 0, 0, 0, 0, 0, 0, 0, 0, 0, 0, 0, 0, 0, 0, 0, 0], "id": 8, "left_children": [1, 3, 5, 7, 9, 11, 13, -1, 15, 17, 19, -1, -1, 21, 23, 25, -1, 27, 29, 31, 33, 35, 37, 39, 41, -1, -1, -1, -1, -1, -1, -1, -1, -1, -1, -1, -1, -1, -1, -1, -1, -1, -1], "loss_changes": [1254.309, 1284.6609, 41.328735, 84.66284, 483.9048, 3.543274, 61.812927, 0.0, 17.007679, 432.40045, 93.08446, 0.0, 0.0, 41.002213, 16.965515, 7.4867783, 0.0, 260.95862, 151.64673, 36.121384, 34.762806, 33.902443, 8.019791, 126.81471, 3.1276245, 0.0, 0.0, 0.0, 0.0, 0.0, 0.0, 0.0, 0.0, 0.0, 0.0, 0.0, 0.0, 0.0, 0.0, 0.0, 0.0, 0.0, 0.0], "parents": [2147483647, 0, 0, 1, 1, 2, 2, 3, 3, 4, 4, 5, 5, 6, 6, 8, 8, 9, 9, 10, 10, 13, 13, 14, 14, 15, 15, 17, 17, 18, 18, 19, 19, 20, 20, 21, 21, 22, 22, 23, 23, 24, 24], "right_children": [2, 4, 6, 8, 10, 12, 14, -1, 16, 18, 20, -1, -1, 22, 24, 26, -1, 28, 30, 32, 34, 36, 38, 40, 42, -1, -1, -1, -1, -1, -1, -1, -1, -1, -1, -1, -1, -1, -1, -1, -1, -1, -1], "split_conditions": [1.0, 83.212265, 344.01355, 1.0, 5.0, 15.0, 2.0, 0.074751854, 4.0, 1.0, 594.7287, 0.06693851, 0.02512171, 5.0, 1.0, 1.0, 0.03595834, 179.42285, 202.86769, 18.0, 57.0, 1240.0712, 1765.0, 45.0, 41.0, -0.01253169, -0.077272266, 0.03779455, -0.0132922055, -0.015519504, -0.04447186, 0.022194838, 0.04973794, -0.030418027, 0.025654936, 0.018878682, -0.04706592, 0.061302096, 0.011016628, 0.058700323, -0.036709007, 0.02301711, 0.066153824], "split_indices": [18, 2, 2, 10, 9, 26, 18, 0, 9, 16, 2, 0, 0, 5, 5, 3, 0, 2, 2, 9, 7, 0, 4, 4, 3, 0, 0, 0, 0, 0, 0, 0, 0, 0, 0, 0, 0, 0, 0, 0, 0, 0, 0], "split_type": [0, 0, 0, 0, 0, 0, 0, 0, 0, 0, 0, 0, 0, 0, 0, 0, 0, 0, 0, 0, 0, 0, 0, 0, 0, 0, 0, 0, 0, 0, 0, 0, 0, 0, 0, 0, 0, 0, 0, 0, 0, 0, 0], "sum_hessian": [6358.6006, 5292.828, 1065.7726, 470.79398, 4822.034, 298.02878, 767.7438, 443.30466, 27.489313, 4138.5576, 683.4764, 291.27402, 6.7547655, 258.384, 509.35977, 17.83327, 9.656044, 1739.1593, 2399.3984, 547.40204, 136.07434, 184.34206, 74.04195, 298.60544, 210.75432, 10.07881, 7.7544594, 301.5557, 1437.6035, 606.71936, 1792.6791, 370.4457, 176.95631, 98.695595, 37.37875, 163.1906, 21.151466, 64.45813, 9.583822, 259.0835, 39.52196, 5.678986, 205.07533], "tree_param": {"num_deleted": "0", "num_feature": "30", "num_nodes": "43", "size_leaf_vector": "1"}}, {"base_weights": [0.0071949665, 0.35883847, -0.62489146, 0.07379128, 0.21883461, -0.74040973, 0.58333635, -0.03284062, 1.022294, -0.9307044, -0.3287462, 0.6775942, -0.05872006, -0.18319692, 0.45553294, 1.1897984, 0.85126734, -0.8615236, -1.3838619, -0.45882857, 0.4839146, 0.36196977, 1.1544106, -0.023869177, 0.0010531339, 0.025590176, -0.07936198, 0.0639798, 0.047259256, -0.01705833, 0.052413594, -0.047321912, -0.01679437, -0.0708965, -0.03217561, -0.03082603, -0.009946137, 0.0020391839, 0.051799305, 0.0225741, -0.0582226, 0.035354286, 0.064697586], "categories": [], "categories_nodes": [], "categories_segments": [], "categories_sizes": [], "default_left": [0, 0, 0, 0, 0, 0, 0, 0, 0, 0, 0, 0, 0, 0, 0, 0, 0, 0, 0, 0, 0, 0, 0, 0, 0, 0, 0, 0, 0, 0, 0, 0, 0, 0, 0, 0, 0, 0, 0, 0, 0, 0, 0], "id": 9, "left_children": [1, 3, 5, -1, 7, 9, 11, 13, 15, 17, 19, 21, -1, 23, 25, 27, 29, 31, 33, 35, 37, 39, 41, -1, -1, -1, -1, -1, -1, -1, -1, -1, -1, -1, -1, -1, -1, -1, -1, -1, -1, -1, -1], "loss_changes": [1399.9299, 632.5471, 314.66663, 0.0, 727.4592, 160.70715, 33.440025, 201.3018, 23.569458, 42.856567, 69.07333, 27.820625, 0.0, 125.95535, 74.99342, 8.257629, 100.92355, 54.208435, 3.739624, 22.908905, 22.06234, 16.15104, 3.7215195, 0.0, 0.0, 0.0, 0.0, 0.0, 0.0, 0.0, 0.0, 0.0, 0.0, 0.0, 0.0, 0.0, 0.0, 0.0, 0.0, 0.0, 0.0, 0.0, 0.0], "parents": [2147483647, 0, 0, 1, 1, 2, 2, 4, 4, 5, 5, 6, 6, 7, 7, 8, 8, 9, 9, 10, 10, 11, 11, 13, 13, 14, 14, 15, 15, 16, 16, 17, 17, 18, 18, 19, 19, 20, 20, 21, 21, 22, 22], "right_children": [2, 4, 6, -1, 8, 10, 12, 14, 16, 18, 20, 22, -1, 24, 26, 28, 30, 32, 34, 36, 38, 40, 42, -1, -1, -1, -1, -1, -1, -1, -1, -1, -1, -1, -1, -1, -1, -1, -1, -1, -1, -1, -1], "split_conditions": [1.0, 1.0, 1.0, 0.07379128, 1.0, 2.0, 1734.4116, 4.0, 528.5486, 1031.5902, 15.0, 3.0, -0.05872006, 11.0, 1.0, 0.5, 1.0, 730.45337, 3.0, 10.0, 64.0, 24.0, 3.0, -0.023869177, 0.0010531339, 0.025590176, -0.07936198, 0.0639798, 0.047259256, -0.01705833, 0.052413594, -0.047321912, -0.01679437, -0.0708965, -0.03217561, -0.03082603, -0.009946137, 0.0020391839, 0.051799305, 0.0225741, -0.0582226, 0.035354286, 0.064697586], "split_indices": [17, 15, 18, 0, 18, 9, 0, 9, 0, 0, 10, 18, 0, 4, 12, 17, 7, 0, 17, 7, 6, 26, 15, 0, 0, 0, 0, 0, 0, 0, 0, 0, 0, 0, 0, 0, 0, 0, 0, 0, 0, 0, 0], "split_type": [0, 0, 0, 0, 0, 0, 0, 0, 0, 0, 0, 0, 0, 0, 0, 0, 0, 0, 0, 0, 0, 0, 0, 0, 0, 0, 0, 0, 0, 0, 0, 0, 0, 0, 0, 0, 0, 0, 0, 0, 0, 0, 0], "sum_hessian": [6296.3477, 4045.937, 2250.4106, 449.57434, 3596.3625, 2054.3794, 196.03134, 2739.2732, 857.0894, 1404.0743, 650.3051, 186.6375, 9.393842, 2094.929, 644.34406, 429.9943, 427.09515, 1220.6294, 183.44492, 560.9495, 89.355606, 113.35939, 73.27811, 857.93854, 1236.9906, 627.8, 16.544043, 311.4353, 118.55897, 60.45286, 366.6423, 1050.1768, 170.4527, 174.49991, 8.945013, 348.2715, 212.678, 50.164204, 39.191402, 107.74523, 5.6141586, 18.866198, 54.41191], "tree_param": {"num_deleted": "0", "num_feature": "30", "num_nodes": "43", "size_leaf_vector": "1"}}, {"base_weights": [0.0005915565, 0.34119883, -0.60954934, 1.0605913, 0.06659563, -0.7178018, 0.5534551, 0.07159754, 0.8301607, -0.21192652, 0.90972894, -0.34489915, -0.863913, 0.95642483, 0.16129227, 0.68704957, 1.3359872, -0.51165354, -0.010545199, 0.740844, 1.1329175, -0.517564, 0.28316906, -0.9967382, -0.43091035, 0.26614317, 1.1045479, -0.28191048, 0.8010864, 0.043684747, 0.019934166, 0.06809237, 0.03514553, -0.04233038, -0.0076195113, 0.007500123, -0.043822434, 0.04710951, -0.01308413, 0.05095176, 0.07005822, -0.04731078, -0.019977497, 0.0042292397, 0.050306626, -0.059596606, -0.041483797, -0.04112277, -0.0040484783, 0.06768467, -0.03058264, 0.04668186, 0.06833132, 0.0009447559, -0.04438697, 0.022105753, 0.05767557], "categories": [], "categories_nodes": [], "categories_segments": [], "categories_sizes": [], "default_left": [0, 0, 0, 0, 0, 0, 0, 0, 0, 0, 0, 0, 0, 0, 0, 0, 0, 0, 0, 0, 0, 0, 0, 0, 0, 0, 0, 0, 0, 0, 0, 0, 0, 0, 0, 0, 0, 0, 0, 0, 0, 0, 0, 0, 0, 0, 0, 0, 0, 0, 0, 0, 0, 0, 0, 0, 0], "id": 10, "left_children": [1, 3, 5, 7, 9, 11, 13, -1, 15, 17, 19, 21, 23, 25, 27, 29, 31, 33, 35, 37, 39, 41, 43, 45, 47, 49, 51, 53, 55, -1, -1, -1, -1, -1, -1, -1, -1, -1, -1, -1, -1, -1, -1, -1, -1, -1, -1, -1, -1, -1, -1, -1, -1, -1, -1, -1, -1], "loss_changes": [1293.1921, 788.81683, 281.06146, 93.211426, 679.1482, 110.84631, 29.934254, 0.0, 48.533478, 131.22339, 26.229065, 62.60347, 83.82605, 9.286766, 27.928259, 28.421661, 1.4917603, 105.00888, 181.05402, 83.34685, 7.9640503, 22.491974, 17.83752, 35.544067, 47.294243, 17.889482, 2.1654434, 10.669352, 4.580923, 0.0, 0.0, 0.0, 0.0, 0.0, 0.0, 0.0, 0.0, 0.0, 0.0, 0.0, 0.0, 0.0, 0.0, 0.0, 0.0, 0.0, 0.0, 0.0, 0.0, 0.0, 0.0, 0.0, 0.0, 0.0, 0.0, 0.0, 0.0], "parents": [2147483647, 0, 0, 1, 1, 2, 2, 3, 3, 4, 4, 5, 5, 6, 6, 8, 8, 9, 9, 10, 10, 11, 11, 12, 12, 13, 13, 14, 14, 15, 15, 16, 16, 17, 17, 18, 18, 19, 19, 20, 20, 21, 21, 22, 22, 23, 23, 24, 24, 25, 25, 26, 26, 27, 27, 28, 28], "right_children": [2, 4, 6, 8, 10, 12, 14, -1, 16, 18, 20, 22, 24, 26, 28, 30, 32, 34, 36, 38, 40, 42, 44, 46, 48, 50, 52, 54, 56, -1, -1, -1, -1, -1, -1, -1, -1, -1, -1, -1, -1, -1, -1, -1, -1, -1, -1, -1, -1, -1, -1, -1, -1, -1, -1, -1, -1], "split_conditions": [1.0, 187.4264, 1.0, 1.0, 1.0, 200.50381, 484.9843, 0.07159754, 1.0, 7.0, 1.0, 3.0, 18.0, 2.0, 3.0, 124.0505, 33.0, 496.27924, 770.2163, 23.0, 6.0, 96.95293, 11.0, 496.27924, 2.0, 131.56117, 3.0, 1132.0731, 5.0, 0.043684747, 0.019934166, 0.06809237, 0.03514553, -0.04233038, -0.0076195113, 0.007500123, -0.043822434, 0.04710951, -0.01308413, 0.05095176, 0.07005822, -0.04731078, -0.019977497, 0.0042292397, 0.050306626, -0.059596606, -0.041483797, -0.04112277, -0.0040484783, 0.06768467, -0.03058264, 0.04668186, 0.06833132, 0.0009447559, -0.04438697, 0.022105753, 0.05767557], "split_indices": [17, 2, 18, 15, 18, 2, 2, 0, 18, 3, 5, 15, 7, 16, 18, 2, 5, 2, 2, 3, 14, 2, 15, 2, 10, 2, 18, 2, 26, 0, 0, 0, 0, 0, 0, 0, 0, 0, 0, 0, 0, 0, 0, 0, 0, 0, 0, 0, 0, 0, 0, 0, 0, 0, 0, 0, 0], "split_type": [0, 0, 0, 0, 0, 0, 0, 0, 0, 0, 0, 0, 0, 0, 0, 0, 0, 0, 0, 0, 0, 0, 0, 0, 0, 0, 0, 0, 0, 0, 0, 0, 0, 0, 0, 0, 0, 0, 0, 0, 0, 0, 0, 0, 0, 0, 0, 0, 0, 0, 0, 0, 0, 0, 0, 0, 0], "sum_hessian": [6220.7017, 3992.4067, 2228.295, 1102.1594, 2890.2473, 2038.8971, 189.3978, 420.02975, 682.12964, 2173.1228, 717.1246, 574.93005, 1463.967, 92.70217, 96.69562, 533.53687, 148.59279, 872.69763, 1300.4252, 410.68332, 306.44125, 451.09387, 123.83617, 1119.3119, 344.65512, 16.872038, 75.83013, 57.454617, 39.241, 322.66306, 210.87378, 141.65526, 6.9375405, 450.92633, 421.7713, 1097.7225, 202.70262, 342.04718, 68.63614, 218.48425, 87.957016, 95.86705, 355.2268, 98.027016, 25.809155, 513.3658, 605.9461, 162.02112, 182.63399, 7.2935286, 9.578509, 48.659794, 27.17034, 39.039547, 18.41507, 20.556826, 18.684175], "tree_param": {"num_deleted": "0", "num_feature": "30", "num_nodes": "57", "size_leaf_vector": "1"}}, {"base_weights": [0.00817052, 0.33007115, -0.5723903, 0.07072581, 0.20240334, -0.67817307, 0.5412958, -0.04037875, 0.9766284, -0.73884493, 0.30485076, 0.10660146, 0.87753, -0.19091918, 0.45470855, 1.0568478, 0.70739037, -0.682969, -1.3169965, 0.0768246, 0.9745258, 0.3358709, -0.7697873, 0.9504435, -0.017526358, -0.0060034352, -0.038637277, 0.025201986, -0.06611518, 0.060240198, 0.046771865, 0.024067057, 0.05552263, -0.041802026, -0.020986898, -0.06775289, -0.020889666, 0.032088637, -0.009062476, 0.056840446, 0.0154197505, -0.0028733646, 0.036185704, -0.06775627, 0.014855327, 0.04991293, 0.0057867295], "categories": [], "categories_nodes": [], "categories_segments": [], "categories_sizes": [], "default_left": [0, 0, 0, 0, 0, 0, 0, 0, 0, 0, 0, 0, 0, 0, 0, 0, 0, 0, 0, 0, 0, 0, 0, 0, 0, 0, 0, 0, 0, 0, 0, 0, 0, 0, 0, 0, 0, 0, 0, 0, 0, 0, 0, 0, 0, 0, 0], "id": 11, "left_children": [1, 3, 5, -1, 7, 9, 11, 13, 15, 17, 19, 21, 23, 25, 27, 29, 31, 33, 35, 37, 39, 41, 43, 45, -1, -1, -1, -1, -1, -1, -1, -1, -1, -1, -1, -1, -1, -1, -1, -1, -1, -1, -1, -1, -1, -1, -1], "loss_changes": [1153.8845, 549.6331, 259.8236, 0.0, 668.2311, 120.21008, 27.910393, 201.85345, 17.581726, 60.32129, 17.891418, 17.27778, 9.994423, 85.51191, 56.027084, 10.581848, 17.490692, 69.362915, 5.112976, 13.071205, 2.8708496, 10.390047, 11.560896, 3.9601898, 0.0, 0.0, 0.0, 0.0, 0.0, 0.0, 0.0, 0.0, 0.0, 0.0, 0.0, 0.0, 0.0, 0.0, 0.0, 0.0, 0.0, 0.0, 0.0, 0.0, 0.0, 0.0, 0.0], "parents": [2147483647, 0, 0, 1, 1, 2, 2, 4, 4, 5, 5, 6, 6, 7, 7, 8, 8, 9, 9, 10, 10, 11, 11, 12, 12, 13, 13, 14, 14, 15, 15, 16, 16, 17, 17, 18, 18, 19, 19, 20, 20, 21, 21, 22, 22, 23, 23], "right_children": [2, 4, 6, -1, 8, 10, 12, 14, 16, 18, 20, 22, 24, 26, 28, 30, 32, 34, 36, 38, 40, 42, 44, 46, -1, -1, -1, -1, -1, -1, -1, -1, -1, -1, -1, -1, -1, -1, -1, -1, -1, -1, -1, -1, -1, -1, -1], "split_conditions": [1.0, 1.0, 1.0, 0.07072581, 1.0, 8.0, 2.0, 4.0, 0.5, 1095.404, 49.0, 879.0253, 1734.4116, 996.51965, 1.0, 446.7219, 30.0, 5.0, 3.0, 1.0555556, 1765.0, 2.0, 17.0, 23.0, -0.017526358, -0.0060034352, -0.038637277, 0.025201986, -0.06611518, 0.060240198, 0.046771865, 0.024067057, 0.05552263, -0.041802026, -0.020986898, -0.06775289, -0.020889666, 0.032088637, -0.009062476, 0.056840446, 0.0154197505, -0.0028733646, 0.036185704, -0.06775627, 0.014855327, 0.04991293, 0.0057867295], "split_indices": [17, 15, 18, 0, 18, 9, 18, 9, 17, 0, 16, 0, 0, 0, 12, 0, 7, 7, 17, 17, 4, 9, 7, 26, 0, 0, 0, 0, 0, 0, 0, 0, 0, 0, 0, 0, 0, 0, 0, 0, 0, 0, 0, 0, 0, 0, 0], "split_type": [0, 0, 0, 0, 0, 0, 0, 0, 0, 0, 0, 0, 0, 0, 0, 0, 0, 0, 0, 0, 0, 0, 0, 0, 0, 0, 0, 0, 0, 0, 0, 0, 0, 0, 0, 0, 0, 0, 0, 0, 0, 0, 0, 0, 0, 0, 0], "sum_hessian": [6172.361, 3971.0076, 2201.3533, 417.19138, 3553.8162, 2010.754, 190.59908, 2706.1633, 847.6529, 1894.0994, 116.65476, 83.702644, 106.89643, 2075.6409, 630.5225, 650.817, 196.83588, 1729.164, 164.93532, 87.85471, 28.800049, 66.83492, 16.867725, 101.11876, 5.777671, 1851.3978, 224.24301, 614.18854, 16.333975, 289.31793, 361.49908, 127.515594, 69.32029, 1091.9866, 637.17737, 157.75111, 7.184212, 27.082293, 60.772423, 22.590063, 6.2099857, 33.605312, 33.229607, 10.717527, 6.150198, 95.454834, 5.663932], "tree_param": {"num_deleted": "0", "num_feature": "30", "num_nodes": "47", "size_leaf_vector": "1"}}, {"base_weights": [0.009338535, 0.31781858, -0.5429523, 1.0456629, 0.047834586, -0.6530526, 0.5934281, 0.06841438, 0.8434235, -0.20781916, 0.8497198, -0.83552617, -0.25921854, 0.15560852, 0.9311818, 0.730114, 1.3027698, -0.6088649, -0.00022658946, 0.60875434, 0.9783115, -0.4631901, -0.9558176, -0.35257182, 0.7174873, 0.88629234, -0.18166587, 0.99866426, -0.01767815, 0.044263028, 0.023337077, 0.06634671, 0.03318919, -0.014716436, -0.060382266, 0.007775607, -0.04750655, 0.061456155, 0.024374364, 0.05379042, 0.035749868, -0.033086658, -0.0047392864, -0.043332893, -0.06602933, 0.010606401, -0.023612296, 0.04501355, -0.04717132, 0.028238734, 0.06722481, -0.021661637, 0.042920996, 0.03681135, 0.056691617], "categories": [], "categories_nodes": [], "categories_segments": [], "categories_sizes": [], "default_left": [0, 0, 0, 0, 0, 0, 0, 0, 0, 0, 0, 0, 0, 0, 0, 0, 0, 0, 0, 0, 0, 0, 0, 0, 0, 0, 0, 0, 0, 0, 0, 0, 0, 0, 0, 0, 0, 0, 0, 0, 0, 0, 0, 0, 0, 0, 0, 0, 0, 0, 0, 0, 0, 0, 0], "id": 12, "left_children": [1, 3, 5, 7, 9, 11, 13, -1, 15, 17, 19, 21, 23, 25, 27, 29, 31, 33, 35, 37, 39, 41, 43, 45, 47, 49, 51, 53, -1, -1, -1, -1, -1, -1, -1, -1, -1, -1, -1, -1, -1, -1, -1, -1, -1, -1, -1, -1, -1, -1, -1, -1, -1, -1, -1], "loss_changes": [1049.1951, 776.4044, 276.51807, 68.59949, 591.254, 144.4126, 28.759636, 0.0, 33.387146, 182.07939, 21.008026, 61.135864, 58.485935, 21.43474, 9.902161, 21.303558, 1.1151581, 140.13474, 213.48561, 17.850784, 10.859222, 24.635063, 32.620728, 39.54123, 17.86475, 3.2819977, 16.0426, 2.886612, 0.0, 0.0, 0.0, 0.0, 0.0, 0.0, 0.0, 0.0, 0.0, 0.0, 0.0, 0.0, 0.0, 0.0, 0.0, 0.0, 0.0, 0.0, 0.0, 0.0, 0.0, 0.0, 0.0, 0.0, 0.0, 0.0, 0.0], "parents": [2147483647, 0, 0, 1, 1, 2, 2, 3, 3, 4, 4, 5, 5, 6, 6, 8, 8, 9, 9, 10, 10, 11, 11, 12, 12, 13, 13, 14, 14, 15, 15, 16, 16, 17, 17, 18, 18, 19, 19, 20, 20, 21, 21, 22, 22, 23, 23, 24, 24, 25, 25, 26, 26, 27, 27], "right_children": [2, 4, 6, 8, 10, 12, 14, -1, 16, 18, 20, 22, 24, 26, 28, 30, 32, 34, 36, 38, 40, 42, 44, 46, 48, 50, 52, 54, -1, -1, -1, -1, -1, -1, -1, -1, -1, -1, -1, -1, -1, -1, -1, -1, -1, -1, -1, -1, -1, -1, -1, -1, -1, -1, -1], "split_conditions": [1.0, 179.42285, 1.0, 1.0, 1.0, 2.0, 2.0, 0.06841438, 1.0, 9.0, 2.0, 182.47194, 17.0, 212.75073, 1440.3181, 124.0505, 31.0, 240.48018, 777.4669, 335.27, 0.4074074, 7.0, 826.7279, 121.17617, 187.0, 307.92773, 17.0, 3.0, -0.01767815, 0.044263028, 0.023337077, 0.06634671, 0.03318919, -0.014716436, -0.060382266, 0.007775607, -0.04750655, 0.061456155, 0.024374364, 0.05379042, 0.035749868, -0.033086658, -0.0047392864, -0.043332893, -0.06602933, 0.010606401, -0.023612296, 0.04501355, -0.04717132, 0.028238734, 0.06722481, -0.021661637, 0.042920996, 0.03681135, 0.056691617], "split_indices": [17, 2, 18, 9, 18, 9, 18, 0, 18, 4, 18, 2, 9, 2, 2, 2, 5, 0, 2, 2, 17, 3, 2, 2, 3, 0, 16, 18, 0, 0, 0, 0, 0, 0, 0, 0, 0, 0, 0, 0, 0, 0, 0, 0, 0, 0, 0, 0, 0, 0, 0, 0, 0, 0, 0], "split_type": [0, 0, 0, 0, 0, 0, 0, 0, 0, 0, 0, 0, 0, 0, 0, 0, 0, 0, 0, 0, 0, 0, 0, 0, 0, 0, 0, 0, 0, 0, 0, 0, 0, 0, 0, 0, 0, 0, 0, 0, 0, 0, 0, 0, 0, 0, 0, 0, 0, 0, 0, 0, 0, 0, 0], "sum_hessian": [6156.294, 3950.2952, 2205.9988, 1068.0604, 2882.2349, 2011.5328, 194.46577, 409.3208, 658.7396, 2186.0334, 696.20135, 1373.8644, 637.6685, 85.32385, 109.14192, 530.47406, 128.26553, 744.9466, 1441.0869, 244.24648, 451.9549, 336.65918, 1037.2052, 582.6208, 55.04772, 26.432243, 58.89161, 103.90679, 5.2351303, 332.33942, 198.13466, 122.55429, 5.711241, 489.37305, 255.57355, 1238.8167, 202.27022, 38.44365, 205.80283, 327.57758, 124.37732, 218.24492, 118.41427, 836.1924, 201.0128, 101.745804, 480.875, 50.00287, 5.044853, 16.844904, 9.587339, 47.8915, 11.000112, 37.515293, 66.3915], "tree_param": {"num_deleted": "0", "num_feature": "30", "num_nodes": "55", "size_leaf_vector": "1"}}, {"base_weights": [-0.0034328725, 0.3065406, -0.56020254, 0.9983834, 0.06705426, -0.6688988, 0.5178174, 0.06744424, 0.78452754, -0.1665759, 0.8310779, -0.27218896, -0.80851907, 0.076564394, 0.831302, 0.689132, 1.2192593, -0.611188, 0.061088596, 0.5381239, 0.97476166, -0.43704313, 0.36987698, -0.94185615, -0.37795335, -0.54259044, 0.42004701, 0.8909841, -0.008969971, 0.03919745, 0.015502359, 0.063217424, 0.012577161, -0.0151427975, -0.060398955, 0.009576035, -0.03569268, 0.0146615505, 0.04497863, 0.052437305, 0.027420936, -0.026041314, 0.009781423, 0.025825312, -0.008948962, -0.054111727, -0.038368803, -0.065395616, -0.012114306, -0.07456815, -0.0017809047, 0.028572366, -0.041722625, 0.032057326, 0.05160122], "categories": [], "categories_nodes": [], "categories_segments": [], "categories_sizes": [], "default_left": [0, 0, 0, 0, 0, 0, 0, 0, 0, 0, 0, 0, 0, 0, 0, 0, 0, 0, 0, 0, 0, 0, 0, 0, 0, 0, 0, 0, 0, 0, 0, 0, 0, 0, 0, 0, 0, 0, 0, 0, 0, 0, 0, 0, 0, 0, 0, 0, 0, 0, 0, 0, 0, 0, 0], "id": 13, "left_children": [1, 3, 5, 7, 9, 11, 13, -1, 15, 17, 19, 21, 23, 25, 27, 29, 31, 33, 35, 37, 39, 41, 43, 45, 47, 49, 51, 53, -1, -1, -1, -1, -1, -1, -1, -1, -1, -1, -1, -1, -1, -1, -1, -1, -1, -1, -1, -1, -1, -1, -1, -1, -1, -1, -1], "loss_changes": [1051.193, 648.20386, 255.59149, 74.35126, 519.13965, 109.40588, 27.612953, 0.0, 25.170776, 225.5125, 28.143341, 54.857773, 83.66211, 18.13609, 7.209877, 18.326874, 4.5499115, 138.45752, 149.13356, 19.771797, 13.799347, 21.921394, 8.632249, 26.522339, 43.552197, 14.609025, 10.870718, 3.2329636, 0.0, 0.0, 0.0, 0.0, 0.0, 0.0, 0.0, 0.0, 0.0, 0.0, 0.0, 0.0, 0.0, 0.0, 0.0, 0.0, 0.0, 0.0, 0.0, 0.0, 0.0, 0.0, 0.0, 0.0, 0.0, 0.0, 0.0], "parents": [2147483647, 0, 0, 1, 1, 2, 2, 3, 3, 4, 4, 5, 5, 6, 6, 8, 8, 9, 9, 10, 10, 11, 11, 12, 12, 13, 13, 14, 14, 15, 15, 16, 16, 17, 17, 18, 18, 19, 19, 20, 20, 21, 21, 22, 22, 23, 23, 24, 24, 25, 25, 26, 26, 27, 27], "right_children": [2, 4, 6, 8, 10, 12, 14, -1, 16, 18, 20, 22, 24, 26, 28, 30, 32, 34, 36, 38, 40, 42, 44, 46, 48, 50, 52, 54, -1, -1, -1, -1, -1, -1, -1, -1, -1, -1, -1, -1, -1, -1, -1, -1, -1, -1, -1, -1, -1, -1, -1, -1, -1, -1, -1], "split_conditions": [1.0, 179.42285, 1.0, 1.0, 1.0, 182.47194, 2.0, 0.06744424, 1.0, 9.0, 2.0, 3.0, 18.0, 2.0, 1440.3181, 1.0, 20.0, 240.48018, 770.2163, 1.0, 5.0, 154.2493, 261.25104, 20.0, 1.0, 16.0, 1.6666666, 3.0, -0.008969971, 0.03919745, 0.015502359, 0.063217424, 0.012577161, -0.0151427975, -0.060398955, 0.009576035, -0.03569268, 0.0146615505, 0.04497863, 0.052437305, 0.027420936, -0.026041314, 0.009781423, 0.025825312, -0.008948962, -0.054111727, -0.038368803, -0.065395616, -0.012114306, -0.07456815, -0.0017809047, 0.028572366, -0.041722625, 0.032057326, 0.05160122], "split_indices": [17, 2, 18, 15, 18, 2, 18, 0, 18, 4, 18, 15, 7, 15, 2, 27, 5, 0, 2, 5, 13, 2, 0, 4, 10, 4, 17, 18, 0, 0, 0, 0, 0, 0, 0, 0, 0, 0, 0, 0, 0, 0, 0, 0, 0, 0, 0, 0, 0, 0, 0, 0, 0, 0, 0], "split_type": [0, 0, 0, 0, 0, 0, 0, 0, 0, 0, 0, 0, 0, 0, 0, 0, 0, 0, 0, 0, 0, 0, 0, 0, 0, 0, 0, 0, 0, 0, 0, 0, 0, 0, 0, 0, 0, 0, 0, 0, 0, 0, 0, 0, 0, 0, 0, 0, 0, 0, 0, 0, 0, 0, 0], "sum_hessian": [6088.918, 3911.626, 2177.292, 1005.03906, 2906.587, 1978.2095, 199.08243, 378.8353, 626.20374, 2226.5225, 680.06445, 515.7458, 1462.4637, 83.20683, 115.875595, 515.63934, 110.56441, 753.4348, 1473.0876, 225.34933, 454.71515, 410.63272, 105.11303, 1115.7516, 346.71204, 29.482536, 53.7243, 109.52648, 6.3491116, 411.61728, 104.02205, 105.349304, 5.2151046, 497.76968, 255.66516, 1261.5128, 211.57492, 135.4136, 89.93572, 386.23148, 68.48368, 362.76892, 47.86381, 82.99856, 22.114475, 615.4153, 500.33633, 43.040627, 303.67142, 9.591269, 19.891268, 48.424618, 5.2996826, 41.521507, 68.004974], "tree_param": {"num_deleted": "0", "num_feature": "30", "num_nodes": "55", "size_leaf_vector": "1"}}, {"base_weights": [0.0041700066, -0.15233544, 0.80212915, 0.066873625, -0.2750886, 0.54991835, 0.9597258, -0.39131254, 0.38481084, 0.67750186, -0.0605912, 1.0794508, 0.70963234, -0.11305263, -0.59690696, 0.18609492, 0.72505337, 0.5312096, 0.94751585, -0.65664876, 0.7096584, 0.9627994, 1.1875414, 0.8039062, -0.085166775, -0.016551634, 0.0047736634, -0.026058445, -0.05523157, 0.019354448, -0.006374912, 0.012977381, 0.044056755, 0.01772537, 0.05337059, 0.059586238, 0.040340956, 0.002862017, -0.096497074, 0.04810891, -0.021384373, 0.051256593, -0.030029172, 0.029649017, 0.060422648, 0.025783053, 0.051638853], "categories": [], "categories_nodes": [], "categories_segments": [], "categories_sizes": [], "default_left": [0, 0, 0, 0, 0, 0, 0, 0, 0, 0, 0, 0, 0, 0, 0, 0, 0, 0, 0, 0, 0, 0, 0, 0, 0, 0, 0, 0, 0, 0, 0, 0, 0, 0, 0, 0, 0, 0, 0, 0, 0, 0, 0, 0, 0, 0, 0], "id": 14, "left_children": [1, 3, 5, -1, 7, 9, 11, 13, 15, 17, 19, 21, 23, 25, 27, 29, 31, 33, 35, 37, 39, 41, 43, 45, -1, -1, -1, -1, -1, -1, -1, -1, -1, -1, -1, -1, -1, -1, -1, -1, -1, -1, -1, -1, -1, -1, -1], "loss_changes": [753.93024, 923.37897, 38.8183, 0.0, 357.84198, 29.87481, 17.435364, 226.81378, 47.118645, 12.014313, 31.283955, 4.015747, 46.800064, 76.68436, 87.11841, 27.943855, 18.468887, 19.311413, 2.8208618, 34.980057, 8.959852, 20.307617, 1.8706665, 12.192131, 0.0, 0.0, 0.0, 0.0, 0.0, 0.0, 0.0, 0.0, 0.0, 0.0, 0.0, 0.0, 0.0, 0.0, 0.0, 0.0, 0.0, 0.0, 0.0, 0.0, 0.0, 0.0, 0.0], "parents": [2147483647, 0, 0, 1, 1, 2, 2, 4, 4, 5, 5, 6, 6, 7, 7, 8, 8, 9, 9, 10, 10, 11, 11, 12, 12, 13, 13, 14, 14, 15, 15, 16, 16, 17, 17, 18, 18, 19, 19, 20, 20, 21, 21, 22, 22, 23, 23], "right_children": [2, 4, 6, -1, 8, 10, 12, 14, 16, 18, 20, 22, 24, 26, 28, 30, 32, 34, 36, 38, 40, 42, 44, 46, -1, -1, -1, -1, -1, -1, -1, -1, -1, -1, -1, -1, -1, -1, -1, -1, -1, -1, -1, -1, -1, -1, -1], "split_conditions": [1.0, 1.0, 2.0, 0.066873625, 5.0, 1.0, 1.0, 1.0, 4.0, 4.0, 8.0, 1.0, 1.0, 7.0, 1050.9504, 206.76888, 8.0, 1.0, 3.0, 1127.3694, 1912.796, 26.0, 5.0, 1.0, -0.085166775, -0.016551634, 0.0047736634, -0.026058445, -0.05523157, 0.019354448, -0.006374912, 0.012977381, 0.044056755, 0.01772537, 0.05337059, 0.059586238, 0.040340956, 0.002862017, -0.096497074, 0.04810891, -0.021384373, 0.051256593, -0.030029172, 0.029649017, 0.060422648, 0.025783053, 0.051638853], "split_indices": [18, 15, 18, 0, 9, 13, 13, 16, 5, 15, 6, 6, 9, 3, 0, 0, 9, 26, 10, 0, 0, 3, 3, 5, 0, 0, 0, 0, 0, 0, 0, 0, 0, 0, 0, 0, 0, 0, 0, 0, 0, 0, 0, 0, 0, 0, 0], "split_type": [0, 0, 0, 0, 0, 0, 0, 0, 0, 0, 0, 0, 0, 0, 0, 0, 0, 0, 0, 0, 0, 0, 0, 0, 0, 0, 0, 0, 0, 0, 0, 0, 0, 0, 0, 0, 0, 0, 0, 0, 0, 0, 0, 0, 0, 0, 0], "sum_hessian": [6035.0205, 5046.1226, 988.89777, 383.37335, 4662.7495, 382.01965, 606.8781, 3964.852, 697.8973, 315.89465, 66.124985, 408.16476, 198.71333, 1685.3629, 2279.489, 441.55664, 256.34067, 206.8122, 109.082466, 37.360813, 28.764174, 201.0733, 207.09148, 191.88335, 6.82998, 823.71497, 861.64795, 1985.3567, 294.13242, 268.94498, 172.61163, 65.03627, 191.3044, 156.80063, 50.01155, 37.142906, 71.93956, 24.551, 12.809812, 23.664145, 5.100029, 193.69493, 7.3783774, 8.033672, 199.0578, 86.36562, 105.51772], "tree_param": {"num_deleted": "0", "num_feature": "30", "num_nodes": "47", "size_leaf_vector": "1"}}, {"base_weights": [0.0019065501, 0.28766635, -0.51335645, 0.06585153, 0.1743616, -0.60368574, 0.4115547, -0.02327154, 0.8552867, -0.77169, -0.2502835, 0.1662791, 0.819786, -0.13673906, 0.47795174, 0.9494693, 0.5620563, -0.71209186, -1.1928629, -0.3670894, 0.26734534, -0.047137294, 0.6900934, 0.9113542, -0.0052178316, -0.019667035, 0.0009782015, 0.026006494, -0.0690942, 0.054331493, 0.040755674, 0.019071618, 0.05166353, -0.040184658, -0.013301618, -0.061424088, -0.02558189, -0.015452094, -0.04680858, -0.004689813, 0.036198713, 0.007492927, -0.06787306, 0.04530122, -0.017042933, 0.050590795, 0.0108621875], "categories": [], "categories_nodes": [], "categories_segments": [], "categories_sizes": [], "default_left": [0, 0, 0, 0, 0, 0, 0, 0, 0, 0, 0, 0, 0, 0, 0, 0, 0, 0, 0, 0, 0, 0, 0, 0, 0, 0, 0, 0, 0, 0, 0, 0, 0, 0, 0, 0, 0, 0, 0, 0, 0, 0, 0, 0, 0, 0, 0], "id": 15, "left_children": [1, 3, 5, -1, 7, 9, 11, 13, 15, 17, 19, 21, 23, 25, 27, 29, 31, 33, 35, 37, 39, 41, 43, 45, -1, -1, -1, -1, -1, -1, -1, -1, -1, -1, -1, -1, -1, -1, -1, -1, -1, -1, -1, -1, -1, -1, -1], "loss_changes": [879.33496, 447.81888, 178.24414, 0.0, 465.88507, 115.070496, 18.903442, 152.71304, 20.973572, 32.16693, 38.00833, 13.45166, 6.1129036, 87.817535, 39.601738, 9.949951, 15.928169, 46.96942, 3.2919312, 16.623665, 19.200012, 22.46057, 8.058714, 4.2991714, 0.0, 0.0, 0.0, 0.0, 0.0, 0.0, 0.0, 0.0, 0.0, 0.0, 0.0, 0.0, 0.0, 0.0, 0.0, 0.0, 0.0, 0.0, 0.0, 0.0, 0.0, 0.0, 0.0], "parents": [2147483647, 0, 0, 1, 1, 2, 2, 4, 4, 5, 5, 6, 6, 7, 7, 8, 8, 9, 9, 10, 10, 11, 11, 12, 12, 13, 13, 14, 14, 15, 15, 16, 16, 17, 17, 18, 18, 19, 19, 20, 20, 21, 21, 22, 22, 23, 23], "right_children": [2, 4, 6, -1, 8, 10, 12, 14, 16, 18, 20, 22, 24, 26, 28, 30, 32, 34, 36, 38, 40, 42, 44, 46, -1, -1, -1, -1, -1, -1, -1, -1, -1, -1, -1, -1, -1, -1, -1, -1, -1, -1, -1, -1, -1, -1, -1], "split_conditions": [1.0, 1.0, 1.0, 0.06585153, 1.0, 2.0, 6.0, 5.0, 0.5, 1050.9504, 11.0, 8.0, 25.0, 7.0, 1.0, 27.0, 51.0, 712.36755, 3.0, 765.6042, 6.0, 89.0, 23.0, 11.0, -0.0052178316, -0.019667035, 0.0009782015, 0.026006494, -0.0690942, 0.054331493, 0.040755674, 0.019071618, 0.05166353, -0.040184658, -0.013301618, -0.061424088, -0.02558189, -0.015452094, -0.04680858, -0.004689813, 0.036198713, 0.007492927, -0.06787306, 0.04530122, -0.017042933, 0.050590795, 0.0108621875], "split_indices": [17, 15, 19, 0, 19, 9, 15, 9, 17, 0, 10, 6, 26, 4, 13, 4, 7, 0, 17, 0, 5, 4, 26, 12, 0, 0, 0, 0, 0, 0, 0, 0, 0, 0, 0, 0, 0, 0, 0, 0, 0, 0, 0, 0, 0, 0, 0], "split_type": [0, 0, 0, 0, 0, 0, 0, 0, 0, 0, 0, 0, 0, 0, 0, 0, 0, 0, 0, 0, 0, 0, 0, 0, 0, 0, 0, 0, 0, 0, 0, 0, 0, 0, 0, 0, 0, 0, 0, 0, 0, 0, 0, 0, 0, 0, 0], "sum_hessian": [5970.058, 3840.5618, 2129.4963, 379.76892, 3460.793, 1940.3444, 189.15193, 2683.0305, 777.7625, 1314.3368, 626.00757, 119.03815, 70.113785, 2188.3552, 494.67526, 586.9896, 190.7729, 1153.764, 160.57283, 510.99048, 115.01706, 85.2251, 33.813046, 63.80549, 6.3082957, 827.81726, 1360.538, 484.40994, 10.265321, 286.95578, 300.03384, 139.21793, 51.554966, 956.5319, 197.2321, 151.8308, 8.742032, 465.09314, 45.897335, 64.66722, 50.349842, 74.856674, 10.36842, 28.05761, 5.755438, 55.338398, 8.4670925], "tree_param": {"num_deleted": "0", "num_feature": "30", "num_nodes": "47", "size_leaf_vector": "1"}}, {"base_weights": [0.010716161, 0.2701593, -0.45242494, 0.91516435, 0.03734134, -0.5380395, 0.40986824, 0.063956246, 0.7248627, -0.17296211, 0.7482559, -0.7048178, -0.19478898, 0.87229675, 0.05712373, 0.61811507, 1.1909035, -0.51685476, 0.013093785, 0.4495525, 0.9014954, -0.6136888, -1.2488384, -0.4083604, 0.121589266, 0.59531784, 1.185909, -0.17331086, 0.6284056, 0.041616503, 0.020828335, 0.06319616, 0.045062132, -0.011921386, -0.052035887, 0.02640138, -0.007037889, 0.012329892, 0.04783153, 0.04757045, 0.011568748, -0.03569613, 0.027334442, -0.06405411, -0.03823269, 0.0025372857, -0.03450014, 0.017313592, -0.0133796055, 0.041885797, -0.034547675, 0.065405585, 0.03562082, -0.0031812084, -0.063962035, 0.010294454, 0.051989198], "categories": [], "categories_nodes": [], "categories_segments": [], "categories_sizes": [], "default_left": [0, 0, 0, 0, 0, 0, 0, 0, 0, 0, 0, 0, 0, 0, 0, 0, 0, 0, 0, 0, 0, 0, 0, 0, 0, 0, 0, 0, 0, 0, 0, 0, 0, 0, 0, 0, 0, 0, 0, 0, 0, 0, 0, 0, 0, 0, 0, 0, 0, 0, 0, 0, 0, 0, 0, 0, 0], "id": 16, "left_children": [1, 3, 5, 7, 9, 11, 13, -1, 15, 17, 19, 21, 23, 25, 27, 29, 31, 33, 35, 37, 39, 41, 43, 45, 47, 49, 51, 53, 55, -1, -1, -1, -1, -1, -1, -1, -1, -1, -1, -1, -1, -1, -1, -1, -1, -1, -1, -1, -1, -1, -1, -1, -1, -1, -1, -1, -1], "loss_changes": [711.67694, 570.03674, 157.2153, 68.805664, 417.31717, 110.63202, 31.37339, 0.0, 32.268524, 137.83965, 28.761627, 63.773743, 42.895706, 6.5288696, 14.635733, 23.048203, 1.4531555, 110.06813, 110.897835, 22.20456, 13.833252, 130.31021, 1.9213867, 49.013737, 22.50559, 14.994724, 1.2699432, 9.552272, 5.3364506, 0.0, 0.0, 0.0, 0.0, 0.0, 0.0, 0.0, 0.0, 0.0, 0.0, 0.0, 0.0, 0.0, 0.0, 0.0, 0.0, 0.0, 0.0, 0.0, 0.0, 0.0, 0.0, 0.0, 0.0, 0.0, 0.0, 0.0, 0.0], "parents": [2147483647, 0, 0, 1, 1, 2, 2, 3, 3, 4, 4, 5, 5, 6, 6, 8, 8, 9, 9, 10, 10, 11, 11, 12, 12, 13, 13, 14, 14, 15, 15, 16, 16, 17, 17, 18, 18, 19, 19, 20, 20, 21, 21, 22, 22, 23, 23, 24, 24, 25, 25, 26, 26, 27, 27, 28, 28], "right_children": [2, 4, 6, 8, 10, 12, 14, -1, 16, 18, 20, 22, 24, 26, 28, 30, 32, 34, 36, 38, 40, 42, 44, 46, 48, 50, 52, 54, 56, -1, -1, -1, -1, -1, -1, -1, -1, -1, -1, -1, -1, -1, -1, -1, -1, -1, -1, -1, -1, -1, -1, -1, -1, -1, -1, -1, -1], "split_conditions": [0.9492386, 187.4264, 1.0, 1.0, 1.0, 2.0, 344.01355, 0.063956246, 1.0, 11.0, 2.0, 799.8148, 12.0, 6.0, 4.0, 106.97202, 0.47619048, 225.95775, 57.0, 5.0, 2.0, 727.8613, 1.0, 201.75645, 464.91013, 1.3076923, 216.8385, 10.0, 2.0, 0.041616503, 0.020828335, 0.06319616, 0.045062132, -0.011921386, -0.052035887, 0.02640138, -0.007037889, 0.012329892, 0.04783153, 0.04757045, 0.011568748, -0.03569613, 0.027334442, -0.06405411, -0.03823269, 0.0025372857, -0.03450014, 0.017313592, -0.0133796055, 0.041885797, -0.034547675, 0.065405585, 0.03562082, -0.0031812084, -0.063962035, 0.010294454, 0.051989198], "split_indices": [17, 2, 18, 9, 18, 9, 2, 0, 18, 4, 18, 2, 7, 9, 18, 2, 17, 0, 4, 5, 20, 2, 22, 2, 2, 17, 2, 24, 6, 0, 0, 0, 0, 0, 0, 0, 0, 0, 0, 0, 0, 0, 0, 0, 0, 0, 0, 0, 0, 0, 0, 0, 0, 0, 0, 0, 0], "split_type": [0, 0, 0, 0, 0, 0, 0, 0, 0, 0, 0, 0, 0, 0, 0, 0, 0, 0, 0, 0, 0, 0, 0, 0, 0, 0, 0, 0, 0, 0, 0, 0, 0, 0, 0, 0, 0, 0, 0, 0, 0, 0, 0, 0, 0, 0, 0, 0, 0, 0, 0, 0, 0, 0, 0, 0, 0], "sum_hessian": [5920.787, 3795.2017, 2125.5854, 1005.7936, 2789.4082, 1933.9458, 191.6397, 343.36703, 662.4265, 2153.2024, 636.20575, 1300.841, 633.1049, 82.28964, 109.35006, 540.8663, 121.56028, 755.3284, 1397.8739, 217.05095, 419.15482, 1116.0237, 184.81718, 377.78806, 255.31688, 45.23598, 37.05366, 78.41634, 30.933712, 260.67694, 280.1893, 94.39989, 27.160395, 494.14914, 261.1793, 321.01617, 1076.8578, 156.0709, 60.980034, 389.70786, 29.44696, 1027.6405, 88.38316, 171.73486, 13.082325, 143.95174, 233.8363, 161.93732, 93.37956, 38.35643, 6.879552, 28.051287, 9.002375, 72.30284, 6.113504, 16.000492, 14.93322], "tree_param": {"num_deleted": "0", "num_feature": "30", "num_nodes": "57", "size_leaf_vector": "1"}}, {"base_weights": [0.0015406783, 0.5677379, -0.1973498, 1.0072417, 0.17700556, -0.36931932, 0.61833143, 0.0631441, 0.76917285, -0.18162312, 0.65458983, -0.4407734, 0.3382522, 0.33856818, 0.7840787, 0.6217438, 1.056865, -0.24939704, 0.806993, 0.518448, 1.1137357, -0.6584545, -0.23944072, 0.02196087, 0.6520878, 0.80743325, 0.19199115, 0.6271694, 1.0040255, 0.026481444, 0.06095158, 0.05495548, 0.025095297, -0.036347892, -0.0074565858, 0.015854668, 0.05696122, 0.03577542, 0.015692366, 0.05725987, 0.03360427, -0.044688202, -0.019909265, -0.00094611646, -0.04201598, 0.019278703, -0.043932915, 0.020978227, 0.04756622, 0.04476335, -0.010365512, -0.0014940643, 0.044188727, 0.04137011, -0.031088442, 0.051608462, 0.017511107], "categories": [], "categories_nodes": [], "categories_segments": [], "categories_sizes": [], "default_left": [0, 0, 0, 0, 0, 0, 0, 0, 0, 0, 0, 0, 0, 0, 0, 0, 0, 0, 0, 0, 0, 0, 0, 0, 0, 0, 0, 0, 0, 0, 0, 0, 0, 0, 0, 0, 0, 0, 0, 0, 0, 0, 0, 0, 0, 0, 0, 0, 0, 0, 0, 0, 0, 0, 0, 0, 0], "id": 17, "left_children": [1, 3, 5, 7, 9, 11, 13, -1, 15, 17, 19, 21, 23, 25, 27, 29, 31, 33, 35, 37, 39, 41, 43, 45, 47, 49, 51, 53, 55, -1, -1, -1, -1, -1, -1, -1, -1, -1, -1, -1, -1, -1, -1, -1, -1, -1, -1, -1, -1, -1, -1, -1, -1, -1, -1, -1, -1], "loss_changes": [657.73016, 260.56354, 606.5389, 42.504517, 137.99205, 180.6643, 34.650482, 0.0, 15.140045, 31.05779, 21.016327, 141.98627, 32.54917, 19.218517, 15.662781, 13.036743, 2.3733673, 20.564829, 4.4860535, 10.593643, 0.3160019, 95.05151, 223.4556, 54.182926, 11.055725, 6.141796, 33.190975, 70.083885, 3.224701, 0.0, 0.0, 0.0, 0.0, 0.0, 0.0, 0.0, 0.0, 0.0, 0.0, 0.0, 0.0, 0.0, 0.0, 0.0, 0.0, 0.0, 0.0, 0.0, 0.0, 0.0, 0.0, 0.0, 0.0, 0.0, 0.0, 0.0, 0.0], "parents": [2147483647, 0, 0, 1, 1, 2, 2, 3, 3, 4, 4, 5, 5, 6, 6, 8, 8, 9, 9, 10, 10, 11, 11, 12, 12, 13, 13, 14, 14, 15, 15, 16, 16, 17, 17, 18, 18, 19, 19, 20, 20, 21, 21, 22, 22, 23, 23, 24, 24, 25, 25, 26, 26, 27, 27, 28, 28], "right_children": [2, 4, 6, 8, 10, 12, 14, -1, 16, 18, 20, 22, 24, 26, 28, 30, 32, 34, 36, 38, 40, 42, 44, 46, 48, 50, 52, 54, 56, -1, -1, -1, -1, -1, -1, -1, -1, -1, -1, -1, -1, -1, -1, -1, -1, -1, -1, -1, -1, -1, -1, -1, -1, -1, -1, -1, -1], "split_conditions": [179.42285, 1.0, 1.0, 84.3673, 3.0, 8.0, 2.0, 0.0631441, 2.0, 1.0, 1.0, 533.93823, 8.0, 446.3388, 1.0, 1.0, 39.0, 93.812225, 3.0, 115.33051, 31.0, 1.0, 772.5323, 3.0, 25.0, 699.5642, 7.0, 28.0, 2322.6619, 0.026481444, 0.06095158, 0.05495548, 0.025095297, -0.036347892, -0.0074565858, 0.015854668, 0.05696122, 0.03577542, 0.015692366, 0.05725987, 0.03360427, -0.044688202, -0.019909265, -0.00094611646, -0.04201598, 0.019278703, -0.043932915, 0.020978227, 0.04756622, 0.04476335, -0.010365512, -0.0014940643, 0.044188727, 0.04137011, -0.031088442, 0.051608462, 0.017511107], "split_indices": [2, 16, 18, 2, 9, 9, 18, 0, 15, 18, 18, 2, 6, 2, 5, 18, 6, 2, 7, 2, 5, 7, 2, 3, 9, 0, 5, 3, 0, 0, 0, 0, 0, 0, 0, 0, 0, 0, 0, 0, 0, 0, 0, 0, 0, 0, 0, 0, 0, 0, 0, 0, 0, 0, 0, 0, 0], "split_type": [0, 0, 0, 0, 0, 0, 0, 0, 0, 0, 0, 0, 0, 0, 0, 0, 0, 0, 0, 0, 0, 0, 0, 0, 0, 0, 0, 0, 0, 0, 0, 0, 0, 0, 0, 0, 0, 0, 0, 0, 0, 0, 0, 0, 0, 0, 0, 0, 0, 0, 0, 0, 0, 0, 0, 0, 0], "sum_hessian": [5838.7207, 1517.3387, 4321.382, 713.3594, 803.9793, 3569.396, 751.986, 341.90952, 371.44986, 459.5287, 344.45065, 3242.345, 327.05106, 280.9001, 471.08594, 247.68417, 123.76569, 430.74683, 28.781836, 267.3173, 77.13336, 1556.8292, 1685.5157, 163.42116, 163.6299, 65.82689, 215.0732, 277.1905, 193.89546, 216.22435, 31.45983, 114.09967, 9.666021, 73.65932, 357.08752, 12.420836, 16.361, 134.8958, 132.42148, 70.51697, 6.6163926, 816.341, 740.4882, 1233.7643, 451.75143, 116.82605, 46.595104, 93.43099, 70.1989, 60.691334, 5.135554, 163.56921, 51.503983, 239.1818, 38.00869, 185.33861, 8.556849], "tree_param": {"num_deleted": "0", "num_feature": "30", "num_nodes": "57", "size_leaf_vector": "1"}}, {"base_weights": [0.0019268743, 0.55786794, -0.19772777, 0.89274865, -0.025550451, -0.37231696, 0.60500056, 0.06254055, 0.6995859, -0.1243099, 0.8911344, -0.71683127, -0.1978872, 0.7907058, 0.28868502, 0.60023755, 1.1510848, -0.5301393, 0.029295059, 0.64024633, 0.06202786, -0.84073853, 0.08898963, -0.08015882, -0.8980865, 0.960731, 0.5789805, -0.1487377, 0.5941806, 0.017097848, 0.038391408, 0.059274174, 0.022473337, -0.036313713, 0.0073905364, -0.0050249654, 0.025049869, 0.0432418, -0.022212407, -0.04675476, -0.007242586, 0.028684122, -0.022710435, -0.01090356, 0.06858256, -0.07028852, -0.027551962, 0.050316222, -5.544073e-05, 0.04897981, 0.01098876, -0.025763277, 0.025316967, 0.016451923, 0.041766312], "categories": [], "categories_nodes": [], "categories_segments": [], "categories_sizes": [], "default_left": [0, 0, 0, 0, 0, 0, 0, 0, 0, 0, 0, 0, 0, 0, 0, 0, 0, 0, 0, 0, 0, 0, 0, 0, 0, 0, 0, 0, 0, 0, 0, 0, 0, 0, 0, 0, 0, 0, 0, 0, 0, 0, 0, 0, 0, 0, 0, 0, 0, 0, 0, 0, 0, 0, 0], "id": 18, "left_children": [1, 3, 5, 7, 9, 11, 13, -1, 15, 17, 19, 21, 23, 25, 27, 29, 31, 33, 35, 37, -1, 39, 41, 43, 45, 47, 49, 51, 53, -1, -1, -1, -1, -1, -1, -1, -1, -1, -1, -1, -1, -1, -1, -1, -1, -1, -1, -1, -1, -1, -1, -1, -1, -1, -1], "loss_changes": [651.4732, 303.0268, 605.44666, 67.27533, 51.40029, 213.04727, 45.110443, 0.0, 28.12091, 31.952017, 4.046871, 119.09845, 194.18707, 16.929962, 38.452255, 22.616608, 2.236786, 18.818863, 22.862307, 8.716577, 0.0, 67.71179, 42.32635, 404.4416, 58.970337, 11.748901, 31.279343, 28.798126, 10.545677, 0.0, 0.0, 0.0, 0.0, 0.0, 0.0, 0.0, 0.0, 0.0, 0.0, 0.0, 0.0, 0.0, 0.0, 0.0, 0.0, 0.0, 0.0, 0.0, 0.0, 0.0, 0.0, 0.0, 0.0, 0.0, 0.0], "parents": [2147483647, 0, 0, 1, 1, 2, 2, 3, 3, 4, 4, 5, 5, 6, 6, 8, 8, 9, 9, 10, 10, 11, 11, 12, 12, 13, 13, 14, 14, 15, 15, 16, 16, 17, 17, 18, 18, 19, 19, 21, 21, 22, 22, 23, 23, 24, 24, 25, 25, 26, 26, 27, 27, 28, 28], "right_children": [2, 4, 6, 8, 10, 12, 14, -1, 16, 18, 20, 22, 24, 26, 28, 30, 32, 34, 36, 38, -1, 40, 42, 44, 46, 48, 50, 52, 54, -1, -1, -1, -1, -1, -1, -1, -1, -1, -1, -1, -1, -1, -1, -1, -1, -1, -1, -1, -1, -1, -1, -1, -1, -1, -1], "split_conditions": [182.47194, 1.0, 1.0, 1.0, 1.0, 9.0, 0.5, 0.06254055, 1.0, 98.62662, 6.0, 6.0, 777.4669, 1.0, 5.0, 2.0, 97.0, 12.0, 3.0, 4.0, 0.06202786, 1.0, 0.625, 750.1372, 1.0, 890.0, 533.93823, 2.0, 3.0, 0.017097848, 0.038391408, 0.059274174, 0.022473337, -0.036313713, 0.0073905364, -0.0050249654, 0.025049869, 0.0432418, -0.022212407, -0.04675476, -0.007242586, 0.028684122, -0.022710435, -0.01090356, 0.06858256, -0.07028852, -0.027551962, 0.050316222, -5.544073e-05, 0.04897981, 0.01098876, -0.025763277, 0.025316967, 0.016451923, 0.041766312], "split_indices": [2, 17, 18, 9, 18, 4, 17, 0, 18, 2, 15, 15, 2, 9, 15, 9, 6, 7, 9, 10, 0, 26, 17, 2, 6, 4, 2, 14, 18, 0, 0, 0, 0, 0, 0, 0, 0, 0, 0, 0, 0, 0, 0, 0, 0, 0, 0, 0, 0, 0, 0, 0, 0, 0, 0], "split_type": [0, 0, 0, 0, 0, 0, 0, 0, 0, 0, 0, 0, 0, 0, 0, 0, 0, 0, 0, 0, 0, 0, 0, 0, 0, 0, 0, 0, 0, 0, 0, 0, 0, 0, 0, 0, 0, 0, 0, 0, 0, 0, 0, 0, 0, 0, 0, 0, 0, 0, 0, 0, 0, 0, 0], "sum_hessian": [5867.3345, 1549.8795, 4317.455, 984.3404, 565.53906, 3546.6199, 770.835, 343.0181, 641.3223, 511.31656, 54.222527, 1191.0602, 2355.5598, 484.74622, 286.0888, 527.56555, 113.75675, 139.7201, 371.59647, 33.20989, 21.012636, 1032.287, 158.77322, 2017.4664, 338.0933, 266.88644, 217.85979, 117.85363, 168.23517, 208.80626, 318.7593, 107.782776, 5.97398, 108.31317, 31.40692, 292.0284, 79.56806, 27.680115, 5.5297737, 908.72723, 123.55977, 83.87548, 74.897736, 1843.2223, 174.24417, 136.03766, 202.05563, 254.76381, 12.122633, 102.1767, 115.68309, 75.70737, 42.14626, 81.25688, 86.97829], "tree_param": {"num_deleted": "0", "num_feature": "30", "num_nodes": "55", "size_leaf_vector": "1"}}, {"base_weights": [-0.010443728, 0.22751135, -0.4325973, 0.8395463, 0.011899323, -0.5225525, 0.4590758, 0.06178797, 0.63645315, -0.17360924, 0.64756495, -0.16831438, -0.6495156, 0.5468199, -0.05089729, 0.5479649, 1.075183, -0.50198174, 0.0062514045, 0.8792028, 0.4768792, -0.2752367, 0.26121786, -0.6833432, 0.7427356, 0.33615685, 1.005004, 0.0329083, 0.0061740046, 0.057991594, 0.038403835, -0.031247437, 0.022050705, 0.006243612, -0.03608888, 0.03237732, 0.05108083, -0.019286996, 0.037565295, -0.0103490455, -0.04778472, 0.023358373, -0.009427066, -0.04651798, -0.02531294, 0.04985023, 0.018545017, 0.024879606, -0.049254946, 0.0546125, 0.0057003745], "categories": [], "categories_nodes": [], "categories_segments": [], "categories_sizes": [], "default_left": [0, 0, 0, 0, 0, 0, 0, 0, 0, 0, 0, 0, 0, 0, 0, 0, 0, 0, 0, 0, 0, 0, 0, 0, 0, 0, 0, 0, 0, 0, 0, 0, 0, 0, 0, 0, 0, 0, 0, 0, 0, 0, 0, 0, 0, 0, 0, 0, 0, 0, 0], "id": 19, "left_children": [1, 3, 5, 7, 9, 11, 13, -1, 15, 17, 19, 21, 23, 25, -1, 27, 29, 31, 33, 35, 37, 39, 41, 43, 45, 47, 49, -1, -1, -1, -1, -1, -1, -1, -1, -1, -1, -1, -1, -1, -1, -1, -1, -1, -1, -1, -1, -1, -1, -1, -1], "loss_changes": [577.0113, 484.74957, 166.3241, 76.2193, 320.56454, 84.50348, 25.21688, 0.0, 24.052765, 124.291245, 23.861115, 22.930902, 65.71698, 17.061329, 0.0, 24.722641, 1.8516083, 86.6342, 117.594894, 7.894745, 84.50764, 18.334387, 9.324633, 58.68091, 2.7807407, 27.14963, 4.2499084, 0.0, 0.0, 0.0, 0.0, 0.0, 0.0, 0.0, 0.0, 0.0, 0.0, 0.0, 0.0, 0.0, 0.0, 0.0, 0.0, 0.0, 0.0, 0.0, 0.0, 0.0, 0.0, 0.0, 0.0], "parents": [2147483647, 0, 0, 1, 1, 2, 2, 3, 3, 4, 4, 5, 5, 6, 6, 8, 8, 9, 9, 10, 10, 11, 11, 12, 12, 13, 13, 15, 15, 16, 16, 17, 17, 18, 18, 19, 19, 20, 20, 21, 21, 22, 22, 23, 23, 24, 24, 25, 25, 26, 26], "right_children": [2, 4, 6, 8, 10, 12, 14, -1, 16, 18, 20, 22, 24, 26, -1, 28, 30, 32, 34, 36, 38, 40, 42, 44, 46, 48, 50, -1, -1, -1, -1, -1, -1, -1, -1, -1, -1, -1, -1, -1, -1, -1, -1, -1, -1, -1, -1, -1, -1, -1, -1], "split_conditions": [0.9492386, 187.4264, 1.0, 1.0, 1.0, 182.47194, 1440.3181, 0.06178797, 1.0, 12.0, 16.916954, 3.0, 43.0, 8.0, -0.05089729, 1.0, 0.47619048, 11.0, 777.4669, 5.0, 1.0, 75.0, 1.0, 20.0, 444.0, 89.0, 1e-06, 0.0329083, 0.0061740046, 0.057991594, 0.038403835, -0.031247437, 0.022050705, 0.006243612, -0.03608888, 0.03237732, 0.05108083, -0.019286996, 0.037565295, -0.0103490455, -0.04778472, 0.023358373, -0.009427066, -0.04651798, -0.02531294, 0.04985023, 0.018545017, 0.024879606, -0.049254946, 0.0546125, 0.0057003745], "split_indices": [17, 2, 18, 15, 18, 2, 2, 0, 18, 4, 1, 9, 10, 6, 0, 27, 17, 15, 2, 15, 6, 4, 27, 4, 4, 4, 24, 0, 0, 0, 0, 0, 0, 0, 0, 0, 0, 0, 0, 0, 0, 0, 0, 0, 0, 0, 0, 0, 0, 0, 0], "split_type": [0, 0, 0, 0, 0, 0, 0, 0, 0, 0, 0, 0, 0, 0, 0, 0, 0, 0, 0, 0, 0, 0, 0, 0, 0, 0, 0, 0, 0, 0, 0, 0, 0, 0, 0, 0, 0, 0, 0, 0, 0, 0, 0, 0, 0, 0, 0, 0, 0, 0, 0], "sum_hessian": [5742.078, 3672.4766, 2069.6016, 955.9706, 2716.5059, 1880.322, 189.2797, 322.2366, 633.73395, 2103.3923, 613.1136, 496.72937, 1383.5927, 179.2603, 10.01938, 529.23956, 104.494354, 743.74414, 1359.6482, 258.35236, 354.76123, 398.01242, 98.716934, 1351.2699, 32.322666, 123.987305, 55.273003, 419.72394, 109.51566, 79.73897, 24.755394, 658.24585, 85.49825, 1169.8656, 189.78265, 100.47018, 157.88217, 85.52393, 269.2373, 362.91327, 35.099148, 67.684685, 31.032251, 562.4502, 788.81976, 18.197512, 14.1251545, 111.0431, 12.944209, 50.13767, 5.1353354], "tree_param": {"num_deleted": "0", "num_feature": "30", "num_nodes": "51", "size_leaf_vector": "1"}}, {"base_weights": [-0.008841283, 0.2313861, -0.44123197, 0.83700484, 0.034121886, -0.5143138, 0.33425257, 0.06103315, 0.6339213, -0.13849851, 0.63818824, -0.15058453, -0.647544, 0.03869862, 0.7137056, 0.51821595, 1.1539303, -0.33447126, 0.10833568, 0.376158, 0.78496367, -0.25634152, 0.28676158, -0.7874558, -0.21219806, 1.0626328, -0.15892084, 0.43442494, 1.1241039, 0.03429256, 0.013096531, 0.059671324, 0.043432564, -0.029180005, 0.02632924, 0.01864813, -0.030131495, 0.043487933, 0.010869056, 0.04228677, 0.001769923, -0.02059756, 0.0022889252, -0.02740703, 0.024633067, -0.04808589, -0.030833045, 0.010016638, -0.02497049, 0.061593812, 0.03125758, -0.022588205, 0.024125403, 0.035887465, -0.072944425, 0.061308056, 0.03196102], "categories": [], "categories_nodes": [], "categories_segments": [], "categories_sizes": [], "default_left": [0, 0, 0, 0, 0, 0, 0, 0, 0, 0, 0, 0, 0, 0, 0, 0, 0, 0, 0, 0, 0, 0, 0, 0, 0, 0, 0, 0, 0, 0, 0, 0, 0, 0, 0, 0, 0, 0, 0, 0, 0, 0, 0, 0, 0, 0, 0, 0, 0, 0, 0, 0, 0, 0, 0, 0, 0], "id": 20, "left_children": [1, 3, 5, 7, 9, 11, 13, -1, 15, 17, 19, 21, 23, 25, 27, 29, 31, 33, 35, 37, 39, 41, 43, 45, 47, 49, 51, 53, 55, -1, -1, -1, -1, -1, -1, -1, -1, -1, -1, -1, -1, -1, -1, -1, -1, -1, -1, -1, -1, -1, -1, -1, -1, -1, -1, -1, -1], "loss_changes": [588.4764, 435.0708, 114.84604, 68.94269, 286.6576, 89.530426, 19.583803, 0.0, 34.730057, 103.4693, 23.202713, 23.067709, 82.26788, 20.27425, 8.280945, 20.532822, 0.15827942, 256.04446, 178.40875, 17.153364, 17.767166, 18.8647, 16.993057, 29.879944, 39.262985, 0.4296646, 16.025589, 26.343498, 0.7182121, 0.0, 0.0, 0.0, 0.0, 0.0, 0.0, 0.0, 0.0, 0.0, 0.0, 0.0, 0.0, 0.0, 0.0, 0.0, 0.0, 0.0, 0.0, 0.0, 0.0, 0.0, 0.0, 0.0, 0.0, 0.0, 0.0, 0.0, 0.0], "parents": [2147483647, 0, 0, 1, 1, 2, 2, 3, 3, 4, 4, 5, 5, 6, 6, 8, 8, 9, 9, 10, 10, 11, 11, 12, 12, 13, 13, 14, 14, 15, 15, 16, 16, 17, 17, 18, 18, 19, 19, 20, 20, 21, 21, 22, 22, 23, 23, 24, 24, 25, 25, 26, 26, 27, 27, 28, 28], "right_children": [2, 4, 6, 8, 10, 12, 14, -1, 16, 18, 20, 22, 24, 26, 28, 30, 32, 34, 36, 38, 40, 42, 44, 46, 48, 50, 52, 54, 56, -1, -1, -1, -1, -1, -1, -1, -1, -1, -1, -1, -1, -1, -1, -1, -1, -1, -1, -1, -1, -1, -1, -1, -1, -1, -1, -1, -1], "split_conditions": [1.0, 179.42285, 1.0, 1.0, 1.0, 182.47194, 5.0, 0.06103315, 1.0, 579.34314, 2.0, 3.0, 18.0, 115.33051, 16.0, 124.0505, 108.0, 5.0, 777.4669, 455.0181, 2.0, 7.0, 98.62662, 15.0, 69.0, 11.0, 2.0, 28.0, 31.0, 0.03429256, 0.013096531, 0.059671324, 0.043432564, -0.029180005, 0.02632924, 0.01864813, -0.030131495, 0.043487933, 0.010869056, 0.04228677, 0.001769923, -0.02059756, 0.0022889252, -0.02740703, 0.024633067, -0.04808589, -0.030833045, 0.010016638, -0.02497049, 0.061593812, 0.03125758, -0.022588205, 0.024125403, 0.035887465, -0.072944425, 0.061308056, 0.03196102], "split_indices": [17, 2, 18, 15, 18, 2, 15, 0, 18, 2, 18, 9, 7, 2, 7, 2, 7, 15, 2, 2, 20, 3, 2, 4, 3, 4, 14, 4, 10, 0, 0, 0, 0, 0, 0, 0, 0, 0, 0, 0, 0, 0, 0, 0, 0, 0, 0, 0, 0, 0, 0, 0, 0, 0, 0, 0, 0], "split_type": [0, 0, 0, 0, 0, 0, 0, 0, 0, 0, 0, 0, 0, 0, 0, 0, 0, 0, 0, 0, 0, 0, 0, 0, 0, 0, 0, 0, 0, 0, 0, 0, 0, 0, 0, 0, 0, 0, 0, 0, 0, 0, 0, 0, 0, 0, 0, 0, 0, 0, 0, 0, 0, 0, 0, 0, 0], "sum_hessian": [5663.412, 3641.0078, 2022.4043, 893.7801, 2747.2278, 1848.5347, 173.8696, 307.62158, 586.1585, 2137.2495, 609.9782, 496.14603, 1352.3887, 98.359726, 75.50988, 481.10587, 105.05266, 1191.1707, 946.0788, 220.28249, 389.6957, 399.86612, 96.27989, 1022.85425, 329.53442, 15.20423, 83.155495, 46.157635, 29.352245, 289.84396, 191.2619, 89.48089, 15.571768, 924.11835, 267.0524, 689.8039, 256.27493, 52.522938, 167.75954, 360.35156, 29.344143, 263.68777, 136.17834, 18.718033, 77.56186, 503.99622, 518.85803, 135.38269, 194.15173, 9.653752, 5.5504775, 57.293804, 25.861692, 40.68956, 5.4680743, 22.985529, 6.3667173], "tree_param": {"num_deleted": "0", "num_feature": "30", "num_nodes": "57", "size_leaf_vector": "1"}}, {"base_weights": [-0.0063211033, 0.061360944, -0.07508464, -0.2137114, 0.63744265, -0.2931954, 0.40772286, 0.995961, 0.5055953, -0.059122313, -0.5023311, 0.1576347, 0.6787074, 0.05690461, 0.76498896, 0.16646858, 0.69892055, -0.009988157, 0.025599113, -0.007368479, -0.03206354, 0.017792292, -0.025153253, 0.03673018, -0.030321425, 0.0049132938, 0.043333568, -0.0017256368, 0.028283907, 0.028643657, 0.04781685], "categories": [], "categories_nodes": [], "categories_segments": [], "categories_sizes": [], "default_left": [0, 0, 0, 0, 0, 0, 0, 0, 0, 0, 0, 0, 0, 0, 0, 0, 0, 0, 0, 0, 0, 0, 0, 0, 0, 0, 0, 0, 0, 0, 0], "id": 21, "left_children": [1, -1, 3, 5, 7, 9, 11, 13, 15, 17, 19, 21, 23, -1, 25, 27, 29, -1, -1, -1, -1, -1, -1, -1, -1, -1, -1, -1, -1, -1, -1], "loss_changes": [477.5012, 0.0, 526.8146, 220.63445, 40.558807, 193.76166, 34.23076, 6.763153, 41.656097, 150.23143, 103.01001, 34.85701, 17.892426, 0.0, 6.127037, 18.685951, 12.609146, 0.0, 0.0, 0.0, 0.0, 0.0, 0.0, 0.0, 0.0, 0.0, 0.0, 0.0, 0.0, 0.0, 0.0], "parents": [2147483647, 0, 0, 2, 2, 3, 3, 4, 4, 5, 5, 6, 6, 7, 7, 8, 8, 9, 9, 10, 10, 11, 11, 12, 12, 14, 14, 15, 15, 16, 16], "right_children": [2, -1, 4, 6, 8, 10, 12, 14, 16, 18, 20, 22, 24, -1, 26, 28, 30, -1, -1, -1, -1, -1, -1, -1, -1, -1, -1, -1, -1, -1, -1], "split_conditions": [1.0, 0.061360944, 1.0, 7.0, 335.27, 0.47619048, 13.0, 0.625, 2.0, 706.8704, 202.86769, 49.0, 23.0, 0.05690461, 2.0, 5.0, 6.0, -0.009988157, 0.025599113, -0.007368479, -0.03206354, 0.017792292, -0.025153253, 0.03673018, -0.030321425, 0.0049132938, 0.043333568, -0.0017256368, 0.028283907, 0.028643657, 0.04781685], "split_indices": [15, 0, 18, 9, 2, 17, 6, 17, 18, 2, 2, 4, 26, 0, 15, 15, 14, 0, 0, 0, 0, 0, 0, 0, 0, 0, 0, 0, 0, 0, 0], "split_type": [0, 0, 0, 0, 0, 0, 0, 0, 0, 0, 0, 0, 0, 0, 0, 0, 0, 0, 0, 0, 0, 0, 0, 0, 0, 0, 0, 0, 0, 0, 0], "sum_hessian": [5627.3247, 296.24146, 5331.083, 4463.4, 867.683, 3957.7197, 505.68042, 231.5365, 636.1465, 1868.1234, 2089.5962, 263.80237, 241.87807, 140.90292, 90.633575, 231.65083, 404.49567, 1499.5042, 368.61926, 588.40546, 1501.1908, 203.27953, 60.52282, 232.20677, 9.671298, 12.253664, 78.37991, 154.68733, 76.96351, 273.70013, 130.79552], "tree_param": {"num_deleted": "0", "num_feature": "30", "num_nodes": "31", "size_leaf_vector": "1"}}, {"base_weights": [-0.003436934, 0.22379652, -0.41439432, 0.81139785, 0.023402996, -0.49647844, 0.33188036, 0.059835713, 0.64696807, -0.13915431, 0.61097205, -0.1285992, -0.6344808, 0.8001478, 0.0674216, 0.5611702, 1.0860527, -0.4728325, 0.033080433, 0.4428985, 0.8515778, -0.25489482, 0.2009081, -0.90003633, -0.4655124, 0.94266206, -0.023644445, -0.16083631, 0.6445467, 0.032480318, 0.011165547, 0.055689644, 0.02466043, -0.011339771, -0.04662956, 0.0071997815, -0.033900928, 0.03512929, -0.034972996, 0.050599474, 0.029498098, -0.022602221, 0.0039223926, 0.02984941, -0.039893113, -0.053213175, -0.014693613, -0.01608298, -0.03963897, 0.05253796, 0.009146497, 0.005332056, -0.047054406, 0.050638285, 0.020619368], "categories": [], "categories_nodes": [], "categories_segments": [], "categories_sizes": [], "default_left": [0, 0, 0, 0, 0, 0, 0, 0, 0, 0, 0, 0, 0, 0, 0, 0, 0, 0, 0, 0, 0, 0, 0, 0, 0, 0, 0, 0, 0, 0, 0, 0, 0, 0, 0, 0, 0, 0, 0, 0, 0, 0, 0, 0, 0, 0, 0, 0, 0, 0, 0, 0, 0, 0, 0], "id": 22, "left_children": [1, 3, 5, 7, 9, 11, 13, -1, 15, 17, 19, 21, 23, 25, 27, 29, 31, 33, 35, 37, 39, 41, 43, 45, 47, 49, -1, 51, 53, -1, -1, -1, -1, -1, -1, -1, -1, -1, -1, -1, -1, -1, -1, -1, -1, -1, -1, -1, -1, -1, -1, -1, -1, -1, -1], "loss_changes": [521.1748, 423.16403, 121.893555, 57.129456, 256.1519, 90.826965, 24.405573, 0.0, 23.604218, 120.74962, 23.124802, 20.431831, 57.99878, 13.362453, 16.875675, 15.98204, 1.1609192, 80.69737, 109.45471, 102.6117, 9.387817, 23.331337, 54.378956, 49.978424, 37.300705, 5.0934677, 0.0, 19.307896, 2.684063, 0.0, 0.0, 0.0, 0.0, 0.0, 0.0, 0.0, 0.0, 0.0, 0.0, 0.0, 0.0, 0.0, 0.0, 0.0, 0.0, 0.0, 0.0, 0.0, 0.0, 0.0, 0.0, 0.0, 0.0, 0.0, 0.0], "parents": [2147483647, 0, 0, 1, 1, 2, 2, 3, 3, 4, 4, 5, 5, 6, 6, 8, 8, 9, 9, 10, 10, 11, 11, 12, 12, 13, 13, 14, 14, 15, 15, 16, 16, 17, 17, 18, 18, 19, 19, 20, 20, 21, 21, 22, 22, 23, 23, 24, 24, 25, 25, 27, 27, 28, 28], "right_children": [2, 4, 6, 8, 10, 12, 14, -1, 16, 18, 20, 22, 24, 26, 28, 30, 32, 34, 36, 38, 40, 42, 44, 46, 48, 50, -1, 52, 54, -1, -1, -1, -1, -1, -1, -1, -1, -1, -1, -1, -1, -1, -1, -1, -1, -1, -1, -1, -1, -1, -1, -1, -1, -1, -1], "split_conditions": [1.0, 187.4264, 6.0, 1.0, 1.0, 182.47194, 209.88882, 0.059835713, 1.0, 11.0, 1.0, 1.0, 16.0, 1.0, 30.0, 1.0, 33.0, 240.48018, 777.4669, 51.0, 0.26086956, 2.0, 432.5086, 1.0, 790.7073, 400.33417, -0.023644445, 537.20734, 43.0, 0.032480318, 0.011165547, 0.055689644, 0.02466043, -0.011339771, -0.04662956, 0.0071997815, -0.033900928, 0.03512929, -0.034972996, 0.050599474, 0.029498098, -0.022602221, 0.0039223926, 0.02984941, -0.039893113, -0.053213175, -0.014693613, -0.01608298, -0.03963897, 0.05253796, 0.009146497, 0.005332056, -0.047054406, 0.050638285, 0.020619368], "split_indices": [17, 2, 9, 9, 19, 2, 2, 0, 19, 4, 5, 26, 4, 26, 9, 27, 5, 0, 2, 4, 17, 9, 0, 26, 0, 0, 0, 0, 15, 0, 0, 0, 0, 0, 0, 0, 0, 0, 0, 0, 0, 0, 0, 0, 0, 0, 0, 0, 0, 0, 0, 0, 0, 0, 0], "split_type": [0, 0, 0, 0, 0, 0, 0, 0, 0, 0, 0, 0, 0, 0, 0, 0, 0, 0, 0, 0, 0, 0, 0, 0, 0, 0, 0, 0, 0, 0, 0, 0, 0, 0, 0, 0, 0, 0, 0, 0, 0, 0, 0, 0, 0, 0, 0, 0, 0, 0, 0, 0, 0, 0, 0], "sum_hessian": [5579.037, 3592.8652, 1986.172, 912.91956, 2679.9458, 1789.6588, 196.51315, 271.17764, 641.74194, 2099.7817, 580.16406, 488.73822, 1300.9205, 70.19531, 126.31785, 538.7478, 102.994125, 714.26276, 1385.5189, 343.23816, 236.9259, 353.48044, 135.2578, 504.19168, 796.7289, 63.361603, 6.8337092, 91.03431, 35.283535, 426.25183, 112.49598, 97.55081, 5.4433146, 466.24686, 248.01588, 1199.2593, 186.25957, 279.97717, 63.260994, 145.09291, 91.83299, 221.89093, 131.58951, 97.13819, 38.119602, 396.1166, 108.07506, 554.83124, 241.89763, 55.13391, 8.22769, 68.43686, 22.597454, 12.343541, 22.939995], "tree_param": {"num_deleted": "0", "num_feature": "30", "num_nodes": "55", "size_leaf_vector": "1"}}, {"base_weights": [0.010791278, 0.28111058, -0.2717434, 0.97426367, 0.13578114, -0.38764942, 0.28360724, 1.153006, 0.7123584, -0.017997181, 0.7195177, -0.01690073, -0.54193324, 0.091777466, 0.70736444, 0.93132997, 0.059401847, 0.42580608, 0.8846112, -0.15207843, 0.4838825, 1.0521362, 0.6083974, 0.07816171, -0.6301767, -0.6173061, 0.13498686, 0.2965564, -0.6922761, 0.48336986, 1.035976, 0.05631579, 0.037088107, 0.0068518743, 0.047805246, 0.046996735, -0.0030192388, -0.023908472, 0.0024128954, 0.044481426, -0.01915381, 0.055055823, 0.043097243, 0.04024759, 0.0113113895, -0.001606649, 0.025872795, -0.011751334, -0.050949395, -0.03993852, -0.017926542, 0.013775192, -0.0272887, 0.003615832, 0.037197024, -0.067471586, -0.0032737856, 0.037219826, -0.0010913985, 0.06087109, 0.03841941], "categories": [], "categories_nodes": [], "categories_segments": [], "categories_sizes": [], "default_left": [0, 0, 0, 0, 0, 0, 0, 0, 0, 0, 0, 0, 0, 0, 0, 0, 0, 0, 0, 0, 0, 0, 0, 0, 0, 0, 0, 0, 0, 0, 0, 0, 0, 0, 0, 0, 0, 0, 0, 0, 0, 0, 0, 0, 0, 0, 0, 0, 0, 0, 0, 0, 0, 0, 0, 0, 0, 0, 0, 0, 0], "id": 23, "left_children": [1, 3, 5, 7, 9, 11, 13, 15, 17, 19, 21, 23, 25, 27, 29, 31, -1, 33, 35, 37, 39, 41, 43, 45, 47, 49, 51, 53, 55, 57, 59, -1, -1, -1, -1, -1, -1, -1, -1, -1, -1, -1, -1, -1, -1, -1, -1, -1, -1, -1, -1, -1, -1, -1, -1, -1, -1, -1, -1, -1, -1], "loss_changes": [424.9536, 286.3078, 175.22993, 22.24289, 211.12491, 128.76324, 38.168808, 1.1549988, 9.616966, 125.399864, 17.48523, 38.67696, 81.19058, 52.374092, 10.276741, 0.8045311, 0.0, 11.804466, 6.6192474, 96.088455, 138.54753, 0.18211365, 27.608414, 27.854254, 13.439106, 66.89148, 15.464424, 25.862585, 27.751755, 11.74531, 1.9036751, 0.0, 0.0, 0.0, 0.0, 0.0, 0.0, 0.0, 0.0, 0.0, 0.0, 0.0, 0.0, 0.0, 0.0, 0.0, 0.0, 0.0, 0.0, 0.0, 0.0, 0.0, 0.0, 0.0, 0.0, 0.0, 0.0, 0.0, 0.0, 0.0, 0.0], "parents": [2147483647, 0, 0, 1, 1, 2, 2, 3, 3, 4, 4, 5, 5, 6, 6, 7, 7, 8, 8, 9, 9, 10, 10, 11, 11, 12, 12, 13, 13, 14, 14, 15, 15, 17, 17, 18, 18, 19, 19, 20, 20, 21, 21, 22, 22, 23, 23, 24, 24, 25, 25, 26, 26, 27, 27, 28, 28, 29, 29, 30, 30], "right_children": [2, 4, 6, 8, 10, 12, 14, 16, 18, 20, 22, 24, 26, 28, 30, 32, -1, 34, 36, 38, 40, 42, 44, 46, 48, 50, 52, 54, 56, 58, 60, -1, -1, -1, -1, -1, -1, -1, -1, -1, -1, -1, -1, -1, -1, -1, -1, -1, -1, -1, -1, -1, -1, -1, -1, -1, -1, -1, -1, -1, -1], "split_conditions": [0.5, 113.40553, 8.0, 86.08948, 1.0, 202.86769, 9.0, 3.0, 96.23026, 706.8704, 446.3388, 432.5086, 1.0, 709.47266, 39.0, 1.0, 0.059401847, 3.0, 54.0, 7.0, 950.2164, 335.27, 1.0, 1.0, 2.0, 5.0, 1307.2202, 1.0, 12.0, 705.0, 1.0, 0.05631579, 0.037088107, 0.0068518743, 0.047805246, 0.046996735, -0.0030192388, -0.023908472, 0.0024128954, 0.044481426, -0.01915381, 0.055055823, 0.043097243, 0.04024759, 0.0113113895, -0.001606649, 0.025872795, -0.011751334, -0.050949395, -0.03993852, -0.017926542, 0.013775192, -0.0272887, 0.003615832, 0.037197024, -0.067471586, -0.0032737856, 0.037219826, -0.0010913985, 0.06087109, 0.03841941], "split_indices": [17, 2, 16, 2, 18, 2, 5, 3, 2, 2, 2, 0, 18, 0, 16, 20, 0, 3, 3, 4, 0, 2, 11, 26, 26, 7, 2, 18, 7, 4, 17, 0, 0, 0, 0, 0, 0, 0, 0, 0, 0, 0, 0, 0, 0, 0, 0, 0, 0, 0, 0, 0, 0, 0, 0, 0, 0, 0, 0, 0, 0], "split_type": [0, 0, 0, 0, 0, 0, 0, 0, 0, 0, 0, 0, 0, 0, 0, 0, 0, 0, 0, 0, 0, 0, 0, 0, 0, 0, 0, 0, 0, 0, 0, 0, 0, 0, 0, 0, 0, 0, 0, 0, 0, 0, 0, 0, 0, 0, 0, 0, 0, 0, 0, 0, 0, 0, 0, 0, 0, 0, 0, 0, 0], "sum_hessian": [5562.072, 2842.4856, 2719.586, 491.68335, 2350.8022, 2250.2444, 469.34164, 290.21686, 201.46649, 1861.4065, 489.3958, 661.57336, 1588.6709, 323.92242, 145.4192, 43.36832, 246.84854, 76.94165, 124.52484, 1469.5115, 391.895, 120.43299, 368.96283, 573.5425, 88.03089, 1429.5798, 159.09103, 257.3338, 66.58862, 87.94404, 57.475174, 18.942715, 24.425606, 50.630024, 26.311623, 117.64295, 6.8818917, 558.70715, 910.8043, 266.93866, 124.95633, 91.96072, 28.472277, 242.91997, 126.04286, 459.1815, 114.361, 44.455307, 43.57559, 839.08856, 590.49133, 132.36472, 26.72632, 172.18974, 85.14405, 31.944357, 34.644268, 57.67231, 30.271727, 32.135284, 25.339891], "tree_param": {"num_deleted": "0", "num_feature": "30", "num_nodes": "61", "size_leaf_vector": "1"}}, {"base_weights": [-0.0082552545, 1.1968727, -0.07141509, 0.058619995, 0.07623005, -0.1958776, 0.5779455, -0.02462309, -0.44372818, 0.8859831, 0.42773294, 0.463727, -0.13779418, -0.18904224, -0.62243, 0.90942115, -0.0065478995, 0.2036744, 0.7592843, 0.030408043, 0.011435195, -0.016863903, 0.004025878, -0.019346962, 0.0052656266, -0.033037607, 0.035684727, 0.05202747, 0.037920605, 0.019065438, -0.041453946, 0.02882953, 0.057960022], "categories": [], "categories_nodes": [], "categories_segments": [], "categories_sizes": [], "default_left": [0, 0, 0, 0, 0, 0, 0, 0, 0, 0, 0, 0, 0, 0, 0, 0, 0, 0, 0, 0, 0, 0, 0, 0, 0, 0, 0, 0, 0, 0, 0, 0, 0], "id": 24, "left_children": [1, 3, 5, -1, -1, 7, 9, 11, 13, 15, 17, 19, 21, 23, 25, 27, -1, 29, 31, -1, -1, -1, -1, -1, -1, -1, -1, -1, -1, -1, -1, -1, -1], "loss_changes": [417.59027, 0.40386963, 421.42703, 0.0, 0.0, 185.69748, 38.428864, 143.12158, 81.24756, 6.649704, 41.87053, 16.40004, 91.57936, 43.06491, 54.242645, 4.5165405, 0.0, 62.496918, 15.972748, 0.0, 0.0, 0.0, 0.0, 0.0, 0.0, 0.0, 0.0, 0.0, 0.0, 0.0, 0.0, 0.0, 0.0], "parents": [2147483647, 0, 0, 1, 1, 2, 2, 5, 5, 6, 6, 7, 7, 8, 8, 9, 9, 10, 10, 11, 11, 12, 12, 13, 13, 14, 14, 15, 15, 17, 17, 18, 18], "right_children": [2, 4, 6, -1, -1, 8, 10, 12, 14, 16, 18, 20, 22, 24, 26, 28, -1, 30, 32, -1, -1, -1, -1, -1, -1, -1, -1, -1, -1, -1, -1, -1, -1], "split_conditions": [1.0, 172.70158, 1.0, 0.058619995, 0.07623005, 1.0, 446.3388, 179.42285, 290.70026, 15.0, 1.0, 124.0505, 561.61365, 2.0, 30.0, 0.47619048, -0.0065478995, 29.0, 6.0, 0.030408043, 0.011435195, -0.016863903, 0.004025878, -0.019346962, 0.0052656266, -0.033037607, 0.035684727, 0.05202747, 0.037920605, 0.019065438, -0.041453946, 0.02882953, 0.057960022], "split_indices": [15, 2, 18, 0, 0, 17, 2, 2, 2, 26, 5, 2, 2, 15, 10, 17, 0, 3, 14, 0, 0, 0, 0, 0, 0, 0, 0, 0, 0, 0, 0, 0, 0], "split_type": [0, 0, 0, 0, 0, 0, 0, 0, 0, 0, 0, 0, 0, 0, 0, 0, 0, 0, 0, 0, 0, 0, 0, 0, 0, 0, 0, 0, 0, 0, 0, 0, 0], "sum_hessian": [5484.1353, 272.21216, 5211.923, 257.5567, 14.655436, 4374.218, 837.7051, 2587.4775, 1786.7405, 272.99066, 564.7144, 486.2291, 2101.2483, 737.5878, 1049.1526, 266.94397, 6.046686, 337.94763, 226.76675, 300.17087, 186.05821, 1097.6855, 1003.56274, 440.87177, 296.71603, 1020.3917, 28.760931, 139.7242, 127.21978, 288.88925, 49.058388, 157.33374, 69.433014], "tree_param": {"num_deleted": "0", "num_feature": "30", "num_nodes": "33", "size_leaf_vector": "1"}}, {"base_weights": [-0.00085641793, 0.2541645, -0.2648873, 0.7893936, 0.071207, -0.38611972, 0.31232813, 0.058006138, 0.5839215, -0.13619448, 0.48167068, -0.4567197, 0.19728756, 0.18314408, 0.7609744, 0.37272805, 0.8024806, -0.26471084, 0.67026097, 0.75185305, 0.046532426, -0.37293425, -0.97649807, -0.058586266, 0.65917194, 0.0041481983, 0.53894424, 0.8130875, 0.0012797116, 0.026194429, -0.0009524426, 0.03543846, 0.053922553, -0.033391617, -0.00180024, 0.026148884, 0.050424036, 0.02032786, 0.048427925, -0.039852496, 0.028027145, -0.021381376, 0.04672897, -0.055047072, -0.030825764, 0.007703659, -0.07200318, 0.056989055, 0.02239368, 0.021328634, -0.0103295455, -0.00093847374, 0.031836044, 0.043620568, 0.013844773], "categories": [], "categories_nodes": [], "categories_segments": [], "categories_sizes": [], "default_left": [0, 0, 0, 0, 0, 0, 0, 0, 0, 0, 0, 0, 0, 0, 0, 0, 0, 0, 0, 0, 0, 0, 0, 0, 0, 0, 0, 0, 0, 0, 0, 0, 0, 0, 0, 0, 0, 0, 0, 0, 0, 0, 0, 0, 0, 0, 0, 0, 0, 0, 0, 0, 0, 0, 0], "id": 25, "left_children": [1, 3, 5, 7, 9, 11, 13, -1, 15, 17, 19, 21, 23, 25, 27, 29, 31, 33, 35, 37, 39, 41, 43, 45, 47, 49, 51, 53, -1, -1, -1, -1, -1, -1, -1, -1, -1, -1, -1, -1, -1, -1, -1, -1, -1, -1, -1, -1, -1, -1, -1, -1, -1, -1, -1], "loss_changes": [366.30566, 270.9301, 187.16063, 53.015747, 175.7276, 91.091156, 26.781742, 0.0, 20.72728, 142.33104, 81.42267, 85.480316, 28.308285, 23.050146, 3.9467163, 13.840221, 5.002594, 109.11437, 8.878128, 31.586533, 115.99364, 121.91029, 11.551697, 45.713192, 8.157406, 21.615568, 6.617977, 2.8326187, 0.0, 0.0, 0.0, 0.0, 0.0, 0.0, 0.0, 0.0, 0.0, 0.0, 0.0, 0.0, 0.0, 0.0, 0.0, 0.0, 0.0, 0.0, 0.0, 0.0, 0.0, 0.0, 0.0, 0.0, 0.0, 0.0, 0.0], "parents": [2147483647, 0, 0, 1, 1, 2, 2, 3, 3, 4, 4, 5, 5, 6, 6, 8, 8, 9, 9, 10, 10, 11, 11, 12, 12, 13, 13, 14, 14, 15, 15, 16, 16, 17, 17, 18, 18, 19, 19, 20, 20, 21, 21, 22, 22, 23, 23, 24, 24, 25, 25, 26, 26, 27, 27], "right_children": [2, 4, 6, 8, 10, 12, 14, -1, 16, 18, 20, 22, 24, 26, 28, 30, 32, 34, 36, 38, 40, 42, 44, 46, 48, 50, 52, 54, -1, -1, -1, -1, -1, -1, -1, -1, -1, -1, -1, -1, -1, -1, -1, -1, -1, -1, -1, -1, -1, -1, -1, -1, -1, -1, -1], "split_conditions": [0.47619048, 187.4264, 6.0, 1.0, 662.0528, 1.0, 1.0, 0.058006138, 2.0, 5.0, 32.565674, 770.2163, 8.0, 40.0, 99.0, 1.0, 11.538102, 7.0, 1.0, 753.5513, 1.0, 750.1372, 2.0, 96.0, 131.0, 201.75645, 8.0, 742.61597, 0.0012797116, 0.026194429, -0.0009524426, 0.03543846, 0.053922553, -0.033391617, -0.00180024, 0.026148884, 0.050424036, 0.02032786, 0.048427925, -0.039852496, 0.028027145, -0.021381376, 0.04672897, -0.055047072, -0.030825764, 0.007703659, -0.07200318, 0.056989055, 0.02239368, 0.021328634, -0.0103295455, -0.00093847374, 0.031836044, 0.043620568, 0.013844773], "split_indices": [17, 2, 9, 9, 2, 19, 11, 0, 9, 9, 1, 2, 6, 6, 10, 27, 1, 4, 11, 2, 5, 2, 5, 4, 4, 2, 10, 2, 0, 0, 0, 0, 0, 0, 0, 0, 0, 0, 0, 0, 0, 0, 0, 0, 0, 0, 0, 0, 0, 0, 0, 0, 0, 0, 0], "split_type": [0, 0, 0, 0, 0, 0, 0, 0, 0, 0, 0, 0, 0, 0, 0, 0, 0, 0, 0, 0, 0, 0, 0, 0, 0, 0, 0, 0, 0, 0, 0, 0, 0, 0, 0, 0, 0, 0, 0, 0, 0, 0, 0, 0, 0, 0, 0, 0, 0, 0, 0, 0, 0, 0, 0], "sum_hessian": [5438.1777, 2766.3074, 2671.8706, 703.8703, 2062.437, 2208.377, 463.49377, 249.34183, 454.5285, 1370.5737, 691.86334, 1970.1766, 238.2002, 360.96506, 102.52874, 232.5353, 221.99321, 1182.7612, 187.81248, 426.3869, 265.4764, 1698.1599, 272.01672, 153.84602, 84.35417, 240.82335, 120.1417, 95.64513, 6.883609, 167.55124, 64.98405, 168.38344, 53.609768, 427.4355, 755.32574, 132.61108, 55.2014, 165.5221, 260.8648, 100.30593, 165.17047, 1630.6239, 67.53602, 200.60928, 71.40743, 134.09276, 19.753265, 24.418602, 59.93557, 79.8136, 161.00975, 18.041542, 102.10016, 85.55261, 10.092518], "tree_param": {"num_deleted": "0", "num_feature": "30", "num_nodes": "55", "size_leaf_vector": "1"}}, {"base_weights": [-0.012109206, 1.1795851, -0.07036093, 0.057616152, 0.07510092, -0.18049622, 0.5201646, -0.25557396, 0.23710369, 0.8337596, 0.37091014, 0.070391245, -0.34309632, 0.30974346, -0.85380584, 0.68956655, 0.99395055, 0.1428469, 0.7030855, 0.01884739, -0.0045363125, -0.032903284, -0.010029099, 0.007320523, 0.027907213, -0.07009222, 0.015210007, 0.038570344, 0.010857156, 0.05492245, 0.04304799, 0.022311086, -0.055960964, 0.027457813, 0.05324254], "categories": [], "categories_nodes": [], "categories_segments": [], "categories_sizes": [], "default_left": [0, 0, 0, 0, 0, 0, 0, 0, 0, 0, 0, 0, 0, 0, 0, 0, 0, 0, 0, 0, 0, 0, 0, 0, 0, 0, 0, 0, 0, 0, 0, 0, 0, 0, 0], "id": 26, "left_children": [1, 3, 5, -1, -1, 7, 9, 11, 13, 15, 17, 19, 21, 23, 25, 27, 29, 31, 33, -1, -1, -1, -1, -1, -1, -1, -1, -1, -1, -1, -1, -1, -1, -1, -1], "loss_changes": [374.27737, 0.47787476, 334.39832, 0.0, 0.0, 135.90881, 37.52025, 104.81587, 52.62872, 5.316208, 41.520554, 38.47654, 129.85437, 25.084435, 26.776218, 5.2456284, 0.7333374, 125.7027, 11.855354, 0.0, 0.0, 0.0, 0.0, 0.0, 0.0, 0.0, 0.0, 0.0, 0.0, 0.0, 0.0, 0.0, 0.0, 0.0, 0.0], "parents": [2147483647, 0, 0, 1, 1, 2, 2, 5, 5, 6, 6, 7, 7, 8, 8, 9, 9, 10, 10, 11, 11, 12, 12, 13, 13, 14, 14, 15, 15, 16, 16, 17, 17, 18, 18], "right_children": [2, 4, 6, -1, -1, 8, 10, 12, 14, 16, 18, 20, 22, 24, 26, 28, 30, 32, 34, -1, -1, -1, -1, -1, -1, -1, -1, -1, -1, -1, -1, -1, -1, -1, -1], "split_conditions": [1.0, 172.70158, 1.0, 0.057616152, 0.07510092, 5.0, 446.3388, 176.16777, 766.0434, 2.0, 1.0, 1.0, 6.0, 3.0, 15.0, 335.27, 4.0, 51.0, 6.0, 0.01884739, -0.0045363125, -0.032903284, -0.010029099, 0.007320523, 0.027907213, -0.07009222, 0.015210007, 0.038570344, 0.010857156, 0.05492245, 0.04304799, 0.022311086, -0.055960964, 0.027457813, 0.05324254], "split_indices": [15, 2, 19, 0, 0, 9, 2, 2, 2, 11, 5, 16, 4, 5, 10, 2, 10, 4, 14, 0, 0, 0, 0, 0, 0, 0, 0, 0, 0, 0, 0, 0, 0, 0, 0], "split_type": [0, 0, 0, 0, 0, 0, 0, 0, 0, 0, 0, 0, 0, 0, 0, 0, 0, 0, 0, 0, 0, 0, 0, 0, 0, 0, 0, 0, 0, 0, 0, 0, 0, 0, 0], "sum_hessian": [5389.4326, 250.26872, 5139.164, 234.97514, 15.293579, 4331.9355, 807.22833, 3672.133, 659.8026, 258.82703, 548.4013, 777.31696, 2894.8162, 619.28284, 40.519768, 139.007, 119.820015, 326.0047, 222.39659, 267.33047, 509.98645, 900.6601, 1994.1561, 374.57492, 244.7079, 27.360537, 13.159232, 117.94237, 21.064634, 63.032314, 56.787704, 263.34775, 62.656956, 157.78001, 64.616585], "tree_param": {"num_deleted": "0", "num_feature": "30", "num_nodes": "35", "size_leaf_vector": "1"}}, {"base_weights": [-0.00038369859, 0.058404632, -0.05482568, -0.16133592, 0.5155725, -0.0056575364, -0.39113617, 0.6859855, 0.25844398, 0.59425825, -0.075743355, -0.32856214, -1.0570246, 0.050555546, 0.55036974, 0.08147575, 0.6532215, 0.02223849, 0.041321035, -0.016140165, 0.0027386378, -0.019076379, 0.027311891, -0.039866198, -0.05911832, 0.038658764, 0.0076504047, -0.0021691627, 0.043798894, 0.03720304, 0.0015202918], "categories": [], "categories_nodes": [], "categories_segments": [], "categories_sizes": [], "default_left": [0, 0, 0, 0, 0, 0, 0, 0, 0, 0, 0, 0, 0, 0, 0, 0, 0, 0, 0, 0, 0, 0, 0, 0, 0, 0, 0, 0, 0, 0, 0], "id": 27, "left_children": [1, -1, 3, 5, 7, 9, 11, 13, 15, 17, 19, 21, 23, -1, 25, 27, 29, -1, -1, -1, -1, -1, -1, -1, -1, -1, -1, -1, -1, -1, -1], "loss_changes": [342.95203, 0.0, 313.03027, 155.3097, 35.348495, 108.9046, 72.70697, 20.916122, 22.635695, 9.035759, 74.799034, 74.53406, 3.9449463, 0.0, 30.500916, 22.396238, 5.6564217, 0.0, 0.0, 0.0, 0.0, 0.0, 0.0, 0.0, 0.0, 0.0, 0.0, 0.0, 0.0, 0.0, 0.0], "parents": [2147483647, 0, 0, 2, 2, 3, 3, 4, 4, 5, 5, 6, 6, 7, 7, 8, 8, 9, 9, 10, 10, 11, 11, 12, 12, 14, 14, 15, 15, 16, 16], "right_children": [2, -1, 4, 6, 8, 10, 12, 14, 16, 18, 20, 22, 24, -1, 26, 28, 30, -1, -1, -1, -1, -1, -1, -1, -1, -1, -1, -1, -1, -1, -1], "split_conditions": [1.0, 0.058404632, 1.0, 1.0, 0.5, 113.40553, 826.7279, 461.77646, 6.0, 3.0, 9.0, 750.1372, 1213.1295, 0.050555546, 1.0, 422.0, 738.6355, 0.02223849, 0.041321035, -0.016140165, 0.0027386378, -0.019076379, 0.027311891, -0.039866198, -0.05911832, 0.038658764, 0.0076504047, -0.0021691627, 0.043798894, 0.03720304, 0.0015202918], "split_indices": [15, 0, 18, 17, 17, 2, 2, 2, 9, 9, 4, 2, 2, 0, 9, 3, 2, 0, 0, 0, 0, 0, 0, 0, 0, 0, 0, 0, 0, 0, 0], "split_type": [0, 0, 0, 0, 0, 0, 0, 0, 0, 0, 0, 0, 0, 0, 0, 0, 0, 0, 0, 0, 0, 0, 0, 0, 0, 0, 0, 0, 0, 0, 0], "sum_hessian": [5389.12, 239.00267, 5150.117, 4340.361, 809.7568, 2588.085, 1752.2758, 485.99417, 323.7626, 269.94543, 2318.1394, 1603.1227, 149.15315, 141.14862, 344.84555, 224.38373, 99.37886, 165.98448, 103.96096, 800.79834, 1517.3411, 1512.1333, 90.98936, 50.94967, 98.20348, 220.34798, 124.497574, 194.72704, 29.656694, 86.559296, 12.819569], "tree_param": {"num_deleted": "0", "num_feature": "30", "num_nodes": "31", "size_leaf_vector": "1"}}, {"base_weights": [0.009826025, 0.057657517, -0.042014364, -0.14641583, 0.5132898, -0.22450285, 0.28032038, 0.6242222, 0.23085906, -0.03882862, -0.37439156, 0.33960474, -0.41132343, 0.44787955, 0.7731664, 0.3269868, -1.3688135, -0.015130308, 0.006490949, -0.015764728, -0.044422537, 0.0059201433, 0.027275184, -0.029600853, 0.03951498, 0.015260406, 0.03657769, 0.031557076, 0.044207253, -0.0024653228, 0.030929625, -0.10030891, -0.035031546], "categories": [], "categories_nodes": [], "categories_segments": [], "categories_sizes": [], "default_left": [0, 0, 0, 0, 0, 0, 0, 0, 0, 0, 0, 0, 0, 0, 0, 0, 0, 0, 0, 0, 0, 0, 0, 0, 0, 0, 0, 0, 0, 0, 0, 0, 0], "id": 28, "left_children": [1, -1, 3, 5, 7, 9, 11, 13, 15, 17, 19, 21, 23, 25, 27, 29, 31, -1, -1, -1, -1, -1, -1, -1, -1, -1, -1, -1, -1, -1, -1, -1, -1], "loss_changes": [315.47614, 0.0, 295.28006, 142.91415, 25.110031, 100.85333, 27.347828, 14.838928, 35.646397, 72.10761, 60.64041, 27.796135, 11.940485, 10.586979, 4.3603516, 23.81245, 4.2024555, 0.0, 0.0, 0.0, 0.0, 0.0, 0.0, 0.0, 0.0, 0.0, 0.0, 0.0, 0.0, 0.0, 0.0, 0.0, 0.0], "parents": [2147483647, 0, 0, 2, 2, 3, 3, 4, 4, 5, 5, 6, 6, 7, 7, 8, 8, 9, 9, 10, 10, 11, 11, 12, 12, 13, 13, 14, 14, 15, 15, 16, 16], "right_children": [2, -1, 4, 6, 8, 10, 12, 14, 16, 18, 20, 22, 24, 26, 28, 30, 32, -1, -1, -1, -1, -1, -1, -1, -1, -1, -1, -1, -1, -1, -1, -1, -1], "split_conditions": [1.0, 0.057657517, 1.0, 5.0, 1.0, 1.0, 1.0, 2.0, 1.0, 7.0, 1142.7045, 6.0, 15.0, 4.0, 1.0, 2.0, 20.0, -0.015130308, 0.006490949, -0.015764728, -0.044422537, 0.0059201433, 0.027275184, -0.029600853, 0.03951498, 0.015260406, 0.03657769, 0.031557076, 0.044207253, -0.0024653228, 0.030929625, -0.10030891, -0.035031546], "split_indices": [15, 0, 18, 9, 13, 16, 26, 18, 9, 4, 0, 6, 10, 9, 7, 6, 26, 0, 0, 0, 0, 0, 0, 0, 0, 0, 0, 0, 0, 0, 0, 0, 0], "split_type": [0, 0, 0, 0, 0, 0, 0, 0, 0, 0, 0, 0, 0, 0, 0, 0, 0, 0, 0, 0, 0, 0, 0, 0, 0, 0, 0, 0, 0, 0, 0, 0, 0], "sum_hessian": [5320.8433, 229.87064, 5090.9727, 4285.9224, 805.0502, 3623.3684, 662.5541, 577.1489, 227.90123, 1619.0428, 2004.3257, 610.71545, 51.83859, 266.10303, 311.0459, 215.73297, 